var json = {"layers":[{"out_depth":1,"out_sx":20,"out_sy":40,"layer_type":"input"},{"sx":5,"sy":5,"stride":1,"in_depth":1,"out_depth":10,"out_sx":20,"out_sy":40,"layer_type":"conv","l1_decay_mul":0,"l2_decay_mul":1,"pad":2,"filters":[{"sx":5,"sy":5,"depth":1,"w":{"0":0.11460565157954875,"1":0.09529470721381172,"2":0.04430197210615159,"3":0.015962582806604057,"4":-0.08516351495527068,"5":0.12294153223320796,"6":-0.1452626709436981,"7":-0.06974577678377317,"8":0.03991744221697926,"9":0.03571731271478057,"10":0.2206316897505459,"11":-0.1895519712469635,"12":-0.21682786505000357,"13":-0.07725163510521117,"14":-0.13106871001910103,"15":0.12504937240442804,"16":0.25634437418698813,"17":0.17563651519381457,"18":0.082363899268634,"19":0.016111221729650568,"20":-0.3404132060543207,"21":-0.35748210948382925,"22":0.0947066848115272,"23":-0.22319128497783403,"24":-0.07890977366008876}},{"sx":5,"sy":5,"depth":1,"w":{"0":-0.07046724254781078,"1":-0.1578824293787249,"2":0.1686445244354703,"3":0.13866851916043813,"4":0.20078770784584993,"5":-0.11797996320652632,"6":0.0489683181958634,"7":-0.11995193855012484,"8":-0.22837503945094378,"9":-0.22197428632149105,"10":0.23630277041619646,"11":-0.12410465760947834,"12":-0.14623054760235563,"13":-0.05744869269620904,"14":-0.13654650336504737,"15":-0.05863539175482351,"16":0.042266194971889715,"17":0.04033183778941879,"18":0.003733662209741748,"19":0.2147873848632001,"20":-0.049249929124863166,"21":-0.17202447760206374,"22":-0.16335583558678932,"23":0.13939973746215797,"24":0.2171719150182803}},{"sx":5,"sy":5,"depth":1,"w":{"0":0.1235392527054767,"1":-0.1915658147696528,"2":-0.120922257256118,"3":-0.08898875311269229,"4":-0.10570956582366912,"5":0.041020752091252756,"6":-0.16539311788015462,"7":-0.038964330540778996,"8":-0.2719510236162572,"9":-0.23992500009796763,"10":0.05028632358513127,"11":-0.02089716688422593,"12":0.03499369017930478,"13":-0.1603492187774478,"14":0.007224907023644788,"15":0.1215050986372461,"16":0.2452709088425664,"17":0.02536937996532013,"18":0.1932338170181909,"19":-0.0774568706677837,"20":-0.22864103965865487,"21":0.14467941822623728,"22":-0.0020199527386854737,"23":0.45237819949571156,"24":-0.011113120698321944}},{"sx":5,"sy":5,"depth":1,"w":{"0":-0.199657329297352,"1":-0.0736483684137643,"2":-0.08983150255960881,"3":-0.017741168888664526,"4":0.16888385755838556,"5":0.03464108185746864,"6":0.20141331209043498,"7":0.18548033883366594,"8":0.2964517824378568,"9":-0.07516602785768668,"10":0.19563909199657217,"11":0.10621215066836065,"12":0.34321713963691836,"13":-0.023012173183110808,"14":-0.21770782068895397,"15":0.13451977327682904,"16":0.044673980653393904,"17":0.002456589537436336,"18":-0.3734640571535284,"19":0.052003025760812054,"20":0.04152378480921632,"21":0.20479403253732428,"22":0.16233986383985902,"23":-0.19244964005030132,"24":-0.04110491807403179}},{"sx":5,"sy":5,"depth":1,"w":{"0":0.35649634755870824,"1":-0.002357944891051147,"2":-0.26195070395988385,"3":0.06320041358727224,"4":0.11781955737846808,"5":0.03481747548126137,"6":0.22763386845110917,"7":0.3646254339823173,"8":-0.04586029511122495,"9":-0.13630724252707477,"10":0.11281593171281432,"11":-0.03160139863004839,"12":0.16759320155274163,"13":0.09221250325524606,"14":0.1988226338301609,"15":-0.13324680922387228,"16":-0.15205344835182344,"17":0.0034689999841877968,"18":-0.25679023928507794,"19":0.11953538180851334,"20":-0.009849568438056469,"21":-0.3951478690980844,"22":-0.19764174043488164,"23":0.12302565667423883,"24":-0.21405647059968577}},{"sx":5,"sy":5,"depth":1,"w":{"0":-0.05849872678321574,"1":0.00891605647277885,"2":0.28490226837320365,"3":-0.034724906971148356,"4":-0.2681738808084569,"5":0.2760978727741264,"6":0.1572981626895486,"7":-0.4495841016355034,"8":0.035324960197969615,"9":-0.14162261853280736,"10":0.08108626521597556,"11":0.036028899745877016,"12":-0.21873385039860208,"13":0.13397794881612235,"14":0.020531110999735383,"15":0.186024388091325,"16":0.08445972848849415,"17":0.11818099145526192,"18":0.006828925808446537,"19":0.16248400423246234,"20":-0.035672154454039144,"21":0.1629657087251764,"22":0.06338005721898089,"23":-0.029401494220793373,"24":0.062029880607652715}},{"sx":5,"sy":5,"depth":1,"w":{"0":0.14491486982442983,"1":-0.1954222768127491,"2":-0.08025800266734599,"3":-0.006828885145809667,"4":0.07969081320846393,"5":0.04506767552735691,"6":-0.1701622282523257,"7":0.020066531203405784,"8":0.07961252369597646,"9":-0.01743769670353462,"10":0.054256619680675855,"11":0.013649493759948225,"12":-0.010324713224681677,"13":0.12562513316268012,"14":0.5158182072399287,"15":-0.2259205522461023,"16":-0.017653099746621825,"17":0.21893170672977647,"18":-0.1853519869728138,"19":-0.25134222695918684,"20":0.12232434734425203,"21":-0.22550179556350686,"22":-0.08662742639845696,"23":0.1315937881001613,"24":0.1312002884710868}},{"sx":5,"sy":5,"depth":1,"w":{"0":0.08035755090790044,"1":-0.0023298149624315606,"2":0.05635738428845125,"3":0.24768021748765334,"4":-0.16676368102522574,"5":-0.371886805709534,"6":-0.020344123316008315,"7":-0.4555598806920886,"8":-0.22213080528117835,"9":-0.07398458276006098,"10":0.08334176714925985,"11":0.46594692321121267,"12":-0.05663643427837492,"13":0.11699535126268448,"14":-0.10290306087804327,"15":-0.15571878141840376,"16":-0.3397897461726691,"17":-0.05095071373823956,"18":-0.06450054541998074,"19":-0.2272955192441921,"20":-0.18338618757823988,"21":0.1240953971283157,"22":0.020123658131702252,"23":0.24596879500133928,"24":0.0944736394218669}},{"sx":5,"sy":5,"depth":1,"w":{"0":0.16260106299303434,"1":-0.10437453161774068,"2":0.09503487415244703,"3":-0.15894182282252242,"4":-0.13732579807940115,"5":0.0672692747640378,"6":0.20275112943475004,"7":0.015828760868239235,"8":0.040415315349171914,"9":0.11658782490292463,"10":0.16938624291060833,"11":0.1342619468811858,"12":-0.12016110178359841,"13":-0.05089587309887389,"14":-0.3086518342160587,"15":-0.20232248978256298,"16":0.07882344036210674,"17":-0.07593202540138351,"18":0.10102878171023948,"19":-0.08916958602338723,"20":-0.10728657208897507,"21":0.019116672358211434,"22":0.22731856517593818,"23":0.2564381649189089,"24":0.13780353997072184}},{"sx":5,"sy":5,"depth":1,"w":{"0":-0.04114595426536642,"1":-0.08068955565462009,"2":-0.046666994655781904,"3":-0.21557987558437122,"4":0.20548021697583246,"5":-0.08011530780168692,"6":-0.051888070119931205,"7":-0.039430616078981205,"8":0.05627917065167923,"9":-0.31133496423965157,"10":0.21556361372851932,"11":-0.022182297334448934,"12":0.10579917351716146,"13":0.16304428519759412,"14":-0.029353115271602313,"15":-0.11182141354623856,"16":0.028111505387217923,"17":-0.10116671121101949,"18":0.17856049090203546,"19":0.2878438383994221,"20":-0.02875521271372311,"21":-0.1144914344866426,"22":-0.22399243872251817,"23":-0.17148452097836364,"24":-0.16803119452023818}}],"biases":{"sx":1,"sy":1,"depth":10,"w":{"0":0.11883919006635316,"1":0.10032397277517266,"2":0.12942863556514939,"3":0.16442713246550156,"4":0.11102026914668091,"5":0.19292687845799536,"6":0.09363075702162003,"7":0.07665105687578022,"8":0.07867505258667408,"9":0.1036842271561141}}},{"out_depth":10,"out_sx":20,"out_sy":40,"layer_type":"relu"},{"sx":2,"sy":2,"stride":2,"in_depth":10,"out_depth":10,"out_sx":10,"out_sy":20,"layer_type":"pool","pad":0},{"sx":5,"sy":5,"stride":1,"in_depth":10,"out_depth":20,"out_sx":10,"out_sy":20,"layer_type":"conv","l1_decay_mul":0,"l2_decay_mul":1,"pad":2,"filters":[{"sx":5,"sy":5,"depth":10,"w":{"0":-0.002587475833853004,"1":0.020144249668590804,"2":-0.003985269142990917,"3":-0.018872643889481167,"4":-0.029103405840014647,"5":0.0034680520424719193,"6":-0.010971571418425065,"7":0.004826877186298292,"8":0.02419884396423849,"9":0.004907926996185906,"10":0.016531815013561105,"11":0.005887192235830997,"12":-0.014162080712510523,"13":-0.01276513955791905,"14":-0.008818856289462952,"15":0.015073266111060066,"16":0.037004663374965524,"17":0.013015947307439324,"18":-0.036625697399945055,"19":0.024349885315859247,"20":0.027439492012198623,"21":0.009635602024877394,"22":-0.006372586108819352,"23":0.0023689539563249594,"24":-0.024445580622344407,"25":0.04087299370788753,"26":0.0667654245419906,"27":0.012427845582447907,"28":-0.020811278877362463,"29":0.013753825572332694,"30":-0.003827245149705003,"31":0.02152743581950877,"32":-0.04621433855077964,"33":-0.03849001733542441,"34":0.042628897852025636,"35":-0.16009429144709936,"36":-0.04599016047310239,"37":0.0014276805437181456,"38":-0.03125209556093937,"39":-0.049803944621862085,"40":-0.01894131228683134,"41":-0.05062499435319682,"42":-0.0650242949845627,"43":0.03866672406539415,"44":-0.04220761432209158,"45":-0.05634458611897275,"46":-0.00665400048631319,"47":-0.021715572439783774,"48":0.056740987166577245,"49":-0.020941959861599416,"50":0.0003874860060360098,"51":0.021037755862827457,"52":0.002181376631781981,"53":-0.026341453387431945,"54":0.0018985436347290184,"55":0.029165268076974504,"56":0.014297080558698213,"57":0.01024071618289092,"58":0.0010785438122313887,"59":-0.009470178294113816,"60":0.004951298184119404,"61":0.0027812145138079642,"62":-0.026583568282550887,"63":-0.005684616617766619,"64":0.009280081342561558,"65":-0.012284464972808605,"66":0.011102341001245637,"67":0.014356766095250315,"68":-0.01106022061007826,"69":0.06610842166587454,"70":0.04935018342849885,"71":0.01094328406938192,"72":-0.004565725537836245,"73":-0.00707027812192524,"74":-0.005592672815485619,"75":-0.04577287290496388,"76":-0.012999182354954985,"77":0.027951947165781203,"78":0.020892150710502138,"79":-0.005946936751056794,"80":0.02993453198533061,"81":-0.004556832568687928,"82":0.021478691800181797,"83":-0.01358725476000478,"84":0.07529161509763539,"85":-0.00550790449422593,"86":0.10253646727006549,"87":-0.008884206754020765,"88":-0.04710661402841246,"89":0.0386820902368661,"90":-0.0366145685175764,"91":-0.061072137226285766,"92":-0.008720490377875803,"93":-0.031121623945340807,"94":0.03481203378880267,"95":-0.016441370628083766,"96":0.012312078070200825,"97":-0.006672937324540916,"98":0.06369576113579314,"99":-0.002296131947659878,"100":-0.01075437520511843,"101":0.008389914177004576,"102":-0.05554903913435627,"103":0.0241293772253914,"104":-0.025737259545010643,"105":-0.03655193056612988,"106":-0.019662622481644035,"107":-0.06909608222424012,"108":-0.037346982080842084,"109":-0.0064932366400432895,"110":0.03164143298131991,"111":-0.07257291938411345,"112":-0.011166203619976797,"113":-0.022429498003899814,"114":-0.02722790734701013,"115":-0.034243712659969484,"116":-0.02395302521498182,"117":0.020344860881193798,"118":0.00924926307962892,"119":-0.007774863224391059,"120":0.05694729572127545,"121":-0.016931713221248215,"122":0.0016800392213530686,"123":-0.02903745632553526,"124":0.04643464792427629,"125":-0.02187873595886758,"126":0.038301403020660554,"127":0.04734228459412819,"128":0.011004060528966316,"129":-0.000247624176203512,"130":0.05812949877953579,"131":-0.026842368866016146,"132":0.008178008234676059,"133":-0.035129229968989956,"134":0.05499940834750057,"135":-0.006759957133318044,"136":-0.04768610359107142,"137":0.028804293990816056,"138":0.05191072537103744,"139":-0.017916357479596773,"140":0.0022406645913633544,"141":-0.04807100547586003,"142":0.034945627974565296,"143":0.01021550528861561,"144":-0.04475471815748364,"145":0.04621886614925721,"146":0.0338096763535996,"147":-0.048987874623305276,"148":-0.06267264019190558,"149":-0.028955103782839792,"150":-0.0003408120021531914,"151":-0.01876604733745638,"152":-0.04863322986148454,"153":0.02396824473880781,"154":0.025674489069896844,"155":0.010948128503366496,"156":-0.06716531859875419,"157":-0.03093321877039084,"158":0.05326610683959435,"159":-0.016982771050992006,"160":0.009278716975553186,"161":-0.07919119974903865,"162":-0.034416864576710816,"163":0.010137576390842859,"164":-0.007745652299510866,"165":0.03414757148822736,"166":0.04925230946577027,"167":0.004203661173824666,"168":-0.05274971785701724,"169":0.013014536404506127,"170":-0.002804734760862461,"171":0.04018978758996839,"172":-0.004005247470607534,"173":-0.03489616742370413,"174":0.0655641365702269,"175":-0.026513060044211174,"176":0.03621302650643149,"177":0.03938520914658529,"178":-0.029120246921512032,"179":0.0357729127633224,"180":0.008696580984224423,"181":-0.005099979441850526,"182":0.010012972550049367,"183":-0.030733227271271858,"184":0.009308333326846519,"185":-0.0666428833659662,"186":0.03793598146577988,"187":0.05141010907964076,"188":0.018451492243343973,"189":-0.004659894525891659,"190":-0.056719684543197264,"191":0.023186099808172256,"192":-0.03022102069749507,"193":0.024038464582447874,"194":-0.075269968663881,"195":-0.049307436088246184,"196":-0.0005928277037414524,"197":0.07555979530108212,"198":0.07400991450622099,"199":0.1318566963170437,"200":-0.022079388858590107,"201":0.008731775897666537,"202":0.07329516548099448,"203":0.0637199247008694,"204":0.0010520225314806558,"205":0.0029546365091665016,"206":-0.020699814610227418,"207":-0.08928292126047618,"208":0.026354521550094795,"209":-0.025464771589285975,"210":-0.03351852638975064,"211":0.02372700324193804,"212":0.028915856825322172,"213":0.036756890346711306,"214":-0.08631240148351949,"215":-0.013281536641398035,"216":-0.11118462432117175,"217":-0.004214089765931761,"218":-0.022800958967798345,"219":-0.007515872202892171,"220":0.008701839289721717,"221":0.01812819636132687,"222":0.010470668635782988,"223":-0.02079648604526648,"224":-0.008795564003814947,"225":-0.013454129292743424,"226":-0.060873791356478864,"227":0.003218916957143456,"228":-0.009740593667298993,"229":-0.004721353579695634,"230":-0.009180958586144088,"231":-0.04927867932656347,"232":-0.0022828668832885397,"233":0.10287416377376155,"234":0.019806143240123825,"235":-0.01498551367931122,"236":-0.015192423649771985,"237":0.016207247450545817,"238":-0.0037981121434997843,"239":-0.002461184621110385,"240":0.026803121220562016,"241":-0.0259029680227938,"242":-0.0013478988264004604,"243":-0.0579433683359591,"244":0.010163821833698038,"245":-0.09766356679266625,"246":0.09571417501804538,"247":0.02895481352065479,"248":-0.017220617932072885,"249":-0.0701460229950907}},{"sx":5,"sy":5,"depth":10,"w":{"0":-0.06334324397498077,"1":0.05256070252076083,"2":-0.026765850008411158,"3":0.008682642014534097,"4":0.06804322490985552,"5":-0.034527659951890534,"6":-0.07239581498075447,"7":0.01887626235464541,"8":0.03407249364092929,"9":0.014691844859935113,"10":0.042157503231178735,"11":0.014897468381735104,"12":-0.012327721952032031,"13":0.040767563152313904,"14":0.04846798317264247,"15":-0.06508557197052275,"16":-0.03325087784497246,"17":0.04022556906740236,"18":-0.029580492928396714,"19":-0.07313493644363464,"20":0.04052648617048215,"21":0.049758760037626,"22":0.0611310124508808,"23":-0.040412912697636846,"24":-0.029771111938065288,"25":0.011258570087089094,"26":-0.043113626988555656,"27":-0.0007986425914200772,"28":-0.04947437901240168,"29":0.0182833897062334,"30":-0.0005257873511433463,"31":0.014751616594621236,"32":-0.02763005387433683,"33":0.05176358401622651,"34":-0.08663000213231542,"35":0.0629646201570175,"36":0.11917891678762478,"37":-0.04863873505757388,"38":-0.06364747653395748,"39":0.015415298690572676,"40":0.015500389205819028,"41":-0.09924803906499095,"42":-0.030619362590393884,"43":-0.06988008891143536,"44":-0.08051494088715537,"45":0.09424259283477979,"46":0.09016030958095975,"47":-0.03116254724926228,"48":0.009010407735144811,"49":0.005710091886468149,"50":0.052504942161819244,"51":0.010700931405887768,"52":-0.04578283148891764,"53":0.019279645354023198,"54":-0.01365669152619685,"55":-0.02607064056595212,"56":-0.0839248869964849,"57":0.028295155373760532,"58":0.011937249582628096,"59":0.0230143670174023,"60":0.014443539634892182,"61":0.09358910652852023,"62":0.008858849348561683,"63":-0.05851698651455595,"64":-0.051671129311070645,"65":-0.062036510478659296,"66":0.06797949073771789,"67":0.13431493082738152,"68":-0.05313010054351892,"69":0.08268477514563048,"70":0.014447624802889051,"71":0.037269166134277894,"72":0.026879408350812133,"73":0.0679921000423201,"74":0.03295556548487636,"75":-0.03095932859960775,"76":-0.0915803517141126,"77":0.10816292122621479,"78":0.026777056675672095,"79":-0.034882993972266435,"80":-0.0070893427269540215,"81":-0.02332909626619933,"82":-0.08814873953090256,"83":0.014161495392115711,"84":-0.03151710446848717,"85":-0.07524050068738496,"86":0.019297100775446798,"87":0.01317407118264504,"88":0.06622656448889071,"89":-0.02603959485143149,"90":-0.08139911492121163,"91":-0.07940547002907253,"92":0.01849284712584378,"93":-0.016720908226629333,"94":0.09014060151807836,"95":-0.014300205289149465,"96":0.07277562605900273,"97":0.02572457684911763,"98":0.00957616220735353,"99":-0.02780209851580808,"100":0.007275991958940554,"101":0.023329513291186342,"102":-0.0556550025982606,"103":-0.0850813145893516,"104":-0.011531720431955491,"105":-0.03709376538669665,"106":-0.0006154034948518972,"107":0.05702144206881046,"108":0.01920455417936215,"109":-0.004640790497302522,"110":0.04445218792792221,"111":0.03023218856706187,"112":-0.022007326785326888,"113":0.10530598833585679,"114":0.007201271740399851,"115":-0.013186129360989202,"116":0.06983389268764831,"117":0.19702698961048834,"118":0.044078215047405424,"119":-0.004627965643396943,"120":0.02309761645087097,"121":0.002196764517078595,"122":0.06835722688704962,"123":0.14637773811472968,"124":0.08486470721122741,"125":-0.08049375847249947,"126":0.05521614604063193,"127":-0.04273853709579538,"128":0.05304633439367998,"129":-0.006955595653878376,"130":0.05112914960829804,"131":-0.007920407569915733,"132":-0.0636363540611143,"133":0.07709631250285987,"134":-0.06816390332251451,"135":-0.09568812596951594,"136":-0.037676556901320046,"137":-0.016458863906314826,"138":0.005178189845745032,"139":-0.07801137336168877,"140":-0.05200661844964344,"141":-0.0737659971339794,"142":-0.07583933898270516,"143":0.026297987834457057,"144":0.013926491558094936,"145":-0.10217791021645078,"146":-0.038727380170638676,"147":-0.037483506578478286,"148":0.009017261253826677,"149":-0.04480187928750936,"150":-0.020620331741382805,"151":0.0945686026348087,"152":0.02677970324983404,"153":-0.09229822600041343,"154":-0.08346638679177033,"155":-0.0023085900276109774,"156":0.05701187412936552,"157":-0.003205744724323111,"158":0.008011868088422927,"159":-0.07107183998175871,"160":-0.03499719464241267,"161":0.057464788545185386,"162":0.004498937203717962,"163":0.06479243427962363,"164":-0.07843417964283704,"165":0.01628178243876058,"166":0.05804132356633137,"167":-0.01698262753734001,"168":-0.0001209233769111916,"169":-0.04121244948513997,"170":0.039990300595392915,"171":0.022003892263206724,"172":0.032028679368887314,"173":0.09515145155204864,"174":0.02430866397574961,"175":0.08293286859183305,"176":-0.09354534757862758,"177":0.031804773420644035,"178":-0.11484817860108221,"179":-0.05585433649754613,"180":0.12837983064131744,"181":-0.07690349973075804,"182":-0.02356087585685183,"183":-0.06900316285312785,"184":0.026337273857592526,"185":-0.09029996668992492,"186":-0.036729315181852365,"187":-0.02447269548445233,"188":-0.007063723883364338,"189":-0.003635334772856935,"190":0.021959557896040337,"191":-0.0004781757403748062,"192":-0.03048174964958104,"193":-0.015980774867088633,"194":-0.09222173669762083,"195":-0.075379725276321,"196":-0.005740703592780468,"197":-0.009160173086688829,"198":-0.05928551452867923,"199":-0.0015947086714410649,"200":0.004202430566880503,"201":0.0689100894097154,"202":0.014615296667919038,"203":-0.08381202339916999,"204":-0.04092571472793868,"205":0.06022301721161982,"206":-0.004332172708127252,"207":-0.0425545711359858,"208":-0.039404636338992355,"209":0.06502168121349618,"210":-0.0320373261584754,"211":-0.06407793492575134,"212":-0.007681679417987862,"213":0.0445145468343892,"214":-0.03013491081750892,"215":0.0790225793012142,"216":-0.012024990699619102,"217":-0.00994517890635498,"218":0.036377950687681,"219":-0.022994840918767176,"220":-0.007704399393620109,"221":-0.057860306849921425,"222":0.0002672469765701737,"223":0.023716072229841973,"224":0.003943178328106612,"225":-0.002710299196923703,"226":-0.0029068936825715863,"227":-0.04163401353366511,"228":-0.024487045178706007,"229":0.006479054723995831,"230":-0.05572984058943975,"231":0.012167333940528218,"232":0.03218897060655481,"233":0.009579345057595166,"234":-0.03067902189251416,"235":-0.06345702042751644,"236":-0.028678778734856084,"237":-0.006549457678164637,"238":-0.03843335906832676,"239":-0.03784932305831432,"240":-0.004636078347848502,"241":-0.012395287342166788,"242":0.011199235791207135,"243":-0.0060665309273743575,"244":-0.04654837754809583,"245":-0.01605634886094973,"246":-0.01732308904733339,"247":0.005899866251536467,"248":0.0001409360375065428,"249":-0.01084289606113234}},{"sx":5,"sy":5,"depth":10,"w":{"0":0.07698051031648113,"1":0.008528977998515389,"2":0.08620904654776693,"3":0.05888209400662132,"4":-0.01946816786532635,"5":0.08724882450979093,"6":-0.05284733145612113,"7":-0.004199376387840617,"8":-0.032869825450061806,"9":0.001329915605285393,"10":-0.008843919031635611,"11":0.026545312265212537,"12":-0.035808512484310155,"13":-0.05550917458701002,"14":0.0030916524410570527,"15":-0.051978530455864806,"16":-0.05852231669479369,"17":-0.031361706652919076,"18":-0.05614230390031021,"19":-0.02210888914867765,"20":-0.030281801934562435,"21":-0.016442431327910543,"22":0.019075453572282575,"23":-0.07699136941302215,"24":0.0076022055384964765,"25":-0.0345213269186996,"26":0.01381846534588978,"27":-0.059542549078996414,"28":0.01543552162892382,"29":0.02186841129151874,"30":0.06626390257028433,"31":0.1475389492120154,"32":-0.1087041049660888,"33":0.024963991201899797,"34":-0.015357611665193617,"35":-0.01726962591871761,"36":-0.1096245536710169,"37":0.008960006515608705,"38":0.06818654884478573,"39":-0.01865723416173901,"40":0.04487343306108209,"41":-0.02417523838420303,"42":-0.024329193019567836,"43":0.09754204627772069,"44":0.014704641873192117,"45":-0.068058258608216,"46":0.1129625208586079,"47":-0.023422583916520433,"48":0.07837664435816488,"49":0.04212593080147854,"50":-0.04225925004465187,"51":-0.05688935532132143,"52":-0.04576836783438254,"53":0.04587141698170052,"54":0.06909614679877249,"55":0.007813055076183588,"56":-0.06449566820731138,"57":0.01051768694660321,"58":-0.049075626189699496,"59":-0.000566506945476014,"60":0.04136339595101281,"61":0.034607035428564935,"62":0.07712578224114118,"63":0.03130111715957399,"64":-0.084993112610709,"65":0.0639403734925066,"66":-0.012419757062398716,"67":-0.023497114392526032,"68":0.06516132366468141,"69":-0.04546546726917463,"70":-0.05503169005245637,"71":0.03469599481060329,"72":-0.01074545822666407,"73":0.02445538384282477,"74":0.042019719531890265,"75":-0.09591065803874758,"76":-0.00006783218362928917,"77":-0.07841709330720963,"78":0.031796083768599395,"79":0.01696231597976834,"80":-0.007845712320032568,"81":-0.08214448124928442,"82":-0.00918601272569792,"83":-0.0364210578017096,"84":0.0774045528129152,"85":-0.04555713825971989,"86":-0.043134190474440504,"87":0.17231971014294103,"88":-0.028791515754843806,"89":-0.023584653013963248,"90":-0.013984236140781262,"91":-0.009054164877182377,"92":0.03502781250173972,"93":-0.052287824323573415,"94":0.011480287616441327,"95":-0.08030060423323321,"96":-0.04348796349226304,"97":0.13616668009466326,"98":-0.0140056063806562,"99":-0.05865187134790982,"100":0.012776651384157263,"101":-0.051017299106935095,"102":-0.029541818671179526,"103":0.03352974903622961,"104":-0.03060088836237783,"105":0.031823331485276475,"106":0.009677436285190811,"107":-0.023564696417340585,"108":0.0035799473160736213,"109":-0.01767869674825596,"110":-0.02512612289748087,"111":0.09686607877501806,"112":0.038840070759027234,"113":-0.06866277446723955,"114":0.025396487410269408,"115":0.014975155276083625,"116":0.008058401034476925,"117":0.008760637864306016,"118":0.046210377700605966,"119":0.07518095406092347,"120":-0.03413076437101575,"121":0.08123842761466685,"122":0.012218124656417488,"123":0.001957726974915267,"124":-0.09789337843215527,"125":0.06489317339395925,"126":-0.003979081978203362,"127":0.020355264128326323,"128":0.07843306404306599,"129":0.03339073944850951,"130":0.0018828313227926457,"131":-0.021987899822581102,"132":0.10033094666875282,"133":-0.05349235992366546,"134":0.024708660455325444,"135":-0.013672195522240412,"136":-0.024426981580600995,"137":0.03609943189424138,"138":-0.0296508595211385,"139":0.06754299242905039,"140":0.003317635563133016,"141":-0.0033762593931386028,"142":-0.11631102580700071,"143":-0.08837311653778446,"144":-0.045530779233257324,"145":-0.01736540163550028,"146":0.03240303145635354,"147":-0.007421984366891231,"148":0.05626243285127085,"149":-0.002723141248717389,"150":0.0071777039747991135,"151":0.04619151839960636,"152":-0.04576467744636208,"153":0.026569581001463474,"154":-0.004391098869359138,"155":-0.048583315210076944,"156":-0.07138326738947573,"157":0.05335127698986361,"158":-0.029148072978105677,"159":-0.025370005655946732,"160":-0.027903565252432417,"161":0.008755705777312427,"162":0.036404482408968056,"163":-0.05362648300583746,"164":-0.024344667056347063,"165":0.0021855337268843816,"166":-0.05468659024728322,"167":0.020585641937610803,"168":-0.0533756314754033,"169":-0.01419282041686264,"170":-0.02644306307166968,"171":-0.03595257215032396,"172":0.04742233389680927,"173":0.03802601873672685,"174":-0.044495353998914806,"175":0.048931875387301614,"176":-0.05248202956358076,"177":-0.009536246532982628,"178":0.0979650223884651,"179":-0.05152296926461916,"180":-0.04214171471850471,"181":-0.055610325887462946,"182":-0.09739776805868273,"183":0.012202235223583026,"184":0.024527980423588835,"185":0.006708473168033416,"186":0.016097937000681482,"187":-0.0571424984680927,"188":-0.12736474969487033,"189":0.04131323302970045,"190":0.009756157498757117,"191":0.02670967875062599,"192":0.009658776279927561,"193":0.12484331030811911,"194":0.08172715944020842,"195":-0.021388001826771603,"196":0.0035986146088397937,"197":0.022673403555740605,"198":-0.05922442232632494,"199":-0.03789984996130732,"200":0.0418409013645479,"201":-0.008818114617965172,"202":0.053789070508199074,"203":-0.03690934638529799,"204":0.016130183505879105,"205":0.026199191633614557,"206":-0.04270562219234256,"207":0.037004193569743236,"208":-0.09536104120132813,"209":0.04505308389158253,"210":0.000947373555488597,"211":-0.012108921577474074,"212":-0.025594073605352978,"213":-0.03464156694042753,"214":-0.008981979824307087,"215":-0.0120400643142882,"216":0.023695307903284113,"217":-0.03514134940230892,"218":-0.1398864859184804,"219":0.02393791903571077,"220":0.03534423504233595,"221":-0.03155692343602862,"222":-0.08554522092473141,"223":0.09685696720699163,"224":0.06915026347589798,"225":0.03113946284422553,"226":-0.04050840984792981,"227":-0.0037569544303167647,"228":-0.02981962103773361,"229":-0.0031887637496488103,"230":0.0024359459913983984,"231":0.058475551414786574,"232":-0.04050141199876496,"233":-0.03149120371305383,"234":-0.03729825767836001,"235":-0.002866328522872824,"236":-0.02981553487070188,"237":0.00505569507435794,"238":0.013004995773029658,"239":0.050943330987775044,"240":0.10774146739555714,"241":-0.01208670763424228,"242":0.05243315729730161,"243":-0.02764278007406366,"244":0.00995940182453008,"245":-0.0011096424484110853,"246":-0.02370229783291413,"247":0.12725823737547293,"248":0.09925401779169772,"249":0.024234613001642504}},{"sx":5,"sy":5,"depth":10,"w":{"0":0.01938293791258507,"1":0.020561152662209047,"2":-0.004059772760818751,"3":0.08691369087402254,"4":0.0023283161364305543,"5":0.09011983414776265,"6":0.02430372407320863,"7":-0.05171274571335317,"8":-0.00398799862760935,"9":-0.03275409519301346,"10":0.030058197099097683,"11":0.061166196874060816,"12":0.0017526467093110889,"13":-0.015384336196844095,"14":-0.031358909043825,"15":0.05331926046925102,"16":-0.045256760404651895,"17":-0.022953899788487758,"18":-0.05176401744644994,"19":-0.0005271641434941544,"20":-0.03669503934263056,"21":-0.0514782862692298,"22":-0.08203739595131464,"23":-0.03843859337559141,"24":0.032246138127762856,"25":-0.025409714597664716,"26":0.0391609479325231,"27":-0.06881891755186866,"28":-0.003186468662938106,"29":0.03539476854530362,"30":-0.019934693194748776,"31":-0.02865137530454481,"32":0.06951164675357298,"33":0.11882432717825071,"34":-0.028124812843444074,"35":-0.053643094140257155,"36":-0.021054263657325475,"37":-0.016524874153320233,"38":-0.028954572769882555,"39":-0.003842631449081033,"40":-0.042399918434854036,"41":-0.005843023926321226,"42":0.05206010849673322,"43":0.0072914288400079035,"44":-0.07900595660721114,"45":0.060868877685697396,"46":-0.0024083716484136833,"47":-0.006190639961703329,"48":0.028749126450449577,"49":-0.053418264868274244,"50":0.08181942093507821,"51":-0.0039475511854196385,"52":0.008233145173022344,"53":-0.03666469704744477,"54":0.046868269749004425,"55":0.1130357927637053,"56":0.04373617255525725,"57":-0.05251083216317694,"58":0.051513655247374494,"59":-0.023937281304101655,"60":0.01096300649236123,"61":0.06925959804023805,"62":-0.06975164875819559,"63":-0.07205565406135604,"64":0.020163884950348026,"65":-0.023828528285939912,"66":-0.05582655562250969,"67":0.0005593320319338023,"68":0.01885169093102223,"69":0.02113772672168343,"70":-0.059416539090827676,"71":0.01466931441314733,"72":-0.04489627163250543,"73":-0.03487892203749611,"74":-0.07298711995297696,"75":-0.03088462327015978,"76":-0.013016893878854088,"77":-0.0022838186616958487,"78":0.028992420042553688,"79":0.04244003386682211,"80":-0.06735545018120276,"81":0.014857881091881995,"82":0.0014510108928628036,"83":0.004230700997710102,"84":-0.014699600782628268,"85":-0.019469296996914156,"86":0.014804408345008237,"87":0.03593586162597036,"88":-0.06264332600568115,"89":-0.034897042592597655,"90":-0.02257468192313114,"91":0.0016783419798138772,"92":-0.06088228596501066,"93":-0.0000479552535220266,"94":-0.04620237589240665,"95":0.06936859721339102,"96":-0.005264337862759664,"97":0.05132588326855843,"98":-0.05587202615750343,"99":-0.03636881468331934,"100":-0.030896229114323742,"101":-0.030965629919637007,"102":-0.03520929035819367,"103":-0.006375132904310899,"104":-0.06181290809820695,"105":-0.04039724427973118,"106":-0.04983431577401819,"107":-0.04766765816019978,"108":-0.06021509323424946,"109":-0.03360734938961067,"110":-0.03565034187540462,"111":-0.06799803297615177,"112":0.009800316555834148,"113":0.002190686720145491,"114":-0.04426877273302054,"115":-0.04925312030547925,"116":-0.015043953387105766,"117":-0.05259496082054939,"118":0.045308032292534835,"119":-0.030220018960322847,"120":-0.029941430080757968,"121":0.028402543150919328,"122":-0.009262474589202164,"123":0.014760795336264879,"124":0.04691046205983398,"125":0.03477029869558607,"126":0.029910556839491648,"127":-0.019346718040256016,"128":0.010986840683666881,"129":-0.03322298577970002,"130":-0.026887730437461732,"131":-0.005128896666407091,"132":-0.029989340843134687,"133":0.06713154464652474,"134":-0.014499846840968096,"135":0.02944652472266342,"136":0.11616283912353718,"137":0.026891812962315183,"138":-0.01686379666525282,"139":-0.03789830277097142,"140":0.004853708091989479,"141":-0.023408584431293254,"142":-0.015731366968817505,"143":0.08527744441698852,"144":0.020581093926033703,"145":0.034278375036071465,"146":-0.056711000456020545,"147":-0.013674629401932039,"148":0.010430141204719532,"149":0.0032943459834450296,"150":-0.015559721979059893,"151":-0.028483101569936872,"152":-0.032387807568136195,"153":-0.022132330349955938,"154":-0.025968652964480424,"155":-0.03804426974255637,"156":-0.00007862410810217291,"157":-0.00820772328778266,"158":-0.04330025264809959,"159":-0.00020541843159177552,"160":-0.031228352143857854,"161":0.015389167551965422,"162":-0.008731081955978697,"163":0.04795027903364286,"164":0.014425068921825976,"165":-0.020976519729518115,"166":-0.10387157243641437,"167":-0.006934668258578865,"168":-0.06021541018596955,"169":0.07276641686370565,"170":-0.002915784582678386,"171":-0.019291991976243258,"172":-0.0027975278737952932,"173":0.04526220264591501,"174":0.03314595199368077,"175":0.04006045249797283,"176":-0.03089212050686868,"177":-0.03975809604972019,"178":0.020605794715935787,"179":0.02080023983146902,"180":-0.03496346433249689,"181":0.007544849742004277,"182":0.026480595021713495,"183":0.05215086520261036,"184":0.05480166254430465,"185":-0.0000025858829983997433,"186":-0.08215456061024934,"187":0.07987981215917937,"188":-0.006099186776190117,"189":0.019634856106739863,"190":0.013613890260949045,"191":-0.05076468336046072,"192":0.0293323147988824,"193":-0.02254021378623005,"194":0.039816675070728454,"195":-0.053291747152975695,"196":0.01937916618278957,"197":-0.064853787221181,"198":-0.005196177918497561,"199":-0.005685478803650127,"200":0.004641141220806461,"201":-0.012431896294361203,"202":-0.000020828393848082912,"203":-0.012967192714795269,"204":0.01633962287278258,"205":-0.002647672899212763,"206":0.04548221761932031,"207":-0.0003991361220188009,"208":-0.011055714028877811,"209":0.0026012406511674883,"210":-0.011732124648990698,"211":-0.03276089421924891,"212":-0.006548731647508936,"213":0.017144065870508544,"214":-0.05557129084313227,"215":-0.01861702474264384,"216":-0.004784657205513393,"217":-0.011142736627157174,"218":-0.02640833278799407,"219":-0.002667451725878758,"220":0.011925874315107587,"221":0.006604618858576906,"222":-0.0031125876369848004,"223":0.015750990184636045,"224":-0.0005525937547013192,"225":0.014421999449299599,"226":0.0041930053996174325,"227":-0.014535053839001846,"228":-0.012748470675956802,"229":-0.03189410129294716,"230":0.01328365379529706,"231":0.0027349238834703843,"232":0.013633508635985605,"233":-0.06304960434470147,"234":0.005094415681347229,"235":-0.03259628740567311,"236":-0.009608373761941232,"237":-0.02206937015894747,"238":0.02175691410121192,"239":-0.020567648787900336,"240":-0.015266663845312637,"241":-0.035162899411247124,"242":0.000999587742533885,"243":-0.055895953030992526,"244":0.006969136660007319,"245":0.009400027067997292,"246":-0.00835046335823428,"247":-0.010825825161830099,"248":0.006598130770838288,"249":-0.0026226611025342897}},{"sx":5,"sy":5,"depth":10,"w":{"0":0.025132856203373202,"1":-0.03493163454535962,"2":-0.004726964618876231,"3":0.030598749380839743,"4":0.08997315407794353,"5":0.05519746113591248,"6":-0.05229167889052645,"7":-0.046418629347178844,"8":0.01558534994720452,"9":0.0017465456016734942,"10":0.035293870937676546,"11":0.032453298983916364,"12":-0.07887702176839727,"13":-0.0643951189352346,"14":-0.033409961806361466,"15":-0.0501270699281533,"16":-0.03187456280106316,"17":0.0279659856634017,"18":-0.022195013812030717,"19":-0.03316735310348051,"20":0.004330250476816743,"21":0.0027013030509669793,"22":-0.004440358266634283,"23":-0.032476154931229045,"24":0.00716825011597584,"25":-0.014010104945772922,"26":0.002471324468525147,"27":0.011083647424517768,"28":-0.0035659039281510873,"29":-0.0003006259345283919,"30":-0.007664110088825185,"31":-0.0013620639339011207,"32":-0.010407025259643732,"33":-0.020816763148808176,"34":-0.016534960758342536,"35":-0.012544577255050732,"36":-0.004935940951963013,"37":-0.0034490198039208537,"38":-0.013348243921288161,"39":-0.0008438441016087762,"40":-0.0010267245555207753,"41":-0.01873997357997793,"42":-0.0074043027900040905,"43":-0.006669152826304755,"44":-0.003157626025586575,"45":-0.024243967421170916,"46":0.021534730318617926,"47":-0.007149959814105834,"48":-0.006707223548723057,"49":0.005298110303496679,"50":0.020864949840957773,"51":-0.005945808953020021,"52":0.18337379532669967,"53":-0.018609213991798157,"54":0.07131094217567643,"55":0.08799820280232364,"56":-0.06654036023540716,"57":-0.08881896650688097,"58":-0.04001287190046634,"59":0.03762204521397513,"60":-0.03073309266712228,"61":-0.02605753788494864,"62":-0.03736302561796685,"63":-0.029606812819241986,"64":0.0011863729738246938,"65":0.03547257783733975,"66":0.040298214200425814,"67":-0.014559643645607198,"68":0.01911265758804333,"69":-0.033289692142044566,"70":-0.007560867061741771,"71":-0.003297309619680174,"72":-0.011296664086788694,"73":-0.028995913983205557,"74":-0.014494355286748308,"75":-0.00047029890200807356,"76":0.0121664387074998,"77":-0.0031444050488217113,"78":-0.028782519344837134,"79":-0.010104544494874286,"80":-0.013871147272387273,"81":-0.0013349284794344743,"82":-0.011432333348521773,"83":-0.0204048787995718,"84":-0.011439967398271687,"85":-0.030566747060916048,"86":-0.007919367321745476,"87":-0.0061707271806362785,"88":-0.013386391105450824,"89":-0.004855445066940405,"90":-0.0033609336177584715,"91":-0.03104601387635006,"92":-0.01636315510452098,"93":-0.006466218113214597,"94":-0.023564163976140792,"95":-0.02218008667206951,"96":-0.032237067884383054,"97":-0.010935961491737763,"98":-0.027611105572749095,"99":-0.018664080360707738,"100":-0.0336654383913115,"101":-0.024681850034839956,"102":0.017434564565897884,"103":-0.001449863443111586,"104":0.09881188163968788,"105":-0.0961937321079168,"106":0.07548026559858267,"107":0.009667625006470715,"108":-0.04144439902006518,"109":0.01822794274666142,"110":-0.024939046989926827,"111":0.012273538846481578,"112":-0.025953142567775048,"113":-0.02675673010236633,"114":0.030994009814895963,"115":-0.04316823248668019,"116":-0.05792419551336276,"117":0.07582252749468212,"118":0.02902223790098036,"119":0.028249364836353846,"120":0.028257964791469827,"121":0.027594575177596028,"122":-0.00015843892972280228,"123":-0.0015513760254848071,"124":-0.008639012303536848,"125":0.015769687490333563,"126":-0.00794169111351104,"127":-0.011778637398459748,"128":0.004771959254553601,"129":0.013846656132774528,"130":-0.012936022006493636,"131":-0.0023836754203172203,"132":-0.014503677411906493,"133":-0.018252978889552112,"134":-0.011751652148506885,"135":-0.027858667810511866,"136":-0.010833915694003599,"137":-0.0051350383482195545,"138":-0.013535700710075274,"139":-0.006848368387755399,"140":-0.008411876575862592,"141":0.06276741189349737,"142":-0.013202688598519245,"143":-0.014638894517572734,"144":-0.004104468899802905,"145":-0.006662945992772992,"146":0.012088389427201232,"147":-0.009508036710680443,"148":0.0015490549035841322,"149":-0.004687244407068086,"150":0.026955806542242822,"151":-0.018401077511627152,"152":0.02794918727132371,"153":-0.0039446057554672325,"154":0.028064059792970154,"155":0.035757112696131334,"156":-0.00958325594345521,"157":0.021470805801193402,"158":0.0722858616733621,"159":-0.0035832110172107686,"160":0.013529482758066464,"161":-0.01087429683135481,"162":-0.005614964767197371,"163":-0.04264621734265746,"164":0.005144224934364231,"165":-0.06822320035691165,"166":-0.00863396258814796,"167":-0.013957925054203681,"168":0.031838265861851046,"169":-0.009804800825883628,"170":0.012420423455660001,"171":-0.007646379523446231,"172":0.017017113161336098,"173":-0.03345603971198861,"174":0.03275251481790875,"175":0.013399375992471197,"176":0.013015084692381614,"177":0.025238736772628195,"178":0.09661949457640287,"179":-0.003579572494943129,"180":-0.01523093991486467,"181":-0.006632159631854813,"182":0.004220237076589763,"183":-0.031624282998190006,"184":-0.011623922022475218,"185":-0.01814116924552726,"186":-0.006592733638742836,"187":-0.0006483014650829988,"188":0.01052965551377759,"189":0.001463952235296666,"190":-0.00661403603958368,"191":-0.015439638772097471,"192":0.005133649792507207,"193":-0.008861735597820117,"194":0.003847500868905739,"195":-0.0011134500455085943,"196":-0.038829197667863774,"197":-0.003932295486780762,"198":-0.03680563578019333,"199":0.04331485586858829,"200":-0.03590287248837203,"201":0.04213958317740331,"202":0.013916341902655222,"203":-0.04390391739424604,"204":-0.004530639728706106,"205":0.02238277407043614,"206":0.004061616177777718,"207":0.003085046049203562,"208":0.01907818882905222,"209":-0.0071369627347163695,"210":-0.04081815961166936,"211":0.0106901945903705,"212":-0.013779840840886029,"213":-0.0346386310387073,"214":-0.040607964377497544,"215":0.07176382114810886,"216":-0.014661522776070798,"217":-0.0011446572239803636,"218":-0.06074536063299805,"219":0.024626191937133418,"220":0.016562464638288584,"221":-0.0033281421952160864,"222":0.0012024497541072942,"223":0.010731726811278671,"224":0.006604945229507737,"225":-0.029079034085746035,"226":0.006093479442655741,"227":-0.012006441219750062,"228":-0.01809335324899439,"229":0.024987322260986138,"230":0.010654971351851797,"231":0.0021054712668431355,"232":-0.002503595604250149,"233":0.013940168892477392,"234":0.014685347577683711,"235":-0.04064414103377054,"236":0.008437296041931188,"237":-0.0051253815101701666,"238":-0.03703977311515472,"239":0.04562087407020732,"240":0.0005193419417504389,"241":-0.05151176448797923,"242":0.010537992313904392,"243":-0.014102629208010656,"244":0.03109489009797919,"245":-0.024159896572395707,"246":0.05721037616545297,"247":0.012467296583120631,"248":-0.020981474611024283,"249":0.009955350215111344}},{"sx":5,"sy":5,"depth":10,"w":{"0":0.04523439875597165,"1":-0.015847666513153145,"2":-0.0601933854366724,"3":-0.06756221388847528,"4":-0.013382806475872831,"5":0.055703644507180156,"6":-0.009324771947335385,"7":0.10726978559696584,"8":-0.1156053768716653,"9":0.028137079321471838,"10":0.044225760507170905,"11":0.15221942081345882,"12":-0.030612186534729968,"13":0.03933425521768313,"14":0.0052969246516070614,"15":-0.043129651537512644,"16":-0.07848260467854018,"17":0.049345124244488336,"18":0.03921366427494033,"19":0.07174923896764733,"20":-0.009786872718106274,"21":-0.02799080325685364,"22":0.06824568430300933,"23":-0.08391548483567746,"24":0.00010085207448949362,"25":-0.10962954458917258,"26":-0.05757135515465318,"27":-0.016380733836207598,"28":-0.029545599685429247,"29":-0.00163371319314478,"30":-0.06744889124627955,"31":-0.05213052901669645,"32":-0.05477264733820046,"33":0.07091917382622476,"34":-0.05315324479068416,"35":0.09845245257216051,"36":0.046186391575153155,"37":-0.04947043052854454,"38":-0.014522873333121238,"39":0.03442114365923885,"40":0.012525768291815665,"41":0.00035092392401392587,"42":-0.06709573349452756,"43":-0.03238569998226915,"44":-0.08684115713996214,"45":0.048360894928632256,"46":0.13547267893558065,"47":-0.03359811866940118,"48":0.011846367499181722,"49":0.018725818883264904,"50":0.009215692912787307,"51":0.046292343251215805,"52":-0.013521955036082075,"53":-0.033462296016008496,"54":0.023885289449781022,"55":0.04895283757975706,"56":0.05861085636627642,"57":0.05688575373969693,"58":-0.03109443023567044,"59":-0.02146186227481609,"60":0.012508345099368214,"61":0.07518761785624763,"62":0.01756246593188803,"63":0.024612784740843115,"64":0.09987361558330742,"65":-0.05045380531138751,"66":0.004958106906620631,"67":0.06299449176343094,"68":-0.016211052487605782,"69":0.05738688621985168,"70":0.024313668732053276,"71":0.01493159481919136,"72":-0.00814783035913484,"73":0.05326067702300715,"74":-0.007593503221651844,"75":-0.12692395631920775,"76":0.040662083553837894,"77":-0.0588347839313856,"78":0.05298486572936578,"79":-0.05364110178230631,"80":-0.03625028762764592,"81":0.06962542274248738,"82":0.1351149684613814,"83":-0.023800344913693417,"84":-0.027133499182538743,"85":-0.08191304772338835,"86":0.03721248437629192,"87":0.014399793303256445,"88":0.031015266094801763,"89":-0.000361840072036131,"90":0.07232160763170348,"91":0.010959126348418839,"92":0.04685868783598412,"93":-0.029069887469147387,"94":-0.026853104594870537,"95":-0.022018592997798438,"96":-0.031582045848916794,"97":0.08863240010334612,"98":0.08082708687840474,"99":-0.05363766775447854,"100":0.1335370170110437,"101":-0.012031750637297917,"102":-0.021502061721256065,"103":0.012821014604175581,"104":-0.09890596560725677,"105":-0.02040225430009371,"106":0.04895310585968485,"107":0.03186696806520037,"108":-0.018951591813295574,"109":-0.022006035344165436,"110":0.050347841033372955,"111":0.03646391911102172,"112":0.017825609405908507,"113":0.04162333814518083,"114":-0.009420936096805199,"115":0.058771889240927896,"116":0.00431791746386024,"117":0.04875600094695876,"118":-0.06669684111499992,"119":-0.0014209556502004844,"120":0.09851836628505405,"121":0.03368629468441879,"122":-0.023423437255444247,"123":0.051165323371214114,"124":-0.05923745747156673,"125":-0.03076537837353213,"126":-0.06021709436485466,"127":0.011517927651767275,"128":-0.05794812103069166,"129":-0.045397281915399997,"130":0.01307605309109924,"131":0.00016316846419947649,"132":0.028683602396476267,"133":-0.04392493499502393,"134":0.0009036629683568273,"135":-0.05738162070846964,"136":0.07640523851585548,"137":-0.043415556521310364,"138":-0.08105131884720519,"139":-0.043792977586952206,"140":0.11227773758784182,"141":-0.0004966861696618314,"142":-0.04695443318387917,"143":0.0555464867901694,"144":-0.16429584960309807,"145":0.029259874605877034,"146":-0.018083292732679234,"147":0.09878762044666496,"148":0.0014760635535193093,"149":0.04724502527889388,"150":-0.014055395194680862,"151":0.03757529088406829,"152":0.044969323217490816,"153":0.02475310591264421,"154":0.009920400607260339,"155":-0.03773705595193169,"156":-0.052527223324727805,"157":-0.005090905920196746,"158":-0.018366947654219014,"159":0.025055130880779642,"160":0.017436615770282146,"161":0.024676728573359417,"162":0.009642914269744545,"163":-0.017230569298324214,"164":0.025626805579116497,"165":-0.04282092870252863,"166":-0.05404568703296963,"167":0.05633334780553143,"168":0.042871839662275174,"169":0.004226362087004221,"170":0.0769471925643156,"171":-0.037018644604205904,"172":-0.035629416928030753,"173":-0.0008591895563105443,"174":0.038087257482010535,"175":-0.06711002911116536,"176":-0.059912127092151095,"177":0.07438363600173568,"178":0.0738940682798101,"179":-0.022522278467136513,"180":-0.005904092285718908,"181":0.016151198914049644,"182":0.0034092090189870947,"183":-0.04073763418209945,"184":0.004887945139102382,"185":0.024000585871728326,"186":-0.007926395967670712,"187":0.029748525376841667,"188":-0.07689355869495107,"189":-0.0043124414618549945,"190":0.024252084923172518,"191":0.006651279087347721,"192":0.03875860485113127,"193":0.09527918661685279,"194":-0.08592795336230578,"195":0.04459642143418029,"196":-0.056816593494616575,"197":0.05816205401887963,"198":-0.026677124091744688,"199":0.018470542096543634,"200":0.053900575415054976,"201":-0.04017763374146308,"202":0.01187808467978797,"203":-0.05382737355511974,"204":0.0494260232947905,"205":-0.040711648343699385,"206":0.04851235643714479,"207":-0.0024721461254282664,"208":-0.031969961863252384,"209":-0.03534603325899854,"210":-0.03647077443585354,"211":-0.02100249105172855,"212":0.0049881733599302465,"213":-0.03490272767765714,"214":-0.0037538428844125274,"215":-0.04145172994327755,"216":-0.006251816411123837,"217":-0.003087104554925688,"218":-0.06331250631843162,"219":-0.0026285270447760946,"220":0.004882378072496013,"221":0.06631638978370938,"222":0.02087137687723127,"223":-0.07998894362158064,"224":-0.023361161014643944,"225":0.03361679840616744,"226":0.016623107164198507,"227":0.017638743612130827,"228":-0.004316516280043598,"229":-0.010082156743912983,"230":-0.008796393422711667,"231":0.007597585758708817,"232":-0.01943007097523389,"233":-0.10346395131722291,"234":0.00785754789802624,"235":0.00025198810532436335,"236":0.05793265345246113,"237":0.055128003661752585,"238":0.018698277157036765,"239":-0.11787164117013499,"240":0.00932333072786805,"241":-0.08618056757750708,"242":-0.037618996900496485,"243":-0.025624307357571926,"244":-0.0225909610184597,"245":0.007060041656883148,"246":0.02939265403396835,"247":0.014020132115036476,"248":0.05616300178684828,"249":0.02604471928539473}},{"sx":5,"sy":5,"depth":10,"w":{"0":-0.12679262729543708,"1":0.03721368394170036,"2":0.13526439148924818,"3":-0.023352238962370656,"4":-0.013806589497005573,"5":0.0928433765562398,"6":-0.030908792315041535,"7":0.01766370210539587,"8":0.030779045336492977,"9":0.050287958071450437,"10":0.01185694890322334,"11":-0.03212857610084086,"12":0.13483719539293776,"13":0.05658686940760423,"14":-0.054464510908113696,"15":0.007772581510946281,"16":-0.0602220227382929,"17":0.03711086677986613,"18":-0.007177710831425621,"19":-0.012888967932979648,"20":0.07263586940090698,"21":0.01688980099556404,"22":0.11385161518024241,"23":0.03768013537403344,"24":-0.08496386946547405,"25":-0.024736276579677537,"26":0.03924228075646145,"27":-0.04235417935330646,"28":0.044568176572859525,"29":-0.06006936529691473,"30":0.03726833263958672,"31":0.08626836648610223,"32":-0.005264296584842348,"33":0.029932804025093178,"34":-0.04321719159185064,"35":0.018608708960022157,"36":0.02913986920235716,"37":-0.054759723872068455,"38":0.12595777349979564,"39":-0.06828590194649982,"40":0.06900621895140516,"41":-0.009182998328276534,"42":0.04485905345306444,"43":-0.009618404249232814,"44":-0.10246849702276814,"45":0.06726985316184524,"46":0.03847901621563282,"47":-0.0171889631514948,"48":0.04360792850865349,"49":-0.07448834337374809,"50":-0.028113228074052993,"51":-0.020691456194861985,"52":0.0222922925387478,"53":-0.059502454002553044,"54":0.030110376847889007,"55":-0.016665702470504338,"56":0.019555053694311358,"57":-0.06928290048888525,"58":-0.09496038064813428,"59":0.0802418776839289,"60":-0.042545028222933594,"61":0.0217295338461805,"62":-0.012602232066941728,"63":-0.04959843386212291,"64":0.023355578336445852,"65":-0.07844566720725288,"66":-0.053931840788760184,"67":-0.028176610173631343,"68":-0.06496967413844583,"69":0.024210591394549622,"70":0.10386324486328412,"71":0.089063838926215,"72":0.05086454508168627,"73":0.029234292770981028,"74":-0.024761824295209234,"75":-0.0327507445710036,"76":-0.09812512147911857,"77":0.034494762610394615,"78":0.04805292628681178,"79":0.030347300780907815,"80":0.044406514461453335,"81":-0.010581197450250601,"82":0.1131544704952362,"83":-0.04464632998922231,"84":-0.08548633234886953,"85":0.059811981552270466,"86":-0.00595007955987591,"87":0.03675948693499408,"88":-0.051955736412650694,"89":-0.02947171040958921,"90":-0.038549945717604325,"91":-0.018636367168652884,"92":0.008995038843321989,"93":-0.08068562045011965,"94":0.022660632704841453,"95":-0.09476574991103072,"96":0.005749593278752948,"97":-0.008343286740643479,"98":-0.03470076222234294,"99":-0.07031875388076847,"100":-0.07017216141369431,"101":0.021683295196096936,"102":-0.011829243277484705,"103":0.03697393612214961,"104":0.022289170947090698,"105":0.017940011552996273,"106":-0.013608841992561136,"107":-0.07142989842081114,"108":-0.02929439624150938,"109":-0.02241387057558185,"110":-0.0035980924283579648,"111":-0.060088859632606226,"112":-0.05441822296184911,"113":-0.00928246878280796,"114":0.0475558963458695,"115":0.0418722944512463,"116":0.05977406181058455,"117":-0.11912885095587035,"118":0.050860381534155154,"119":-0.04299183175761827,"120":-0.05530077567710924,"121":-0.02962626159958128,"122":0.027159674866542673,"123":-0.008221134798184999,"124":0.03466789773636506,"125":-0.04201856521903874,"126":-0.05930595151746953,"127":-0.041262631325387024,"128":0.08647332515104525,"129":0.04453984376182855,"130":0.027538955665914203,"131":-0.03840960091760184,"132":-0.033931420054211195,"133":0.027112403977675836,"134":-0.03611336933818127,"135":-0.0665712110647951,"136":-0.023427191629934577,"137":0.07253762049793647,"138":0.14337026447060636,"139":-0.032294827053652796,"140":0.0391179964353815,"141":-0.04248438218599315,"142":-0.07874187660506826,"143":0.05088428322687327,"144":0.0008034124691441279,"145":0.047383090891295034,"146":-0.007886429145123382,"147":0.002946210266233543,"148":0.00424386557644036,"149":-0.026374502536855846,"150":0.04022833526730409,"151":-0.034452328413238885,"152":0.02285138840254242,"153":-0.09598648577838936,"154":-0.03540289022625806,"155":0.013363978746762355,"156":-0.031775458238479444,"157":-0.007805605404988872,"158":-0.025244686786448506,"159":0.06938339741504086,"160":-0.013384892165440209,"161":0.05544465370421168,"162":0.05523438234373356,"163":0.019579818813984698,"164":0.07309196803850179,"165":0.02629227082061519,"166":-0.00420178980360904,"167":-0.014607854565710843,"168":0.0182537795285238,"169":0.017822426044600385,"170":-0.05870532175759611,"171":0.060851076488182144,"172":-0.01959755123014976,"173":-0.03332370891914096,"174":-0.038467112229368085,"175":-0.05178455275257758,"176":-0.02828858401510376,"177":0.001455212960163682,"178":-0.05626513074591725,"179":-0.030503162016720403,"180":0.05308801224186588,"181":0.00013174125369260254,"182":-0.033662741217948176,"183":-0.08298639810439344,"184":-0.012646216419745749,"185":0.019872123241443315,"186":-0.01932543169102961,"187":0.05899712576844084,"188":-0.0742296038730032,"189":0.0036158135913268935,"190":0.09726371934632216,"191":-0.019958513334195214,"192":0.025124351040672063,"193":0.016198173263467872,"194":0.04443637437773946,"195":0.08672117657778232,"196":0.02450783154053788,"197":0.0034200222433950793,"198":-0.006369262309625297,"199":-0.0025018501494705665,"200":-0.05070958824705353,"201":-0.04504998606400557,"202":0.006875893443210224,"203":-0.022672692818952903,"204":-0.04587912123272219,"205":-0.019712613521945827,"206":0.07832283070694473,"207":0.013635031661861379,"208":-0.0032062866175223263,"209":0.08397706787954388,"210":0.03315014299416923,"211":0.09013194197185104,"212":0.01417221683392073,"213":-0.045513610109621336,"214":-0.07485128344075834,"215":0.027826684801039444,"216":-0.02267438773267968,"217":0.03212522511851522,"218":0.02494226797801277,"219":0.033176673651394414,"220":0.035387277843046225,"221":0.09411065581762558,"222":0.1409286086539021,"223":-0.017018267160783293,"224":-0.07324632029656487,"225":-0.01622389801786586,"226":-0.07600387477280322,"227":0.013911609161845868,"228":0.007014916922440581,"229":-0.011805313356251854,"230":-0.045661600065427646,"231":0.005157845783817907,"232":0.0032400852347825625,"233":-0.03846922756128063,"234":0.03535296062625666,"235":-0.013664933385231724,"236":-0.052707392368549204,"237":-0.053761414017126856,"238":-0.019995364912437204,"239":0.012209059737429398,"240":-0.020423087590501963,"241":0.02193410383459225,"242":-0.04415989937606084,"243":-0.0922991310773069,"244":0.01883953727651306,"245":-0.04402416868919193,"246":0.05908390182626005,"247":0.006711834560280161,"248":0.01168397866581853,"249":-0.031062645684682616}},{"sx":5,"sy":5,"depth":10,"w":{"0":0.007170595846284599,"1":0.043039152722434165,"2":-0.03686901288006741,"3":0.0969748163803575,"4":-0.008534823630517677,"5":0.010374688591591305,"6":-0.012293385441925557,"7":-0.04514902971988984,"8":0.010037288475991578,"9":-0.045478838878374526,"10":-0.015528296417659748,"11":-0.08624835732203111,"12":0.025938437444918052,"13":-0.08225357472557306,"14":0.01894196247590784,"15":-0.07833680466943987,"16":-0.04498480838894511,"17":-0.010443848593909214,"18":-0.01143353846897618,"19":-0.005814416969935441,"20":-0.0231221854432628,"21":0.013840265257632023,"22":-0.02040692189578971,"23":0.011814472890833268,"24":0.0049253211331018185,"25":0.00507227936891329,"26":-0.02584518428673773,"27":-0.03322644898951372,"28":-0.06967114700319066,"29":0.029010022650049587,"30":-0.015548209040592223,"31":-0.0543763158860148,"32":0.039165997669316645,"33":0.03454283894501096,"34":0.04948927802549068,"35":0.0391060479203559,"36":0.00574732426726234,"37":0.00146734426909858,"38":0.0010168162703242545,"39":0.023366866406725195,"40":0.10293128961385528,"41":-0.04695038269155169,"42":0.00252278654990147,"43":-0.031583085003298456,"44":0.0982124835211481,"45":0.020061211226380767,"46":0.04429943421602595,"47":0.040446350530718746,"48":0.11182673612175882,"49":0.044084290363662945,"50":0.1454502380803179,"51":-0.034920844789420494,"52":0.034570409486769926,"53":-0.06846315836792637,"54":0.010262111447897265,"55":0.04704637256443508,"56":-0.037529007432122896,"57":-0.06416264237344725,"58":-0.04782388626213974,"59":-0.017259947798666426,"60":-0.03737656682222897,"61":0.027339126376170544,"62":-0.04088639333168923,"63":-0.05720193138731903,"64":-0.07644613365545457,"65":0.0163955309122929,"66":-0.042206822613468885,"67":0.016810620601975343,"68":-0.04750948897324852,"69":0.004591815309445832,"70":-0.03817752415879508,"71":-0.006916146922697802,"72":0.05380249684168488,"73":-0.059275731373722565,"74":-0.11803936110067112,"75":0.025311635867330748,"76":0.015862455171238906,"77":0.04304524551438431,"78":0.08491375038782412,"79":0.06997947027193949,"80":0.0037355779687513395,"81":-0.010480925960272103,"82":-0.006979196586168313,"83":-0.012328860881782687,"84":-0.0013690352324334351,"85":0.041296226886315714,"86":0.04528528067058789,"87":0.08596551718709429,"88":-0.019182570830878137,"89":0.006799976617514333,"90":0.02629751073921714,"91":-0.0509398420198054,"92":0.03768982071812677,"93":0.10992007496882476,"94":0.03700046223157112,"95":0.015191650316641962,"96":0.06550875098013845,"97":-0.018490278133384542,"98":-0.002696990954593017,"99":-0.03978163978495582,"100":-0.025348029516601804,"101":-0.01829182318209524,"102":0.07742955859948775,"103":-0.0049488690053892245,"104":-0.0622719005004793,"105":-0.0016696711637473572,"106":-0.03531091348175252,"107":-0.07279044245324329,"108":-0.019862808942161345,"109":-0.030791147136876404,"110":-0.08679068835186661,"111":0.0008085669745365767,"112":0.007221371389339739,"113":0.05878132566323659,"114":-0.09462470340067755,"115":0.008861935342745274,"116":-0.08985504063167755,"117":-0.04053195525591075,"118":0.000636367179318838,"119":0.07317769093910388,"120":-0.017216082871135973,"121":0.1093520504317588,"122":0.1793337272051532,"123":0.008357895834875007,"124":-0.054675271293849796,"125":0.08392063151902372,"126":0.0381125703454744,"127":-0.012078731606564584,"128":0.021718066480378093,"129":-0.005080634278266922,"130":0.007060643344560521,"131":0.04862383920689816,"132":-0.00253575984082552,"133":0.0009985880132266152,"134":0.1209080459820304,"135":-0.10142109529596184,"136":-0.01895571987026898,"137":0.004377363181087521,"138":-0.03592137877180027,"139":0.00400903708792071,"140":-0.11269524746287607,"141":0.004806515367828461,"142":-0.04595651671171347,"143":0.02996841263986934,"144":0.03328164173321338,"145":0.050455118954950945,"146":-0.027279669951399355,"147":0.011869879515339504,"148":0.05491413424428493,"149":-0.04209703734151193,"150":0.009243213160141555,"151":-0.05584802710992785,"152":-0.02331562626670563,"153":0.060478209590392226,"154":-0.01581298866986699,"155":-0.003255651348259391,"156":-0.11476329211764648,"157":-0.06123946076130837,"158":0.043851815706379624,"159":-0.04652123174082689,"160":0.027316052760513826,"161":-0.013487686976844594,"162":-0.054555939816386345,"163":-0.030744882586640175,"164":0.05422591649629482,"165":0.0512262404146085,"166":-0.045121195360879454,"167":-0.030107265077230834,"168":-0.01653512418801974,"169":-0.006570190009947619,"170":-0.027288407452369934,"171":-0.05033492365378951,"172":0.021658997773382014,"173":0.01960719018278355,"174":-0.022358934518750945,"175":0.02588575089654786,"176":-0.07189546714391402,"177":-0.003911227838719893,"178":-0.016817736560688478,"179":0.032053942082879545,"180":-0.029279343059887192,"181":-0.01755551301185695,"182":-0.06169737950730052,"183":0.04177816578557569,"184":-0.09858090236415465,"185":-0.06883245764473556,"186":0.07342043152066774,"187":-0.10037768584519584,"188":-0.0303559040886516,"189":-0.04506668491058074,"190":-0.02462549987597892,"191":0.03880858275517231,"192":0.004020259055326194,"193":-0.10072874624564036,"194":-0.09894971105984104,"195":0.012797207954628364,"196":-0.027495886460464514,"197":-0.03714534089748061,"198":0.008678036513478992,"199":-0.05062987355597328,"200":0.014622904162371674,"201":0.09041461906195666,"202":-0.039120571980303324,"203":0.02081130269480196,"204":0.024915489251303196,"205":0.0023262716289048583,"206":0.03370355334311865,"207":-0.03793610655685316,"208":-0.05367145272085153,"209":-0.04815603310423283,"210":0.004726238955293783,"211":0.022560402656967873,"212":-0.043300165958242466,"213":0.024760328869080955,"214":0.10939986400942499,"215":0.02491145688990906,"216":-0.009731685453234658,"217":-0.019569782946884006,"218":0.13850398909197756,"219":-0.02644231828289955,"220":-0.040296417223842675,"221":-0.0721095750752808,"222":-0.05143356367942943,"223":-0.1329600626939005,"224":-0.014055873114484555,"225":-0.06133372068423337,"226":0.06574272187149845,"227":-0.015813036702961667,"228":0.0446862027445132,"229":-0.06531086700628119,"230":-0.005521278658382367,"231":-0.061438615218804775,"232":0.025547773969363332,"233":0.02774307157333035,"234":0.028291615879984522,"235":0.03807366385036281,"236":-0.035379548663896414,"237":-0.07145332814293827,"238":-0.034133004948577184,"239":0.054608041231011914,"240":0.003825766325289841,"241":0.0851478959555559,"242":-0.10445737417686923,"243":0.013009584011385607,"244":0.006357405679376357,"245":0.08881595676769166,"246":0.06537469208431566,"247":0.03148619060694086,"248":0.11713093389656824,"249":0.007734604230228819}},{"sx":5,"sy":5,"depth":10,"w":{"0":0.007186597836022922,"1":-0.007367488199385759,"2":-0.08508017128779169,"3":-0.06870241107803357,"4":-0.05832470163592842,"5":-0.02105701125609763,"6":0.004098832378449095,"7":0.03313136174967207,"8":0.05225875152222458,"9":0.003913845728562514,"10":-0.0006991810502586981,"11":-0.02707724892396666,"12":-0.04517429695517071,"13":0.06562583814665696,"14":-0.04808737032641092,"15":-0.06791386139456336,"16":0.026543383290005385,"17":0.008405201101305984,"18":-0.01593840981721701,"19":0.00026779692646960703,"20":0.04890647579690218,"21":-0.067464900600401,"22":-0.07392067510775778,"23":-0.023169915557425876,"24":0.047245797714612424,"25":0.031619369403253605,"26":-0.06045241265294399,"27":-0.0314352812872618,"28":-0.06270315037571361,"29":-0.03620257668870043,"30":-0.05281948656390698,"31":-0.08929170694404348,"32":-0.09271267741392998,"33":0.05601687003874613,"34":-0.054135459765142724,"35":0.05170964814638104,"36":-0.024127480626874233,"37":-0.047793622860993666,"38":-0.021416647475089323,"39":0.03198857521051289,"40":0.06419359170144884,"41":-0.028026359493676885,"42":-0.017697315677906313,"43":0.06391831172685265,"44":-0.060904481073606014,"45":-0.055230771266665965,"46":-0.045139738094354294,"47":0.005511175857456822,"48":-0.02974977206597947,"49":-0.026467265589175407,"50":0.013709469109871664,"51":0.0498419211412951,"52":-0.00021187876070858893,"53":0.015491236609184897,"54":0.007813544596912195,"55":0.031799162440339285,"56":0.012806900156830043,"57":0.02635325743841209,"58":-0.07614657266751132,"59":0.00353274180169147,"60":0.0006827670772226052,"61":-0.00595328667222178,"62":0.01868564540509257,"63":-0.11715532222795276,"64":-0.11596660422761887,"65":0.06642654361319277,"66":0.006424048800412059,"67":0.030566366902642517,"68":-0.042986069047273326,"69":-0.023244099929511847,"70":-0.016066487794999678,"71":-0.017004702603185554,"72":-0.03438810798900718,"73":-0.048734707148523564,"74":0.0040431533479102465,"75":0.0011186081461787656,"76":0.09448010945079138,"77":0.03326455334895504,"78":0.03433856299973491,"79":-0.005411167205283302,"80":0.00416803670170382,"81":0.09722831122846978,"82":-0.009206100783024296,"83":0.0533020230541295,"84":0.010354215943616815,"85":0.0022150580654008486,"86":0.042770016754299575,"87":0.016347425332239512,"88":0.0060279591924268325,"89":0.03845915880126767,"90":0.023826401341273548,"91":-0.037132854784329185,"92":0.014209425093193472,"93":-0.023545346157789842,"94":0.06421444530147113,"95":0.062059022674309315,"96":-0.026326436630957784,"97":0.007980072171607015,"98":0.01847444804103909,"99":0.010055373934156177,"100":-0.003490420020901733,"101":0.05695704249556413,"102":0.00529038972960889,"103":0.09748076834388002,"104":0.056109818458469636,"105":0.009737928571483746,"106":0.061926993694029486,"107":0.03607734420047465,"108":-0.046994130367706784,"109":0.165134407177357,"110":-0.05785259006237511,"111":-0.005979204245424972,"112":-0.0046419061886931534,"113":0.13343717454769963,"114":-0.039614438749870876,"115":0.00692609834327143,"116":-0.010037035135743907,"117":-0.01999430558476309,"118":0.05211631343898778,"119":-0.014626541842453994,"120":0.0635518367484596,"121":-0.03624222389046745,"122":-0.06127855066806993,"123":0.03730223304306946,"124":-0.04697220601118364,"125":0.016861750756867053,"126":0.04291995910328121,"127":0.026611972815038392,"128":0.011598402177689452,"129":-0.057520848716249,"130":-0.009864968762139568,"131":0.03790720522290317,"132":0.026396453938571058,"133":-0.02315672895789697,"134":-0.014611118145871226,"135":-0.0348744129779745,"136":-0.006763547896063227,"137":0.004149489053948422,"138":0.034131241327180484,"139":0.05431426134585193,"140":-0.05274135953773943,"141":0.03826777940755516,"142":0.07563064145495818,"143":-0.006619583445560218,"144":0.054835368533441675,"145":0.045702175043775335,"146":0.0271867092583509,"147":-0.0680330636978377,"148":-0.016849167601694366,"149":0.08974823728714272,"150":0.032799256204606726,"151":0.0595637432642413,"152":-0.01390939557759452,"153":-0.017933313548173554,"154":0.0119367055540207,"155":0.0033565075119871206,"156":-0.02937788639231301,"157":0.049885914309451766,"158":-0.04262299180179061,"159":-0.02294609676933205,"160":-0.06363801736672191,"161":-0.0164012946748469,"162":-0.01873850979768224,"163":-0.050366609867805404,"164":-0.02827699526486482,"165":-0.044292780534764035,"166":-0.0009712349727999136,"167":-0.015321887206853397,"168":-0.025423476154474295,"169":-0.0014677225933451227,"170":0.018613572169623317,"171":-0.010468581835466725,"172":-0.028530225237502548,"173":-0.07059191184252255,"174":-0.06229824596749141,"175":-0.06267223766200668,"176":-0.05415908197748105,"177":0.004521143960410423,"178":0.05443596979674005,"179":0.01778909441390079,"180":0.017004329231146507,"181":-0.02342354680597781,"182":-0.031174283782783547,"183":0.0032177696358146788,"184":-0.07215562239592896,"185":-0.07858127598852949,"186":0.007516132178691573,"187":-0.02051707993290953,"188":-0.04760178698848351,"189":0.048735063233675,"190":0.01857023743344834,"191":0.05118928542096784,"192":0.004864835729248205,"193":0.04361313031474992,"194":0.011619970125152921,"195":0.042302329110456054,"196":-0.021601036542256306,"197":-0.05744223248461402,"198":0.025680573421001527,"199":0.023256598817657168,"200":-0.02837580019439422,"201":-0.006065699556304572,"202":0.01323996312836705,"203":0.006530237965328955,"204":-0.06561297422549316,"205":-0.056243593029091314,"206":0.0071447370097946095,"207":-0.012677682042423045,"208":-0.00615912064838014,"209":0.010616746924079283,"210":0.02732732302544993,"211":-0.021728164214949264,"212":0.013992057666401912,"213":-0.019978339939813936,"214":-0.03549461146432463,"215":-0.011095533006697673,"216":-0.006982174953001049,"217":0.015998231464983612,"218":0.02255879325692214,"219":-0.02336412037243783,"220":0.01767651845392347,"221":-0.04244535957524406,"222":0.017595370814429127,"223":0.05610477703677546,"224":-0.02973916352878823,"225":-0.0021345699748772226,"226":0.029171913726232082,"227":0.00010463597971592143,"228":-0.017534019335572453,"229":0.011222737103535975,"230":-0.006117073778670054,"231":-0.009467882705238804,"232":-0.022019353419034673,"233":0.0568040045243467,"234":-0.038095322335782916,"235":-0.047714885613695524,"236":0.008947962517450864,"237":-0.007066219431006937,"238":-0.05808383012898142,"239":-0.030218379455500564,"240":0.0069701068747595055,"241":-0.03266087645428267,"242":-0.017893477933045628,"243":-0.015679364269809672,"244":-0.0034852850786039635,"245":0.019124945549948136,"246":0.0261860509879391,"247":0.014793739408680794,"248":-0.04937527960464446,"249":0.010381175949419426}},{"sx":5,"sy":5,"depth":10,"w":{"0":-0.001372281736811017,"1":-0.03389945761657719,"2":0.0006086684693606149,"3":-0.000544876619007587,"4":-0.01184794544035653,"5":-0.07076011615657522,"6":0.09531032320815637,"7":0.036191480865265586,"8":-0.004729775968807101,"9":0.026697915986340692,"10":0.04387692086470154,"11":-0.022276405107282966,"12":-0.0775238420450337,"13":-0.08580780201540582,"14":-0.028618502388462978,"15":0.0015846109768768264,"16":0.006843211008598974,"17":0.056755794791733406,"18":0.020875585223688438,"19":-0.06475809764558466,"20":0.01780941806540245,"21":-0.013067861165992614,"22":-0.052347922150535325,"23":-0.049354563698825925,"24":0.03749540431168775,"25":-0.017345863034651493,"26":-0.0017145090141343175,"27":0.039476300424994115,"28":-0.06857865145553697,"29":0.12798082488836818,"30":0.0602415995858958,"31":-0.01138760795500219,"32":-0.013706399232566835,"33":0.06438587170097482,"34":0.03182168005317397,"35":-0.003522776389847554,"36":-0.14112553082378348,"37":0.04352054422996,"38":-0.026333055550568824,"39":-0.020520603373302058,"40":-0.024200472880910796,"41":-0.03489673636138715,"42":-0.10703668644638029,"43":-0.03794738023220987,"44":-0.03242059548969287,"45":0.06845102813582794,"46":0.05491600951181331,"47":-0.07552819776078955,"48":0.014324931679186338,"49":0.024165706655515734,"50":-0.005476672509758016,"51":-0.0023711769558187527,"52":-0.031935614887354566,"53":-0.003877180091914395,"54":0.016193903825024714,"55":0.009656736357274506,"56":0.03738013850003378,"57":0.00794235597388526,"58":-0.020466105695094654,"59":-0.02714419477105814,"60":0.060002769274700114,"61":-0.02565961400695805,"62":-0.12192378159965424,"63":0.000013387335203976005,"64":-0.061824837106185665,"65":0.05497382659482116,"66":-0.021054502433738503,"67":-0.0003937976590024283,"68":0.09676711822982831,"69":-0.03309849382274141,"70":0.10529069624658209,"71":-0.03593336679780818,"72":0.023984091188706598,"73":0.004641857953309131,"74":-0.03858988644974903,"75":0.005291745548851436,"76":0.08296971192769187,"77":0.08385386199557844,"78":0.04685824154197592,"79":-0.032361396852959384,"80":-0.033628729574071974,"81":-0.013122954155237574,"82":-0.005135880599694978,"83":0.17986757875036807,"84":0.013237770732891662,"85":0.07062617544421627,"86":-0.02804964278564283,"87":0.04680090132089854,"88":-0.012443593411126616,"89":-0.002586847884133375,"90":-0.011703387771127243,"91":0.06415731705864308,"92":-0.04380787655756619,"93":0.012187784849423946,"94":0.03608938140034053,"95":-0.11362318110578928,"96":-0.05138979288904768,"97":0.012435402618606234,"98":-0.08411530458454887,"99":0.03144909901656745,"100":0.0024501742405447753,"101":0.0006158399203171328,"102":-0.041928438465149535,"103":0.060453987161698614,"104":-0.017807812421040372,"105":0.023590099897574338,"106":-0.04780481320534261,"107":0.0003875930448589676,"108":-0.049065962315232976,"109":0.00470800757278161,"110":0.02392282538854611,"111":-0.042599041598579294,"112":-0.0594034460929823,"113":-0.043665607800319424,"114":-0.022453762735881864,"115":-0.049402902361847516,"116":0.03950968066942307,"117":-0.010764657080317753,"118":-0.06328192495366784,"119":0.002065214644440622,"120":0.0021874684209350188,"121":-0.050571867680565145,"122":-0.026198015561191623,"123":-0.10104670463427994,"124":-0.05566166789609166,"125":-0.04663237029623076,"126":0.009766940767245259,"127":0.18935862826470265,"128":0.032865661273128746,"129":0.028072038721330905,"130":0.0634362939433374,"131":-0.010760661828640756,"132":-0.025354321270818676,"133":-0.025659722248900216,"134":0.03075885013523663,"135":0.05134985855586264,"136":-0.033386532102243384,"137":0.0975750121348291,"138":-0.06304980815961746,"139":-0.030621677567735196,"140":-0.05203897819498828,"141":-0.0725233764530499,"142":-0.03447763789388034,"143":0.08420847439234469,"144":0.014651422140696561,"145":0.009075224857912683,"146":0.04067230153669677,"147":-0.08577460969409682,"148":-0.005632114126727009,"149":-0.0019779058934902482,"150":0.03717085556945389,"151":-0.034875581552382746,"152":0.005086105502415147,"153":0.06935039957491528,"154":0.016980809291109587,"155":-0.06941167699072277,"156":0.006632137678846781,"157":-0.02309077292998138,"158":-0.00373896340054815,"159":-0.015635215021674854,"160":-0.025754607672334166,"161":0.05133069820080522,"162":0.016686598964232306,"163":0.09747288129176633,"164":-0.03667037832527285,"165":-0.07334097027397826,"166":-0.028852315927024853,"167":-0.02398246262522067,"168":-0.034521466359710415,"169":-0.09052650847576135,"170":-0.005436794496735538,"171":-0.05480341236689039,"172":0.019234958389461737,"173":0.06219007721898832,"174":-0.025583196041810218,"175":-0.0817816282916559,"176":-0.033911285613299,"177":0.046429124418484846,"178":-0.033968011508363,"179":-0.03152145203243973,"180":-0.010163692184374074,"181":-0.016417289507483248,"182":0.03388686896912788,"183":0.13478227419643,"184":-0.011466567280187698,"185":0.0636416590023677,"186":-0.12091662036560902,"187":0.04473476779148539,"188":-0.11075101689449611,"189":-0.03179991072401398,"190":0.03496099006679888,"191":0.023326782762050344,"192":-0.003942928348743096,"193":-0.03050347799534066,"194":-0.019554753619858763,"195":-0.0024938219191622956,"196":0.07349455723522556,"197":-0.00007379582084234702,"198":0.0001392541798553741,"199":-0.004654070937401042,"200":-0.02281386710287072,"201":-0.016445325837159123,"202":-0.06297105323062713,"203":0.13553824046528007,"204":-0.007109542361772359,"205":0.007242972306684884,"206":-0.010088463252233521,"207":0.007339168302062055,"208":0.03803394375641833,"209":-0.029245804909738486,"210":-0.019184761113372566,"211":0.04078415142798009,"212":-0.001189751758584659,"213":-0.06562451989265344,"214":0.03324829534361882,"215":-0.08114038213221081,"216":0.02089878552151287,"217":-0.013182390973767335,"218":-0.019059672738875592,"219":-0.012750014542044089,"220":-0.019957193809694466,"221":0.04332015275677843,"222":-0.020447803913627258,"223":0.05513517979437993,"224":-0.09102787730811393,"225":-0.03499480326285026,"226":0.019602431424436424,"227":-0.01669111563034697,"228":-0.035457205626321237,"229":-0.010300141057658647,"230":-0.02794549404540728,"231":0.023553734013962834,"232":-0.027386226327971445,"233":-0.0630477249050246,"234":0.024297163397525672,"235":-0.015676432902945108,"236":-0.04897151720686652,"237":-0.04319642369924072,"238":0.030062134643889217,"239":-0.030775067921761254,"240":0.021780696855882353,"241":0.006492633527330109,"242":0.01609027981776357,"243":-0.0005312879849966564,"244":-0.09862348596538492,"245":0.060539036877512005,"246":0.11593862505586454,"247":-0.018950344765226255,"248":0.027865684098640642,"249":-0.04448258290504126}},{"sx":5,"sy":5,"depth":10,"w":{"0":-0.028408145381503762,"1":0.02783765070344244,"2":0.049662318452973996,"3":0.03075504015083214,"4":0.05070582434855575,"5":-0.1319049783160006,"6":-0.056086615585205314,"7":0.011799755713121307,"8":0.0513346062267565,"9":-0.0549896388266182,"10":-0.019522549535571282,"11":-0.021597688985464637,"12":0.0037610117500876633,"13":-0.005370525019848044,"14":-0.010324084547922227,"15":-0.06795709021455708,"16":-0.08133540310833484,"17":0.04424290566277945,"18":0.01921175227177675,"19":-0.05809857014887753,"20":0.053496570426888684,"21":0.00460176489551882,"22":-0.09596867404258863,"23":0.034452594496424224,"24":-0.0012481454141149012,"25":-0.09336318967972783,"26":-0.005696030613658638,"27":-0.027665983039849764,"28":-0.020112930629377294,"29":0.0509714139430544,"30":0.04946060570790247,"31":0.005574409184196672,"32":-0.07115765394476818,"33":-0.02085601925948208,"34":0.0690948072398046,"35":-0.06279033735982292,"36":0.0673475633162327,"37":0.06980173638654269,"38":-0.022219090414479222,"39":-0.0009674325858213258,"40":0.04705648374772581,"41":-0.06238413207194449,"42":-0.06180094532465862,"43":0.035700941775619936,"44":0.0341123755939305,"45":-0.01786846705539432,"46":0.041907851587401936,"47":0.0398041706650197,"48":-0.05105237318240267,"49":-0.005812295923809758,"50":0.012221539331922895,"51":0.032883178116695236,"52":-0.039737511683391465,"53":0.040223454995650054,"54":-0.05768460195173417,"55":-0.02517474026975789,"56":-0.000164600030585797,"57":-0.011305285042455693,"58":-0.01932278291351137,"59":-0.0053360715053623895,"60":-0.035466255874433215,"61":-0.09788735693195548,"62":0.02286053697592321,"63":-0.07657243189981791,"64":0.08911615196291504,"65":0.03881633328319369,"66":-0.018856918152567858,"67":-0.02904930986612143,"68":0.05682718344401757,"69":-0.047334727286484905,"70":-0.07157594472398734,"71":-0.05890054680044543,"72":0.08695392532445374,"73":-0.06160512534822168,"74":-0.04411585027593448,"75":0.019674674051558778,"76":0.0303040519071297,"77":-0.009338410538739428,"78":0.15715729046390847,"79":0.04704000675661315,"80":0.05276867530726002,"81":0.04871171115619401,"82":0.08327590043911189,"83":-0.0036225554479534555,"84":0.013834440846467481,"85":-0.010351194038461785,"86":-0.006838301129464041,"87":0.030615907876473045,"88":0.09985967798621147,"89":0.019354903064793944,"90":0.06468018667564811,"91":0.010974727752465737,"92":-0.08142105946146438,"93":-0.08379549414031406,"94":0.028858446196517073,"95":-0.060717330455931175,"96":0.10265477433226995,"97":0.028024480854487086,"98":-0.006261498068341699,"99":0.011176854264542511,"100":0.014073155339170494,"101":-0.000039150980344308305,"102":0.079231627503065,"103":-0.09265391564342089,"104":-0.07522043470943333,"105":0.020152847421584404,"106":0.07437688884750426,"107":0.05586757507785647,"108":-0.08723869208917441,"109":0.04010974171168714,"110":0.02308750072602202,"111":-0.030982151555650057,"112":0.09223607896264832,"113":-0.014277284477909529,"114":-0.07409844969477114,"115":-0.013981013575489388,"116":0.04662882713884013,"117":0.020058852686626293,"118":0.0037473830493117578,"119":0.05818075025759256,"120":0.009718386218620204,"121":-0.0643539207678881,"122":0.02583823083989116,"123":0.031326150145794346,"124":0.08208491779484574,"125":-0.02385905191809985,"126":0.03896868684276335,"127":-0.0190777656394369,"128":-0.03947469427752831,"129":0.026455703083699635,"130":0.0018096913480216048,"131":-0.022697447972742948,"132":-0.059938910122542634,"133":-0.03483867333294114,"134":0.02115668455579528,"135":-0.10648383212699103,"136":0.075299547469472,"137":0.009980944201604613,"138":-0.01649613832683249,"139":0.05769113695638072,"140":-0.05859104616499177,"141":-0.037463212999864846,"142":-0.03686244564384609,"143":0.08722901812917618,"144":0.10144463705497288,"145":0.010488746788570138,"146":0.08010932436211475,"147":0.10301611721602034,"148":0.06563626278047084,"149":0.0904933980378472,"150":0.026987098054035232,"151":-0.024376905109826364,"152":-0.0071112219279185415,"153":0.028362031955425488,"154":0.010758729455599763,"155":0.0639590607571551,"156":-0.04254403687375109,"157":0.07529193496661842,"158":0.04167144386204467,"159":0.08472519552829233,"160":0.013923042797869274,"161":-0.019840296963149828,"162":0.01073401342464319,"163":-0.05197412852432218,"164":0.134130646624201,"165":0.10962703661563816,"166":-0.04471714824611322,"167":-0.08124021427517733,"168":0.12926301188320516,"169":0.022399572944073916,"170":0.018474556458982085,"171":0.040087970183216505,"172":0.043801454772175216,"173":-0.013841813534141156,"174":-0.09127235958909925,"175":-0.026391210367837693,"176":-0.07325705269251867,"177":0.001761054972868575,"178":0.0793722638109927,"179":-0.01619353222384157,"180":0.04968251620614445,"181":0.09175913843161979,"182":-0.0222733784809372,"183":-0.07840921046334716,"184":0.02267869948515078,"185":-0.11237846808741778,"186":-0.05445085555521678,"187":0.06049553226254658,"188":0.0401007209343076,"189":-0.0006996701323795847,"190":0.01012533447017855,"191":0.007242923900752883,"192":0.01707923553461413,"193":-0.12396169409226335,"194":0.032999789489580426,"195":0.049859536897628905,"196":-0.04872626440855713,"197":0.13826652438922138,"198":0.025619225705228007,"199":-0.03423796745972606,"200":-0.10148021064869028,"201":-0.11189199452908861,"202":-0.011298056368397142,"203":-0.025795810560289328,"204":0.005218246073473552,"205":0.0417009401030066,"206":0.012479547446047708,"207":0.029430921991864676,"208":-0.10352497382127279,"209":0.02340484951061317,"210":-0.004158087217730126,"211":0.018291573448157124,"212":0.018289442963085354,"213":-0.10105976983691103,"214":0.08345869125342312,"215":-0.07937739163792155,"216":-0.0047291788764474724,"217":0.011517549604796362,"218":-0.01581066766239144,"219":-0.006104342572084446,"220":0.0651285933424272,"221":-0.029282102626671087,"222":0.12857115301222435,"223":-0.009694481122618205,"224":0.06339387342392636,"225":0.0810039380265687,"226":-0.06552134221509992,"227":-0.013877057897247356,"228":-0.08406533335000872,"229":-0.017898257294581,"230":0.028175256464306297,"231":-0.0056944879981717135,"232":-0.008693945057492632,"233":0.020068083183755154,"234":-0.0739480764296289,"235":-0.07484110953565021,"236":-0.0009874411050538095,"237":-0.07185396972403241,"238":-0.024214863444968444,"239":0.01926674362538441,"240":-0.00796074016224527,"241":-0.022719736768773775,"242":-0.08930289268137781,"243":0.1312761168379166,"244":0.08794245007153759,"245":-0.04708011399639489,"246":0.09315318967226086,"247":-0.009394335784525143,"248":0.09646064319129172,"249":0.041657748541631505}},{"sx":5,"sy":5,"depth":10,"w":{"0":0.013905122542563169,"1":-0.03716904981577427,"2":0.004609079840775704,"3":-0.057691992404534966,"4":0.019092442488841233,"5":-0.003068607533391984,"6":-0.059970103300523415,"7":0.014729728037704802,"8":-0.01305691498877706,"9":-0.006751124971506166,"10":-0.028379544240467715,"11":0.0006160456980373849,"12":0.028556837291561155,"13":-0.02701111611802693,"14":-0.002120550809315212,"15":-0.006464988421564418,"16":0.006173099188576863,"17":-0.008751275350325396,"18":0.03721334733037,"19":0.05211471157935612,"20":0.03202374826775353,"21":0.04782089484704212,"22":-0.005648306938923291,"23":-0.03478861051348099,"24":-0.0572274910881734,"25":0.05364706460146583,"26":-0.0035111111733077613,"27":-0.005404580553195972,"28":0.09606096724210404,"29":0.0373160307742224,"30":0.03077193922831857,"31":-0.011499223374306262,"32":-0.04027403054011993,"33":0.001893720914125184,"34":-0.01078652720913587,"35":-0.05608028382743275,"36":-0.0015352969028603343,"37":-0.02551755245591018,"38":-0.030307086392621,"39":0.022480585975868318,"40":0.023800136787155764,"41":0.001280204282700014,"42":0.019345036943022746,"43":-0.004071025135329627,"44":-0.007911291268529231,"45":-0.005482109302638508,"46":-0.0010808491644757798,"47":-0.013362835069161541,"48":0.010937339921116179,"49":0.014928723847586898,"50":-0.03795202116349733,"51":-0.0007745763294902723,"52":0.0006864529453949913,"53":0.02117178723845192,"54":0.047235115763989,"55":0.011074627994138834,"56":-0.04708636505443405,"57":0.0006896302063200921,"58":-0.0060796296534409945,"59":-0.032148544085510385,"60":-0.006097830418221406,"61":0.026366476855762763,"62":0.029822370021245968,"63":0.038193961594103,"64":0.0010095895095385634,"65":0.01002049743689994,"66":-0.061076553237038936,"67":-0.022446808454356773,"68":0.01194932413677135,"69":0.05275553335613613,"70":0.09180951861743075,"71":0.01441717536571931,"72":0.04973291068869045,"73":0.07042978245401606,"74":0.06571272545266453,"75":-0.062063800239070495,"76":0.0006610263252124559,"77":0.03668175011600991,"78":0.03771601783606144,"79":0.0005642674401640657,"80":-0.024976402332719465,"81":0.04170954348167938,"82":-0.0012905161265739772,"83":-0.015035339961720035,"84":-0.04162436671560718,"85":-0.06522291774226115,"86":-0.06968907400517659,"87":0.01704904763361059,"88":-0.008028546933004792,"89":-0.00556339330010372,"90":0.004336579169250535,"91":0.0030817584242288673,"92":0.0105559973232687,"93":-0.008236977690362446,"94":0.015386112228821212,"95":-0.006433435455183462,"96":-0.01603863181963449,"97":0.011627943980944763,"98":0.021586813181953508,"99":-0.000444834460474389,"100":0.00804794097314317,"101":-0.0009222413365171564,"102":-0.008572806964639515,"103":0.01704985584386977,"104":0.03214041996840333,"105":-0.03025806697228599,"106":-0.0319451269280816,"107":-0.011051257100521997,"108":-0.0018557009316847789,"109":-0.013174716978296424,"110":-0.003925848701177328,"111":0.010101580565730814,"112":-0.0031640375319526843,"113":-0.02452990656238894,"114":-0.04086475416444297,"115":-0.010252727339293931,"116":-0.02289799094629598,"117":0.01465153921385062,"118":-0.025831214440585233,"119":0.007384628630089021,"120":-0.004903406994010574,"121":-0.00943557994401337,"122":-0.006363954710137711,"123":-0.0007283855598815039,"124":0.04920001844018549,"125":0.017008643988782938,"126":-0.004030965664092925,"127":-0.0057722895932881884,"128":-0.015470800921823664,"129":0.019636268297767833,"130":0.006116874185972497,"131":-0.007980808475572372,"132":0.014199961667890674,"133":0.01580514701032454,"134":0.017612262708266258,"135":-0.007966795461163693,"136":0.029346437042399427,"137":0.011392735980646189,"138":-0.010433468647851557,"139":0.02895318593641898,"140":0.010448822016698693,"141":-0.007787510430554688,"142":-0.00021595283404610797,"143":-0.009970666580033087,"144":0.0012614818246105867,"145":-0.005185383446790423,"146":-0.0040038714441097654,"147":0.01674892474656893,"148":-0.00995422973345522,"149":0.016198487092048,"150":-0.020962434348695477,"151":-0.005529339563815044,"152":0.04075018785516054,"153":-0.033097547065706126,"154":-0.052315098355736625,"155":-0.03072723246393328,"156":-0.02671203308964158,"157":0.008036825772879603,"158":0.03145214353665709,"159":-0.0026327080593633446,"160":-0.01747788031973502,"161":-0.003908109420553149,"162":-0.004361755196939856,"163":-0.005670801237757029,"164":-0.020081983056315634,"165":-0.029101235614835828,"166":-0.012256217739382378,"167":-0.01024498846593623,"168":-0.015827158629023348,"169":-0.0007981297299514584,"170":-0.017523300549089592,"171":0.01670375264578876,"172":0.0007440839110450624,"173":-0.01640014944703707,"174":-0.014147385460082804,"175":-0.030008054603298098,"176":-0.00942255035845825,"177":0.00839316796776757,"178":-0.010694012311328202,"179":-0.0027826875059802853,"180":0.006209898612366078,"181":0.015103110181016819,"182":0.021046673168791396,"183":0.01136947897584078,"184":0.024600465217537757,"185":-0.009592209942622108,"186":-0.005153143218937388,"187":0.02901032880619176,"188":0.01839383250414561,"189":0.012272444103328525,"190":-0.006884156107682744,"191":0.009163313821064183,"192":-0.012268425610035343,"193":-0.0074209048163202335,"194":0.004737137262137472,"195":-0.012405512590368841,"196":-0.009402542315878597,"197":-0.008826782259233163,"198":-0.013412032195057329,"199":-0.005723552173442895,"200":0.024852531938291993,"201":0.01856495132173897,"202":0.05799659824508371,"203":-0.018482406407938266,"204":0.02333423454804296,"205":-0.019704786899547636,"206":0.03118050337144168,"207":0.014223715403910582,"208":0.07192000043003186,"209":0.029776506533698455,"210":-0.023645227347151423,"211":-0.008230842977925663,"212":0.009354561108113998,"213":0.009503160506501353,"214":-0.022023117497853923,"215":0.03074283186757616,"216":-0.01870211357675658,"217":-0.023029757689720393,"218":-0.0035614921761272685,"219":-0.009956494387059363,"220":-0.026129258664867372,"221":0.017072438356999984,"222":0.007775942748390466,"223":-0.008749006889563036,"224":-0.017813163894248474,"225":-0.06919587518221432,"226":0.01247446925478243,"227":-0.009963909994849258,"228":-0.04208328881613438,"229":-0.010383321896033353,"230":-0.0018865038959269248,"231":0.011475028344736248,"232":0.03511951614461701,"233":0.005181138935527934,"234":-0.024053474716804697,"235":-0.016157722876413295,"236":-0.03598330018542864,"237":0.04803294707197869,"238":-0.02817130909738694,"239":-0.004746255854749941,"240":-0.0023387144080022383,"241":-0.015573106250074999,"242":0.01851285429294713,"243":0.01683847185146987,"244":0.004156909499181768,"245":-0.04393235131743171,"246":-0.015722967307465863,"247":0.0036398568923068234,"248":0.008819104929385578,"249":0.009372638176823515}},{"sx":5,"sy":5,"depth":10,"w":{"0":-0.022446868814758106,"1":0.003480632784672287,"2":0.016062897535019764,"3":-0.01126026642329476,"4":0.013028463937316312,"5":-0.03466940597188035,"6":-0.008899910240372505,"7":-0.04069670762638128,"8":-0.022847736065832364,"9":-0.001825935955564384,"10":-0.009879064457342551,"11":-0.03704043941263915,"12":0.10042112350839749,"13":-0.03851399309438124,"14":-0.016110604498784778,"15":-0.0007238144402820122,"16":-0.010918396939611268,"17":0.01254275896443919,"18":0.0464121817243031,"19":-0.020022669204206946,"20":-0.0026232483450543344,"21":-0.05008774132119269,"22":0.02783031042744621,"23":-0.014740972888026735,"24":-0.012806555487707937,"25":-0.002508480875575087,"26":0.019817617964809003,"27":-0.04514874453493567,"28":0.053534626335071465,"29":0.00983440337993078,"30":-0.0030187407005588885,"31":-0.06069446390471073,"32":-0.024705490430110534,"33":-0.0029377121967014887,"34":-0.002644510946216343,"35":-0.053087626706538375,"36":0.08215154795512021,"37":-0.02822079348046681,"38":0.0466798550321962,"39":-0.02224114339386028,"40":0.02871733980418263,"41":-0.034749118563453,"42":-0.05525159768118854,"43":0.023754155058946853,"44":0.08586397019360847,"45":-0.11011491073485506,"46":0.05668010293890883,"47":0.07973030538716454,"48":-0.06587517030929399,"49":0.0032323711711079004,"50":-0.013974014187733084,"51":-0.016174966049981976,"52":-0.06507074022094415,"53":-0.03701413635199293,"54":-0.02417069689127371,"55":0.0003972919481402503,"56":-0.02858971700109613,"57":-0.030828913420396037,"58":-0.029934096938950737,"59":0.018301642014324188,"60":-0.014579281041505984,"61":0.045872740842130354,"62":-0.018857857671185932,"63":0.04222004067171975,"64":0.02130800338625455,"65":-0.14009620141751566,"66":0.0015421188772515235,"67":-0.011036491214708882,"68":-0.024283095914976374,"69":-0.035239265275024155,"70":0.05754966407548692,"71":0.0002010623606960752,"72":0.05788755241933804,"73":-0.007574462789875249,"74":-0.0783237592144339,"75":0.04067269418438126,"76":0.010817675023479006,"77":-0.0056576717126138884,"78":0.03251413443260724,"79":0.05218354572525818,"80":-0.038238689814288525,"81":-0.02844873469176984,"82":0.038519204660421365,"83":-0.0018474294825246299,"84":-0.04130041503617981,"85":0.0045485972162105995,"86":-0.11759529813250925,"87":0.029446069144637335,"88":-0.02839296124141736,"89":0.00641492885651217,"90":0.002590510172808281,"91":0.0037064589681921434,"92":0.01304356179295733,"93":-0.008562061907773809,"94":-0.01995328900491276,"95":-0.12730321863141297,"96":-0.06134472953222172,"97":-0.10871887294938662,"98":-0.05990309902665809,"99":-0.01931515439155722,"100":0.017297777873673852,"101":-0.07120623320765444,"102":0.038231730015573236,"103":0.06815620307348072,"104":0.021044952078629237,"105":-0.007593585473357745,"106":0.05846891338734716,"107":-0.06629839297577234,"108":0.07099766310741878,"109":-0.010508072328854777,"110":0.03203760810614987,"111":-0.046313305059966926,"112":-0.05623190190743354,"113":-0.08018199043761808,"114":0.058839880353706235,"115":-0.025916124607725435,"116":-0.016813647481330407,"117":-0.050626832556495714,"118":-0.004002538330918098,"119":-0.0006709416195314151,"120":-0.04697502742903876,"121":-0.013349863010179857,"122":0.005042361089963153,"123":-0.09409676730336682,"124":0.06741856639844626,"125":0.05716709462932923,"126":-0.041415328204553556,"127":-0.0841737920845382,"128":0.010300058277714193,"129":0.007467726118449121,"130":0.051830996404259554,"131":-0.0413501949460333,"132":-0.0024898658736890733,"133":0.024055106309528475,"134":0.10371579541467975,"135":-0.028402419192310555,"136":0.10266997492239308,"137":0.033808552780510044,"138":-0.028692804827717147,"139":-0.0006783884261510234,"140":0.006269124858382779,"141":0.004372555495445518,"142":-0.03820982669082321,"143":0.03130419428509915,"144":-0.0036308279567388016,"145":0.0678846866074807,"146":0.09370177363104426,"147":0.0770526550416233,"148":-0.027199488916113235,"149":0.021673498469711828,"150":-0.03807003244141406,"151":-0.0126377401706058,"152":0.12729283379127,"153":0.007410334908875071,"154":0.020939714078465593,"155":-0.032380947282192755,"156":0.002272511554466727,"157":-0.02235672761024058,"158":-0.02387896821618994,"159":-0.041849833524112694,"160":0.006352377364164616,"161":-0.04265229570565959,"162":0.08908269774511493,"163":0.07062918606550482,"164":0.006951259677315471,"165":-0.058050431095080346,"166":-0.047773657000492846,"167":-0.10261577148603176,"168":-0.11022579220289731,"169":-0.11075818579990925,"170":-0.012720327515423988,"171":0.06591467541560689,"172":-0.018601722768254954,"173":-0.05723862707846066,"174":-0.015258433743206432,"175":0.035976235719429255,"176":-0.07268232396928097,"177":-0.04433592478701538,"178":-0.027077721294733754,"179":-0.08991007240983273,"180":0.01168434418697422,"181":0.051195576219606125,"182":-0.023853542972608863,"183":0.055469296440025434,"184":0.07234953881509067,"185":-0.003915656434618697,"186":-0.02751454072699908,"187":0.06821569546395376,"188":-0.0027078104147810387,"189":-0.0674161617075818,"190":0.042093400486611664,"191":-0.029631146907082434,"192":-0.043414884080754876,"193":-0.023881080651784986,"194":0.054839712695835194,"195":-0.006606911371774077,"196":-0.03546376830286271,"197":0.08619129412671657,"198":0.018060878979940104,"199":-0.03690738750437841,"200":-0.056816998188871475,"201":0.0013770941986317334,"202":0.03861248419396623,"203":-0.03868514899795663,"204":0.019778805959601145,"205":-0.012612298924834916,"206":-0.09339039806305445,"207":-0.03930503844314741,"208":0.11548659477667476,"209":-0.09872285228337589,"210":0.0013398654769219045,"211":-0.12460601149671573,"212":-0.0029456129182840224,"213":-0.01755766843739763,"214":0.10402109823990335,"215":0.09170232727055952,"216":-0.051969213356128696,"217":0.006330126890895052,"218":0.1486881938146823,"219":-0.026858608322020295,"220":-0.003838914804892107,"221":0.04132706528448589,"222":-0.037387162883216085,"223":0.08808167352734622,"224":0.008293813551315338,"225":0.08861410097722086,"226":-0.015130636369609022,"227":-0.03956580983798255,"228":-0.03726495131200969,"229":0.030096871650935355,"230":0.018614935334946382,"231":0.020796163101513148,"232":-0.0018291891601995656,"233":0.02369578418428169,"234":0.009158384620093009,"235":-0.04839194602995113,"236":0.01600563403907129,"237":0.06980396746651771,"238":-0.013134918027164773,"239":0.009101910686850442,"240":0.0016594713850433204,"241":-0.014943172190461308,"242":0.017207738967665635,"243":0.009322730949942414,"244":-0.0687982321553484,"245":-0.045510533714064216,"246":-0.009471508920160857,"247":-0.010920329608989757,"248":-0.05595012251146358,"249":-0.0007960391700288528}},{"sx":5,"sy":5,"depth":10,"w":{"0":-0.00477105732342501,"1":-0.006915283694368592,"2":-0.036815148386035404,"3":0.03925106148259242,"4":0.057958522449074984,"5":-0.05836743480648066,"6":-0.022299075382997826,"7":-0.021436470489461908,"8":-0.01726232194317348,"9":0.013229670366390176,"10":0.0040530430437699895,"11":0.013076058837513267,"12":-0.03088956321925565,"13":-0.014383401560059492,"14":-0.017438960842065667,"15":-0.012426986907302534,"16":-0.024170478585837905,"17":-0.03882261008526721,"18":-0.010331656267193725,"19":-0.01338501698547106,"20":-0.030699560574899046,"21":-0.06538313516380716,"22":-0.022607563941255623,"23":-0.07839015337757937,"24":-0.008363905575796537,"25":-0.03559831170954023,"26":-0.010145631082082527,"27":-0.030955668744350916,"28":-0.049187743163661535,"29":-0.022128017962344978,"30":-0.010376160385129727,"31":-0.035708479700620986,"32":0.0152827345951325,"33":-0.05788465164191843,"34":0.1298213030009366,"35":0.01616926308665446,"36":-0.041671214740911115,"37":-0.07274553067369653,"38":0.014113913501955663,"39":0.005894837863093684,"40":0.12962971117900546,"41":-0.04714457353415014,"42":0.04476166298495495,"43":0.007920913976322524,"44":0.1214590336552489,"45":0.02907046638577606,"46":-0.0017750974476867147,"47":-0.0477235946830844,"48":-0.005571601543308436,"49":-0.017537968999219406,"50":0.017888897109055064,"51":-0.030510837590994343,"52":0.054980126514407306,"53":-0.012566885824052553,"54":0.03468423081941569,"55":-0.055237027407742056,"56":-0.04380382082558164,"57":0.030178179049073075,"58":-0.006319215048197211,"59":-0.008605357767315143,"60":-0.0025184763554412875,"61":-0.018105958989436795,"62":0.041779762768992396,"63":0.0023185549381212465,"64":0.007845022857720327,"65":0.005711612703393637,"66":-0.023910237642789833,"67":0.021571596858371185,"68":-0.0037035213503019476,"69":0.017103518415795507,"70":-0.022830553017298128,"71":0.048492166853773735,"72":-0.0010862970185515,"73":0.0620524737533946,"74":-0.014980433926397415,"75":-0.025246568262740837,"76":0.02942216661756472,"77":-0.03895822576067823,"78":-0.055059552180862226,"79":0.018057817067417093,"80":-0.00462076657269154,"81":0.08984784867888966,"82":-0.016912458492632707,"83":-0.03530915863546513,"84":0.003247760210869685,"85":-0.05478631319038026,"86":-0.040371724252856886,"87":0.006096005447698977,"88":-0.039236429028539556,"89":-0.01373962272218704,"90":0.0026342216142264084,"91":-0.046147925558169114,"92":-0.0266216250959228,"93":-0.043899984568685636,"94":0.05770939794906008,"95":-0.0825616353114335,"96":-0.06277305910608116,"97":0.03267073012817619,"98":0.1082565425776301,"99":-0.017695513028523405,"100":-0.0004372251928753783,"101":-0.015507905335530418,"102":-0.015685656597920407,"103":-0.05951408821494058,"104":-0.0037207012483880847,"105":-0.03836723530828503,"106":0.009221140203872458,"107":0.019752924105163567,"108":-0.016048081612780343,"109":0.0167173495626584,"110":0.022230498841589865,"111":0.007691103823545694,"112":0.07610843186784735,"113":0.013213568292349206,"114":0.024841149989267546,"115":-0.009155552469007998,"116":-0.05699123301951137,"117":0.0654122329386376,"118":0.052745394760030574,"119":-0.0016411139781123808,"120":0.012008884481491372,"121":-0.03480608354210838,"122":-0.027735474954135236,"123":-0.005105292793976253,"124":-0.030857957245919332,"125":0.018558185124531144,"126":-0.03034850834418626,"127":-0.04779998588274145,"128":-0.0074479803438084555,"129":-0.0034754100331115803,"130":-0.01852304588549934,"131":-0.023176191141743338,"132":-0.041238328850764026,"133":0.01173032547770621,"134":-0.027637714141933983,"135":-0.0752304713554651,"136":-0.04395474455126144,"137":-0.039140694628372406,"138":-0.06637116865190242,"139":-0.025918948346863153,"140":-0.02282985145238377,"141":-0.010941948787586588,"142":-0.04034349537002205,"143":-0.03756668248719905,"144":-0.007217630612579544,"145":-0.035069620009632506,"146":-0.02148606962030055,"147":-0.020546716322769425,"148":-0.03514067096323616,"149":-0.011271296473098458,"150":0.009397603747783036,"151":0.03003602761924671,"152":-0.05554128743700967,"153":0.019873260897066886,"154":-0.011031210408908443,"155":-0.047099792275451295,"156":0.02598670555828125,"157":0.02695347140233903,"158":-0.005217007483084413,"159":-0.0010875225382854371,"160":0.01233433217936106,"161":0.16121783998454928,"162":0.07210155773481593,"163":0.02612582036299926,"164":-0.04071083906192695,"165":0.030703731814499695,"166":0.04725753869250993,"167":0.04792813549301527,"168":0.009077907080261785,"169":0.10773186335804208,"170":0.02628708326021295,"171":-0.029816038985421435,"172":0.03965811087073892,"173":0.02632867909190095,"174":0.052360011105714845,"175":0.06860492907109138,"176":-0.0547270511748021,"177":-0.03764676380948732,"178":0.010284676860579026,"179":-0.022298439893259504,"180":-0.054808094350902725,"181":-0.01592227671618472,"182":-0.04194682678044345,"183":0.057425668299653905,"184":-0.0193823334339073,"185":0.04289468811506595,"186":-0.04525930408472859,"187":-0.06652418391361052,"188":-0.0485495616377984,"189":-0.02826022924281863,"190":-0.04155904512031202,"191":-0.025081311850068833,"192":-0.029351587147656445,"193":-0.051681958452968725,"194":-0.045730801146988236,"195":-0.06515813776225371,"196":-0.026969373449805205,"197":-0.037980270670195514,"198":-0.023137226293004888,"199":-0.034814759553267745,"200":-0.01613613497533138,"201":-0.012015203105504833,"202":-0.02347564273597226,"203":-0.046453276426675794,"204":0.017474226984847893,"205":-0.03189195147577434,"206":-0.03883179223556676,"207":0.011943682494935862,