var json = {"layers":[{"out_depth":1,"out_sx":20,"out_sy":40,"layer_type":"input"},{"sx":5,"sy":5,"stride":1,"in_depth":1,"out_depth":10,"out_sx":20,"out_sy":40,"layer_type":"conv","l1_decay_mul":0,"l2_decay_mul":1,"pad":2,"filters":[{"sx":5,"sy":5,"depth":1,"w":{"0":0.03783626633266601,"1":0.2854666739154865,"2":0.1820254449623764,"3":-0.14959018929941878,"4":-0.014448562605446125,"5":-0.002386507718212848,"6":0.14458242767696464,"7":-0.17720687602212343,"8":0.05097656002759082,"9":-0.0037642642223434625,"10":-0.09000969048349233,"11":-0.018423474073747653,"12":0.01965161936251354,"13":-0.011340559811240733,"14":0.007486838467275503,"15":-0.036478172042321524,"16":0.10505732490063749,"17":-0.2294162390335851,"18":-0.019221813980019,"19":-0.04270502399156723,"20":-0.16917552067858413,"21":-0.1557061245746011,"22":-0.04569593731547535,"23":-0.03539132171511053,"24":-0.013814697751715515}},{"sx":5,"sy":5,"depth":1,"w":{"0":-0.12219093807381164,"1":-0.08017845551318606,"2":-0.1830736510397065,"3":0.09975239598667483,"4":0.0015812468936915896,"5":-0.18293237142054405,"6":0.10330102432928674,"7":-0.0024218012120459415,"8":0.325317611821925,"9":-0.09682379373259357,"10":-0.2412597782782398,"11":-0.1262888495610526,"12":0.09130061969261292,"13":-0.43314691536190053,"14":0.09786737799385976,"15":-0.05039101185300489,"16":0.15000299950400725,"17":0.24265475384791493,"18":0.4563235798227128,"19":-0.19172401380598464,"20":-0.14244852245409545,"21":0.11073107705950488,"22":-0.12956687443446596,"23":-0.09857346012465913,"24":-0.2790298515573535}},{"sx":5,"sy":5,"depth":1,"w":{"0":-0.07422291718835462,"1":-0.1347683404118773,"2":0.11843823203657892,"3":-0.1880094855522744,"4":-0.10247929500182178,"5":-0.4049317716960053,"6":-0.2604564439187937,"7":0.0612476690572183,"8":0.15274857876591819,"9":0.1506347276823718,"10":-0.09199380595611609,"11":0.3817447042116192,"12":0.13183593339882219,"13":-0.11834095625900713,"14":-0.0216330183902852,"15":0.12225921789483052,"16":-0.3967970693169201,"17":-0.22786382022926396,"18":0.06813727054580546,"19":0.07243883364037264,"20":0.5055737600745915,"21":-0.41600415827835857,"22":0.06242259875604474,"23":-0.017337580392698542,"24":0.08372863131324802}},{"sx":5,"sy":5,"depth":1,"w":{"0":-0.01771303565595318,"1":-0.10170522312000829,"2":0.15262102271814898,"3":0.08043585493419747,"4":-0.15406258461103817,"5":0.2975604494835632,"6":-0.14392018496086922,"7":-0.04657224309393721,"8":0.12542615155840706,"9":-0.11922987197013821,"10":0.09193335053888904,"11":-0.0141582495574545,"12":0.30034195205171155,"13":-0.21404116416661048,"14":-0.20099500295599446,"15":-0.19182200716487716,"16":0.29920809974036944,"17":-0.03505008263093199,"18":0.3490624788137337,"19":-0.008391476145542363,"20":-0.2994607836195097,"21":0.12218311239688392,"22":0.20299433347977183,"23":0.015553280796857418,"24":0.30794729489323863}},{"sx":5,"sy":5,"depth":1,"w":{"0":-0.14304658535081605,"1":-0.07756012406224427,"2":-0.08058891086986276,"3":0.06868317202538447,"4":0.2270300306562058,"5":-0.15091947499670866,"6":-0.14764725831464198,"7":0.14414520763383307,"8":0.2521448456329585,"9":0.04291063803213388,"10":-0.12359647496732887,"11":-0.003945715602440593,"12":0.10416042668964577,"13":0.06617985582315135,"14":-0.188499730916178,"15":0.015323853965804327,"16":0.067842383446544,"17":0.027206042540113544,"18":0.018619392390083703,"19":0.17518435626820822,"20":0.03481523522081463,"21":0.24116139231483122,"22":-0.060432706333116544,"23":-0.1227513578010629,"24":0.18417311476462978}},{"sx":5,"sy":5,"depth":1,"w":{"0":-0.23254403709239846,"1":0.11585145970911796,"2":-0.22787318482724475,"3":-0.05167192213655752,"4":-0.22013236396346433,"5":0.08690895006282649,"6":0.24186864966743338,"7":0.20912146798816167,"8":0.3033584915063204,"9":-0.0913176045426661,"10":0.03560608349275342,"11":0.14854722049160818,"12":0.28270039231755495,"13":-0.05904156907249919,"14":0.09281336800657738,"15":0.3015877220969332,"16":-0.09391520540805098,"17":0.20714553602189795,"18":0.10636846985121143,"19":0.21532716782790434,"20":-0.051131543918373386,"21":-0.19248651405589515,"22":-0.03388437864137137,"23":-0.09974195010441039,"24":0.15529879630475574}},{"sx":5,"sy":5,"depth":1,"w":{"0":-0.1393015928408523,"1":-0.06131892735709308,"2":-0.09825367835874943,"3":-0.33784614324726253,"4":-0.10669177982261818,"5":0.24005283618229437,"6":0.24082864218416566,"7":-0.24135357845832772,"8":0.11676887792385983,"9":0.27975146273673224,"10":0.2481623640842361,"11":0.2773425688704992,"12":0.2525342503305665,"13":-0.13294924282630147,"14":-0.2339754934044073,"15":0.21229053456959107,"16":0.30256963050401686,"17":0.19353130574636637,"18":-0.025675832674811595,"19":-0.07180600981604146,"20":-0.16518764516451345,"21":0.11763015297771609,"22":-0.023059014425081376,"23":-0.005201323329992122,"24":0.049834039074727526}},{"sx":5,"sy":5,"depth":1,"w":{"0":0.17205587221341692,"1":-0.1306098877437372,"2":0.03679766794423613,"3":0.1074736100720515,"4":0.20780796660751033,"5":-0.05623280250046631,"6":0.3282055645372406,"7":0.26332501549792403,"8":-0.17315798798633397,"9":0.02927666110087909,"10":0.13513592224523596,"11":-0.26405953622486694,"12":-0.14910137560935705,"13":0.06812000541614639,"14":-0.19596905211070695,"15":0.18694178892824492,"16":-0.034812143706938,"17":0.4921272457074813,"18":-0.009786096805873916,"19":0.0961358525558126,"20":-0.2908343832080931,"21":0.01369073510042084,"22":-0.1288875551608295,"23":-0.05626787653654562,"24":-0.14003937696451843}},{"sx":5,"sy":5,"depth":1,"w":{"0":0.20847035010680998,"1":0.01982587542357321,"2":-0.15499467321909355,"3":-0.08421677178711355,"4":-0.16701121133838215,"5":-0.10657382806325094,"6":0.07936764867341005,"7":-0.14574944893833724,"8":-0.09118216954993111,"9":0.12075190496484313,"10":0.14845207871449737,"11":0.21484981892954164,"12":-0.23097420524867243,"13":0.22995695922836534,"14":-0.2752741294789457,"15":-0.16272754390696503,"16":-0.16171938052753776,"17":-0.18367275130198427,"18":-0.1601825680432357,"19":-0.057173623961276315,"20":-0.09633915350429002,"21":0.3523804334237283,"22":0.05702629801810026,"23":0.3355826066720031,"24":0.023277394662796}},{"sx":5,"sy":5,"depth":1,"w":{"0":0.048872275514826174,"1":0.08916392226700115,"2":-0.1743380673760394,"3":-0.13295769849493702,"4":-0.2937469961250806,"5":-0.056138518607266256,"6":0.15950636143198202,"7":-0.05963868476036392,"8":-0.1598891269438729,"9":-0.039447655978225964,"10":-0.10609470390655913,"11":-0.2250731932724859,"12":-0.0027434876143556234,"13":0.11818437823144244,"14":0.34978092853258647,"15":-0.15139003272209328,"16":0.026654974742959015,"17":0.20579560824033072,"18":0.17890638717665888,"19":-0.061997877721344095,"20":-0.003430031959853336,"21":0.1562996998009734,"22":0.08357219952043493,"23":-0.07728909936309948,"24":0.0839756625620858}}],"biases":{"sx":1,"sy":1,"depth":10,"w":{"0":-0.008373789813195068,"1":0.0748400788989532,"2":0.13515524219065558,"3":0.07534724922560398,"4":0.142402110364402,"5":0.17110167359849612,"6":0.24357586735303743,"7":0.14450090257093318,"8":-0.0031275171536200015,"9":0.11375387141101687}}},{"out_depth":10,"out_sx":20,"out_sy":40,"layer_type":"relu"},{"sx":2,"sy":2,"stride":2,"in_depth":10,"out_depth":10,"out_sx":10,"out_sy":20,"layer_type":"pool","pad":0},{"sx":5,"sy":5,"stride":1,"in_depth":10,"out_depth":20,"out_sx":10,"out_sy":20,"layer_type":"conv","l1_decay_mul":0,"l2_decay_mul":1,"pad":2,"filters":[{"sx":5,"sy":5,"depth":10,"w":{"0":0.03938017002534896,"1":0.06768593045240746,"2":-0.013098123963765187,"3":0.07815226652910012,"4":0.0033145297715774136,"5":-0.02287043068514513,"6":0.0885355964853146,"7":-0.05314347201512567,"8":0.02539423613362284,"9":0.0029109460279824998,"10":-0.031531286944519024,"11":0.0630253218601331,"12":-0.04920238035371479,"13":0.002043156903554529,"14":-0.0034877768406062323,"15":0.00031339557452812636,"16":0.010550705703507713,"17":-0.03780410842235596,"18":0.044830460574304905,"19":-0.09077234550128005,"20":0.028441976127634182,"21":0.022776659071388577,"22":0.0006032064677591863,"23":0.020804895898618163,"24":-0.020539069350988207,"25":-0.056050017414277314,"26":-0.031316704811204445,"27":-0.029566298614528617,"28":-0.001286769859323883,"29":-0.013595880079020092,"30":0.05043255122951094,"31":0.01098469175702933,"32":0.1580986220290542,"33":0.030432158926797678,"34":-0.10704208093420321,"35":0.0383653960244627,"36":0.011474752381341536,"37":0.057324156863170765,"38":-0.02845900113471686,"39":-0.012675489785061434,"40":-0.027878288386017865,"41":0.0009299433995482785,"42":-0.007241643103491912,"43":-0.02479389588184992,"44":-0.003981535074971569,"45":0.018964684063334725,"46":0.0440116987757537,"47":-0.045911566449244226,"48":0.047935736007433984,"49":-0.03564866301124792,"50":-0.02867444778181358,"51":-0.05285774566265853,"52":0.04050063256099063,"53":0.06754420528287836,"54":-0.09372666969333826,"55":0.029352802126727664,"56":0.04958065576402191,"57":0.017653727739836644,"58":0.02038441539286066,"59":0.01212198974827195,"60":-0.02824522528671387,"61":-0.005440342372351248,"62":-0.058599652036360854,"63":-0.01615492044563581,"64":-0.02391336975640813,"65":0.007340676715390671,"66":-0.0060365672137526385,"67":0.09151381310753982,"68":-0.024196857891634768,"69":-0.008533209346966672,"70":0.021014233761118106,"71":0.10469195924614594,"72":0.09359287645125272,"73":-0.011817298513104124,"74":-0.003540301710784266,"75":-0.03522611273247164,"76":0.0658341029971558,"77":-0.0315505671915133,"78":-0.016972998908867207,"79":-0.0006745843176343326,"80":0.011593775596334925,"81":0.012665972704165984,"82":0.023111658701146617,"83":-0.039184990247416264,"84":-0.012174722508965233,"85":0.03015351291899503,"86":-0.01752260529447165,"87":0.05450345339047873,"88":0.0344287226035219,"89":0.056098453508845465,"90":-0.03536514915577348,"91":-0.012408386373700694,"92":-0.003301140991801153,"93":-0.03558716609125956,"94":-0.02078465821029706,"95":0.014673201458974454,"96":-0.0793446440993647,"97":-0.07623347319099642,"98":0.05568210662923302,"99":-0.0014960068139255895,"100":0.04105973082507415,"101":-0.03978953668660042,"102":-0.040332805006118855,"103":-0.022811638461902987,"104":-0.025668816129097882,"105":-0.013426122624304803,"106":-0.02180530199534476,"107":-0.02826136327461322,"108":-0.06500549794439649,"109":-0.0007774182734635671,"110":0.013206206250799012,"111":-0.045916918387693385,"112":-0.011711309634429611,"113":-0.06859208140464129,"114":-0.08687293883098286,"115":0.019230258113564908,"116":-0.00017153687325027582,"117":-0.04236141400872437,"118":-0.04813922760836924,"119":0.00020817633900091265,"120":0.08266669817658767,"121":-0.013665533955720423,"122":-0.010300953972702958,"123":-0.030801824532615884,"124":-0.006064909136684052,"125":-0.032435703502908066,"126":0.049848196978535916,"127":-0.018560109504109103,"128":0.005709326237577444,"129":-0.010116133467195271,"130":0.04464795822918712,"131":-0.010994575055781578,"132":-0.010570172507927567,"133":-0.018792978823365655,"134":-0.024588216723385587,"135":-0.010225719560443082,"136":-0.025379942518879837,"137":0.009998437374163756,"138":0.00611532829355837,"139":-0.03844587478643913,"140":0.02473570096445386,"141":-0.022672815353644137,"142":-0.05675941211704208,"143":-0.01837845840445817,"144":-0.038385876858876435,"145":-0.051710845288047425,"146":-0.03785693076876542,"147":-0.03137459448779286,"148":0.021092897012771603,"149":-0.006484473881294963,"150":-0.0007766363181084787,"151":-0.01353165346595817,"152":-0.018794349482891923,"153":-0.03719439071549086,"154":-0.03758623758144281,"155":0.007285808745829742,"156":0.05140963678564337,"157":-0.08452225864763144,"158":-0.005275633530457496,"159":-0.00319528869616695,"160":-0.0025083657817917115,"161":-0.01572133232154862,"162":-0.0076361288489503664,"163":-0.01169065716066294,"164":0.01789033285202252,"165":-0.1010831183458973,"166":-0.006480749225326416,"167":-0.04289486951129056,"168":-0.014818076680345687,"169":-0.002125759918700122,"170":-0.0005088853497765857,"171":-0.011644703252422874,"172":-0.004009454478897298,"173":0.10318851443473312,"174":-0.047809465607311905,"175":-0.018689992034856998,"176":-0.008764067440258351,"177":-0.0414482293554554,"178":-0.02200960656482799,"179":0.04715275466886286,"180":-0.0007162926469247594,"181":0.014598250247315193,"182":-0.019734785211453533,"183":-0.032282271737894504,"184":0.004649567031654614,"185":-0.009470214426348596,"186":0.00413116924552125,"187":0.006383552732218006,"188":-0.03573131274984636,"189":0.026451698087656336,"190":-0.003072142217216762,"191":-0.10835338133974397,"192":-0.011353383997338035,"193":-0.0815659761754868,"194":0.05489876657355618,"195":0.002979822876215298,"196":-0.027322811017717073,"197":-0.037758674955173634,"198":0.009359706465051326,"199":-0.015783776681577585,"200":-0.018285887997642702,"201":0.002555256364813594,"202":0.01939694396040697,"203":-0.044607204303233804,"204":0.0032648381925919866,"205":0.01538669314702275,"206":-0.04476004857751153,"207":-0.01725355627041638,"208":-0.030948131502881265,"209":-0.008485975775632988,"210":-0.0001407072822121524,"211":0.029224595677497613,"212":-0.03975491883727626,"213":-0.02756242248986717,"214":-0.06288423491506606,"215":-0.03161958745191422,"216":0.04480254449944437,"217":-0.010055301822339578,"218":-0.024586960047413266,"219":-0.022089889776167545,"220":0.0009979337847895245,"221":-0.08758433459201627,"222":-0.008241782128633376,"223":0.055390264698824764,"224":-0.07888384234153899,"225":0.07687371852233538,"226":0.01881848314138775,"227":-0.050460407925744376,"228":0.02376969019919317,"229":0.04630302886670704,"230":0.000004946969569114521,"231":-0.13026240467989342,"232":0.010892308363596365,"233":0.026422379265410818,"234":0.06453212790369532,"235":-0.0016651975470422166,"236":0.07889249398714296,"237":-0.06211838499275752,"238":-0.04718856759923509,"239":-0.004531210201455387,"240":-0.006645024955537341,"241":-0.01882569578046405,"242":0.03536587048617256,"243":0.028543292355137494,"244":-0.018307454410860746,"245":0.10252382492357988,"246":0.04223307305413892,"247":0.07929155856406468,"248":-0.020355157016145712,"249":0.08436115844449564}},{"sx":5,"sy":5,"depth":10,"w":{"0":-0.052654141793150255,"1":0.06411083190956722,"2":-0.01847638326063814,"3":-0.015817206617269645,"4":-0.03880976015516309,"5":0.06861209267659152,"6":-0.014045162248425653,"7":0.0861537777702337,"8":-0.02601689246315572,"9":-0.023673014375651728,"10":0.004687205265578134,"11":-0.014141643805811913,"12":0.041374348303868054,"13":0.004543321801162506,"14":0.0041022949775177025,"15":0.034663827492692485,"16":-0.04071224692753147,"17":-0.03593987684566608,"18":0.018997491858978238,"19":-0.013683021194579715,"20":0.003838512160818055,"21":0.040139887787501785,"22":-0.005122726648569112,"23":-0.01778127841093522,"24":-0.13659959140799846,"25":-0.011734162080617202,"26":-0.09848328897338332,"27":-0.1570189218976952,"28":-0.06639485938334805,"29":0.09970488041163156,"30":-0.015890625965649722,"31":0.02618284549923028,"32":-0.02665361111437709,"33":0.0017795496675744316,"34":-0.03689222023899834,"35":-0.05093629560636001,"36":0.04072197654755513,"37":-0.020077865219228583,"38":0.015638308047878562,"39":0.1024068729109383,"40":0.06514769337588867,"41":0.011838773020177829,"42":0.0683320133811577,"43":-0.012016365967255709,"44":0.07059901197838495,"45":0.03336924315407015,"46":0.01941043994197259,"47":-0.07967616627828568,"48":-0.048614750635868925,"49":0.11654492750501196,"50":0.08921255972968653,"51":-0.04358496727350085,"52":-0.033601130087027434,"53":-0.03376280502753927,"54":0.008617213935192502,"55":-0.03674407917989337,"56":-0.0283574423894108,"57":-0.037684225904168506,"58":-0.03195766009786367,"59":-0.0028312709424754144,"60":0.013858154619239199,"61":0.04204534395461046,"62":0.020620720535178095,"63":0.019562291137953144,"64":-0.06636870146241765,"65":0.077883938467796,"66":-0.0001891348460873595,"67":0.0036758834556773414,"68":-0.022719059865911974,"69":0.008849177604122958,"70":0.013967431791253778,"71":0.024531395626750264,"72":-0.015582186991684935,"73":-0.0734277353654419,"74":0.09536667372059571,"75":0.018460945793519173,"76":0.031186826653307076,"77":0.02884771440462569,"78":-0.053310241799965685,"79":0.0365972827990553,"80":0.028348033129651787,"81":0.055495833971238286,"82":0.05860356134236809,"83":-0.02841318117755726,"84":0.02442522395823353,"85":0.036832695371802095,"86":0.06408485264826852,"87":0.015604777918994185,"88":0.005107194345511896,"89":0.047341588838115956,"90":0.21190117179747112,"91":0.009228253702005125,"92":-0.10284363725879826,"93":0.08762447406111774,"94":-0.0858649316272161,"95":-0.048253566065160805,"96":-0.051417413151831126,"97":-0.0642731091389304,"98":-0.000700879651601909,"99":0.09119263922625759,"100":0.0035378589805105266,"101":-0.024405720055921117,"102":-0.06817254191034178,"103":-0.03264364582015103,"104":0.037117557895404524,"105":-0.019485072157174578,"106":-0.04172655415113078,"107":-0.029160407173164576,"108":0.01291019955221907,"109":0.02048400237184075,"110":0.02084873186521383,"111":0.03240376876835705,"112":-0.06993055942690542,"113":-0.039250044765188605,"114":-0.02223699293023635,"115":0.025885051800813866,"116":-0.02659869294353387,"117":-0.005621520048136775,"118":-0.036846814081209725,"119":0.11475961264679976,"120":0.03542118807384412,"121":-0.008377721475325029,"122":-0.09240974860355783,"123":-0.004860555330693717,"124":0.056468649862328565,"125":0.05560020082619262,"126":0.09440109266144095,"127":0.0962815977181573,"128":-0.009719135199281538,"129":-0.06213036994561422,"130":0.13288660293750187,"131":0.015302446343248533,"132":-0.03190936996517866,"133":-0.0043314085362573945,"134":-0.03434542774634907,"135":-0.059018649807098346,"136":0.02902456162092854,"137":-0.0936014166895695,"138":-0.03957707643583767,"139":0.0386186200267253,"140":-0.029948084517960237,"141":0.02790992318750134,"142":-0.010721005548836683,"143":-0.058570712074841214,"144":0.033465908990087834,"145":-0.0697382358857131,"146":0.03916421936049575,"147":-0.035791169364917906,"148":-0.021624893571551364,"149":-0.03515459029339979,"150":-0.00643590994902192,"151":-0.052395608581724866,"152":-0.06684176713175971,"153":-0.02978693638993367,"154":-0.0644347007950618,"155":-0.015503430846150083,"156":0.05914611821303807,"157":-0.028182920439954694,"158":0.0888135296695666,"159":0.04219570437990534,"160":0.0017188728517435342,"161":0.03423937396037362,"162":0.017649526873108015,"163":-0.04364807598174659,"164":0.09621297103099508,"165":0.012757777305835142,"166":-0.05388878263605336,"167":-0.006545809888247605,"168":0.013712119702818893,"169":-0.05275509076247,"170":-0.05701142921137806,"171":0.02982502502695132,"172":-0.01646200948371225,"173":-0.050516176349183206,"174":-0.0871673193473893,"175":-0.0643571274646887,"176":-0.005638737806340953,"177":-0.04604547869013774,"178":-0.003895773565799661,"179":-0.0152512913623841,"180":0.00920862853036442,"181":-0.008409259036875278,"182":-0.052567646540274335,"183":-0.05354342299469065,"184":0.004052593134336271,"185":-0.004025959181587526,"186":-0.14014035775892242,"187":-0.08664445740877419,"188":0.023059906482379832,"189":0.02453874155110912,"190":-0.007284611390626516,"191":-0.008190237298344652,"192":-0.012151801359900469,"193":-0.014446867561786975,"194":-0.013925253357227718,"195":-0.03765970578867388,"196":-0.04903935651270448,"197":-0.025910916086318053,"198":-0.008692209101489334,"199":-0.02074327674998985,"200":0.024112544172288697,"201":0.06898065150164069,"202":-0.023165835483017955,"203":-0.08154574081638107,"204":-0.015531231968065513,"205":0.025247865765175216,"206":-0.07992440920666051,"207":0.12521128022171601,"208":0.0026740917019060055,"209":0.01655123163797637,"210":0.013984802219551198,"211":-0.09465365063338073,"212":0.04706242034732452,"213":0.1207514314710504,"214":0.0440817453549546,"215":0.035849886399143674,"216":0.03378433764895557,"217":-0.024643859537964285,"218":0.07877144015624599,"219":0.0636384939504682,"220":0.010438673047578699,"221":0.05414797180974897,"222":-0.05553263681565926,"223":0.008129187211925092,"224":-0.02672111345310608,"225":0.05273380663853153,"226":0.006458142536877147,"227":-0.03878396794583668,"228":0.00744557438003122,"229":-0.02916121095735411,"230":-0.02198398966353689,"231":0.01929486507827026,"232":-0.031290531188198266,"233":-0.010959683016019912,"234":-0.034222071854976784,"235":-0.046050476535021076,"236":-0.006623891894727122,"237":0.020039160227992295,"238":-0.00040820301767130604,"239":-0.014962289877986356,"240":-0.008952083513526155,"241":-0.0066977309127100705,"242":-0.0133798707668474,"243":-0.01001835283334923,"244":0.0014667500267127277,"245":0.0022770921926825957,"246":-0.0009813696661136895,"247":-0.03532827288560514,"248":0.0053075076898936235,"249":0.00035469048665725}},{"sx":5,"sy":5,"depth":10,"w":{"0":0.031803074893821594,"1":0.0027275150422032797,"2":-0.008972862394624226,"3":-0.05916742905318163,"4":-0.018795563338337103,"5":-0.03694264108849594,"6":0.005305145356094335,"7":0.023226932734234495,"8":-0.03066003013607074,"9":-0.0696164054876918,"10":0.047670187229041705,"11":0.020320410029471235,"12":-0.01650212621252598,"13":-0.05537585478379105,"14":0.079759463137611,"15":-0.03325140431442136,"16":-0.027437938149581557,"17":0.04397166679886173,"18":-0.05175040664633187,"19":0.04226661912321695,"20":0.023709942621589916,"21":0.02935855607169111,"22":-0.1339244942218669,"23":0.008820642423622491,"24":0.0009201232096966024,"25":-0.045912202743044035,"26":0.03850100105932182,"27":-0.03393481663427845,"28":-0.006491090432851572,"29":-0.011905209418623993,"30":-0.03500211281828866,"31":-0.018749448187950903,"32":0.047912311829269964,"33":0.04499649933449215,"34":-0.066207539145578,"35":0.050670633580293944,"36":0.03515455391324974,"37":-0.03317964433007627,"38":0.04610061341140092,"39":-0.028506850834467884,"40":-0.08212272093988894,"41":-0.01569071665938973,"42":-0.025248432271982424,"43":-0.0741700915184528,"44":-0.00831626894565081,"45":-0.0397574991426402,"46":0.1031974809761673,"47":-0.026662272571410052,"48":0.04168240816620774,"49":0.04835929854161,"50":0.01660023451776333,"51":0.011853068075757178,"52":-0.05422013560132517,"53":0.059472862480298656,"54":0.01748910152664039,"55":-0.08548274986425818,"56":-0.05037525587482565,"57":-0.0005921229942743123,"58":0.02626716410260258,"59":0.027280009992392842,"60":0.018405234491175683,"61":0.0278663830359389,"62":-0.04074664022241222,"63":-0.09028605509318638,"64":0.01966552014971818,"65":-0.0180373594954869,"66":-0.0783044700494945,"67":-0.04821539711476989,"68":0.03960971056332255,"69":-0.046688079009598635,"70":0.04533606885636973,"71":-0.0033417087263344827,"72":-0.055794711853394886,"73":-0.008219669094234204,"74":0.07834879468149598,"75":0.024099251937734573,"76":-0.07243555675953332,"77":0.02725736277819429,"78":-0.03221844157305939,"79":-0.01769827861134816,"80":0.05806480306376512,"81":-0.06262378751700821,"82":0.027686291668972206,"83":-0.009899554728222668,"84":0.04928181742980992,"85":0.03244432069684586,"86":0.04387355617667085,"87":0.026991519597953744,"88":0.09495231576737152,"89":0.01621617148420968,"90":0.03544478317311086,"91":-0.010434569853709871,"92":0.030519828030626178,"93":-0.0492262367746119,"94":0.028576054376149768,"95":-0.02985248930282774,"96":-0.10216468639753652,"97":-0.1087465026518337,"98":-0.003256428969816927,"99":-0.026461253366976304,"100":-0.0007834240721565936,"101":0.04637540088634542,"102":-0.02849020139377264,"103":-0.021146330475467504,"104":-0.011196358307844616,"105":-0.12072524439828096,"106":-0.0018306433326072014,"107":-0.10562758014352257,"108":0.03501690498743494,"109":0.033207782757966174,"110":-0.0013557138402363086,"111":0.0529338353704945,"112":0.04401892819413935,"113":0.0006180957820792351,"114":0.06500493390146492,"115":0.06390227707950859,"116":-0.011066577980172217,"117":-0.05892130698251548,"118":-0.024887816892210934,"119":-0.009957395151675427,"120":0.0621778490899816,"121":0.025247120704824308,"122":-0.06536479683039574,"123":-0.04714245938045867,"124":0.01295253326782264,"125":0.07174958063618464,"126":0.024337601833906975,"127":-0.1626125774685156,"128":0.045440089126238516,"129":0.011537557537810068,"130":-0.00657282770003247,"131":-0.0027583791357994377,"132":0.002169331896329386,"133":0.06394068564061131,"134":-0.058993229300988374,"135":0.038746343934206166,"136":0.07766840142400293,"137":-0.06229224723153422,"138":0.1314784036207603,"139":0.07199725739164382,"140":-0.021814152449713062,"141":-0.004208211462857131,"142":0.1183769242434774,"143":0.031209254381652906,"144":0.026391570862336997,"145":-0.01799667996045432,"146":0.06520916347487038,"147":-0.08119430575363111,"148":-0.012095831572164133,"149":-0.0022947373554367276,"150":0.00214771102904717,"151":-0.06863656947245991,"152":-0.04102614339064286,"153":0.11137390985427867,"154":0.02141213437457053,"155":-0.0718697604417493,"156":0.0039032739079886336,"157":-0.02188636625499687,"158":-0.06011339244923913,"159":-0.0010912117683314023,"160":-0.01701014766085516,"161":-0.050505239200570144,"162":-0.013400959833339303,"163":0.03612629758113595,"164":0.14192953269216085,"165":0.015271936758240774,"166":0.01794465832377822,"167":-0.022089567479705415,"168":0.04057247648435357,"169":-0.03175249169584944,"170":-0.039953642020885874,"171":0.05025480364838732,"172":-0.05439238808104081,"173":-0.02296421470849751,"174":-0.005559148110730008,"175":0.02583340635324181,"176":-0.08739766119683949,"177":-0.023631668664643984,"178":0.05578909708357376,"179":-0.043338872873594246,"180":-0.02559439234387322,"181":0.05690332816488403,"182":-0.023457439150094704,"183":-0.09471811999157725,"184":-0.06944422884490885,"185":-0.01457068957066288,"186":0.02581342480837545,"187":0.0037217706038712556,"188":0.01831609940751066,"189":-0.03789489166034581,"190":0.07665527241857331,"191":-0.003308225064605852,"192":-0.003771213415996516,"193":0.003700019626964295,"194":-0.007027067373441421,"195":-0.0035765762719098954,"196":-0.0653321856414895,"197":-0.041913898507152415,"198":-0.020180260576176678,"199":-0.023541905561913764,"200":-0.012782941980897907,"201":-0.033555644554874135,"202":0.002163742255804047,"203":0.07517084106726962,"204":-0.03699813702706816,"205":0.018632708106830608,"206":0.14607510844800345,"207":0.02691475909863083,"208":0.021996315816608658,"209":0.041779243973335774,"210":0.03440828947788721,"211":0.00483709813064869,"212":-0.0929916920569458,"213":0.04056477058923799,"214":0.024150448945317555,"215":-0.10126071195327302,"216":0.023324078057912014,"217":-0.02399388594997084,"218":-0.011888417268727896,"219":-0.08387501087340529,"220":-0.035798192846646,"221":-0.0078091401188070215,"222":0.1015792152397073,"223":0.042131946665206664,"224":0.08231484387048747,"225":-0.023694246660484627,"226":-0.03690335911764692,"227":-0.03358868549096483,"228":0.03913905349570112,"229":-0.08268833082745047,"230":0.02725123483222026,"231":0.026501756391131878,"232":-0.005596505802867872,"233":-0.016876188995791002,"234":-0.007964031068595744,"235":-0.0002353262852786262,"236":0.009186887205886972,"237":-0.052958471174284205,"238":-0.08934558426826544,"239":-0.04462507677751928,"240":0.045995584095020636,"241":-0.005510409770987959,"242":-0.005836838614401305,"243":-0.049791612761769424,"244":-0.027310175129056462,"245":0.03829421716980064,"246":-0.06911596768531773,"247":-0.0017795205750681816,"248":0.11174920807795617,"249":-0.015251325734797969}},{"sx":5,"sy":5,"depth":10,"w":{"0":0.00024175628784168127,"1":-0.008574987891937247,"2":-0.052620117899225834,"3":-0.02320392914391968,"4":-0.009599520692251451,"5":-0.020080187407455072,"6":-0.0340125495659375,"7":-0.012558604577065419,"8":-0.012828431169185237,"9":-0.01635777119559806,"10":-0.000058034004973913344,"11":-0.003214456551117033,"12":-0.01926925939785607,"13":-0.013180026123396587,"14":-0.01233261730629385,"15":-0.01040845105967257,"16":-0.01227021558054441,"17":-0.005093664684748101,"18":-0.012887951383150563,"19":-0.009898188303552146,"20":-0.00024871977744068925,"21":-0.002322908481360652,"22":-0.0073364567807049285,"23":-0.003972519730327863,"24":-0.010871636921671247,"25":-0.005163051058241543,"26":-0.005838625201102548,"27":-0.004147855871529435,"28":-0.007988004356094643,"29":-0.0076724323829310895,"30":-0.00014969851604726522,"31":-0.0007628943982864808,"32":-0.012057825329518343,"33":-0.009208622532259523,"34":-0.012162601392792722,"35":-0.008583654416037667,"36":-0.010404237309533201,"37":-0.0028590846615652627,"38":-0.0068447375053458616,"39":-0.006275842619983211,"40":-0.00048530107884466484,"41":-0.0038899446494639247,"42":-0.0070282248307118505,"43":0.004493214709443992,"44":0.027905337138325197,"45":-0.0028723000377113813,"46":-0.009104050615274495,"47":-0.023864395533357726,"48":-0.01375907891345729,"49":-0.005374685220395147,"50":-0.0026176976840552152,"51":-0.01779569616632528,"52":0.03304171587378264,"53":-0.06981866909169962,"54":-0.043956491264710844,"55":-0.09088255784245995,"56":0.018028457145462157,"57":-0.06946779600257388,"58":-0.018151497454337175,"59":-0.027505857774233974,"60":0.0004652631720926327,"61":0.011575262591767964,"62":-0.009150344358053439,"63":0.0050353022731188645,"64":-0.006840140462388435,"65":-0.05940324871214492,"66":-0.04657955804719467,"67":-0.015112007231899876,"68":0.013450005049217523,"69":0.00883441476850727,"70":-0.00161758927126412,"71":-0.0025487064322620135,"72":-0.0008706355665932204,"73":-0.014792462568137333,"74":-0.00019981013567104466,"75":-0.00578085401937653,"76":-0.020391493062397546,"77":-0.0035813211420189167,"78":-0.004828300227707828,"79":0.0036782491372761164,"80":-0.000961099315349113,"81":-0.010392809764436614,"82":0.004918813070775303,"83":-0.022293055537528597,"84":-0.015217000961996319,"85":-0.023543152691339223,"86":-0.014495825145567265,"87":-0.0063617751510190775,"88":-0.014020067244599194,"89":-0.01964691266266072,"90":0.0010572135465678908,"91":-0.011792113413893975,"92":-0.026247626794038317,"93":-0.005835581830624835,"94":-0.029232329302061447,"95":-0.07839582335987406,"96":-0.027089547248771845,"97":-0.012672068886004391,"98":0.018630860743099317,"99":0.02910503239993127,"100":0.0007664740738295411,"101":-0.09556453249397803,"102":0.15048161682435368,"103":-0.07035562717986114,"104":0.007767387791454416,"105":0.011041764461345633,"106":-0.05574848063556316,"107":0.045819848899726484,"108":-0.04443226985423636,"109":0.040247872924318945,"110":-0.0008809029003627071,"111":0.03219391788248507,"112":-0.015584042103922826,"113":0.01417295044652739,"114":-0.016224986778900902,"115":0.04471996965136856,"116":0.07236956474363364,"117":-0.00131307162456611,"118":0.045917923190636596,"119":-0.012012855414645555,"120":0.0017220514655125615,"121":0.0003729994976152659,"122":0.020645183548869538,"123":-0.06570748757992764,"124":-0.017733274406075163,"125":0.031568101610611514,"126":0.01546096795529757,"127":-0.000052189718022618174,"128":0.0037815069523276508,"129":-0.021304333869533603,"130":-0.0012403747497509168,"131":-0.011195242299227274,"132":-0.0663818414209025,"133":-0.022766351527463497,"134":-0.028622277537116995,"135":-0.02491037123335368,"136":-0.04784148371024952,"137":0.0030708747884752347,"138":-0.03777333756081999,"139":0.0221543060826707,"140":0.0008269048552577674,"141":0.0540595615011237,"142":-0.05030401728726976,"143":0.04394659563335371,"144":-0.011918464284048275,"145":-0.05771956486477556,"146":-0.04177639691629734,"147":-0.0305686519434833,"148":0.08362436309174551,"149":0.03438570682667992,"150":0.03509700116401125,"151":-0.034726111316792464,"152":0.08075898683350012,"153":0.09625620695008866,"154":0.04780886895417409,"155":-0.023133518467246424,"156":0.09863216113312896,"157":0.01791155799434399,"158":0.06710937941096183,"159":-0.016027485627589908,"160":0.033975406787412864,"161":0.03716402616376861,"162":0.10709430851581117,"163":-0.014443494296629123,"164":-0.0011023191112252647,"165":-0.0235989553784516,"166":-0.052574925953222655,"167":0.12441890124462043,"168":0.00007843117972207272,"169":-0.022355204752715338,"170":0.019000234323387405,"171":-0.027300225449577383,"172":-0.02874261717335392,"173":0.007855449397208827,"174":-0.029282296286305513,"175":0.011074338873048675,"176":-0.056451852906657454,"177":-0.05799232884358188,"178":0.013724767916391344,"179":-0.021378514338561666,"180":-0.00036935428766975457,"181":-0.021864295995580436,"182":-0.04109164117617491,"183":-0.035570019282784894,"184":-0.032295007311300895,"185":-0.10288228302096224,"186":-0.0436280275032453,"187":-0.11095042591631368,"188":0.014406360303483998,"189":0.05639403074799993,"190":0.006152202720844451,"191":0.004231166318791611,"192":-0.0035559641291836672,"193":-0.02628802974303712,"194":-0.0226010087625036,"195":-0.03602965865713137,"196":0.14939531476414553,"197":0.03989595439592082,"198":-0.0006364081890785064,"199":0.15515238022918132,"200":0.09393888909232605,"201":-0.05219672126398303,"202":0.051057374643118235,"203":0.023511952872147086,"204":-0.10716035004956743,"205":0.05114775299284945,"206":-0.00529167021298721,"207":0.09255289750643042,"208":0.000793294875458933,"209":-0.028026858503738074,"210":0.015121076091238153,"211":-0.0057434068330891545,"212":0.05860057693961386,"213":0.04858360397355449,"214":-0.08530289836831664,"215":0.0045344640706563005,"216":-0.05510677519342634,"217":0.03316066409647443,"218":0.051839693914065066,"219":-0.028774635459752392,"220":0.0013597413432592097,"221":0.043091240741295125,"222":0.1167432338026113,"223":0.045660281822358796,"224":-0.1182486387194409,"225":0.0005113711304305133,"226":0.010260503088897952,"227":-0.00963210469582677,"228":0.049510470526028826,"229":0.035038023171008105,"230":-0.01163174603083761,"231":0.058482400638390455,"232":0.024468482560717864,"233":-0.08178700117026068,"234":0.038824098125135334,"235":-0.052559099112015645,"236":-0.07614963705761936,"237":0.03485303466715102,"238":0.023117157370328864,"239":0.14049948037619067,"240":0.039470480479433814,"241":0.04940290205542973,"242":0.01579415713718351,"243":-0.05757268888248752,"244":0.04839256661622198,"245":0.04134453993659361,"246":0.03897796504853293,"247":0.08315450254987335,"248":0.0369032761914562,"249":0.0028446818170592848}},{"sx":5,"sy":5,"depth":10,"w":{"0":-0.014498241157201322,"1":0.0789839889976562,"2":-0.08644089797569042,"3":-0.04815962519768543,"4":-0.1539066896556423,"5":0.08168206517116311,"6":0.01444924544931869,"7":0.04673416266276653,"8":-0.038500865701815164,"9":0.052833578143832244,"10":0.02418250660846553,"11":0.0225703229714014,"12":-0.04143912711496799,"13":-0.04849804182356786,"14":0.08834565749352644,"15":-0.08463358577439134,"16":0.13462326886446832,"17":-0.05327570069282816,"18":0.003191481378971325,"19":-0.0036183504635741966,"20":0.05011797738183297,"21":-0.08440638852653769,"22":0.006044040643828584,"23":-0.07098528560767423,"24":-0.0016852924749465382,"25":0.03656573630740613,"26":-0.01964845356371723,"27":-0.1349138460983585,"28":0.04726877336078857,"29":-0.009624634687659268,"30":-0.04205102485501102,"31":-0.03719979941161894,"32":-0.042206768921534486,"33":-0.017950187000958632,"34":0.027836854733824846,"35":0.034707519126415357,"36":-0.043170863881547845,"37":0.0319382968278153,"38":-0.05319349245086298,"39":0.038246169700960404,"40":-0.04000594431596611,"41":-0.03582019371744684,"42":-0.031224817301694466,"43":0.17964039925598493,"44":0.07053089700433027,"45":-0.15430517302294405,"46":0.09431065061514592,"47":0.07499995742164095,"48":0.0020853873574310203,"49":-0.014550496164004598,"50":-0.05873421376891853,"51":0.036436746729808886,"52":0.019573905916605204,"53":-0.06849904090591949,"54":0.07386455615598393,"55":0.001732418599365889,"56":-0.05055875459739009,"57":0.059458163377372766,"58":-0.044307745373289686,"59":-0.006556159199332991,"60":-0.010213459920489838,"61":-0.016948888495826073,"62":-0.015928833850784332,"63":0.01952126991576884,"64":0.07136216568700522,"65":-0.022299042738513946,"66":0.026771066925477115,"67":0.047272401382428546,"68":0.010945112979793625,"69":0.03382144475123565,"70":0.0511661738972966,"71":-0.010205700515950484,"72":-0.08272544232561767,"73":0.003191521813693711,"74":0.015703155375616732,"75":-0.03350294550561584,"76":0.06098190448647028,"77":-0.012292012756576088,"78":0.029041440126410613,"79":-0.008119901692574991,"80":0.002504472784211279,"81":-0.01794650198457237,"82":-0.03232846113562592,"83":-0.030804333816222808,"84":-0.04129029692560447,"85":-0.03930179075126033,"86":-0.02509022197088367,"87":-0.06145576095691371,"88":-0.04874746763494915,"89":-0.010211574550891053,"90":0.0013000015755017084,"91":0.027128510902633667,"92":-0.030516386676952507,"93":0.03448209739790727,"94":-0.013838431630469428,"95":0.04900506981909462,"96":0.016198920223825578,"97":-0.007234799996456769,"98":0.017280640416943164,"99":0.04091713806460721,"100":-0.002281073278837743,"101":0.04508609926079054,"102":-0.022625829694473115,"103":0.03827302751618379,"104":0.024795544026364833,"105":-0.09945840258856127,"106":-0.04854302880892079,"107":0.09899850669119269,"108":-0.041572146878684324,"109":-0.018678172497863705,"110":0.10431029735264839,"111":-0.04221063830052582,"112":-0.001696253538244715,"113":0.06980569853090593,"114":-0.029634746747571078,"115":-0.016863238583695272,"116":-0.05269000396428052,"117":-0.002201250843667882,"118":0.03921686779449797,"119":0.010145346519532838,"120":0.010538068106830377,"121":-0.00423545060257423,"122":-0.022269281145160785,"123":-0.01671362583514947,"124":-0.014308294360825875,"125":-0.10274257859994516,"126":-0.021243203300884493,"127":-0.084625080728042,"128":0.006044137762374953,"129":0.02349913066999889,"130":-0.0128316513628643,"131":0.0011471933008727654,"132":-0.01850281246245942,"133":-0.04773562971083509,"134":0.04364014849430218,"135":-0.051628884902377443,"136":-0.00894356630779231,"137":-0.06811757061620714,"138":-0.009614923805103657,"139":-0.017107547319202995,"140":-0.02272779827149984,"141":-0.0071914634465497125,"142":-0.03060664494040691,"143":-0.021966314761962844,"144":-0.05057877690105659,"145":-0.03765381781188148,"146":-0.030559388489710636,"147":-0.02686338587947705,"148":-0.028124169913439592,"149":-0.03707562105206605,"150":0.026119104151980904,"151":-0.0187801716051738,"152":0.024293105338068274,"153":0.029039892508042495,"154":-0.03582032498933497,"155":-0.025202279365685663,"156":-0.028793914067520483,"157":-0.03362936513478804,"158":0.015063973657302531,"159":0.01238937154254207,"160":-0.016907227718685885,"161":-0.0026309951229130644,"162":-0.00445631154256032,"163":-0.027098744432969654,"164":-0.003943744281048671,"165":-0.02534163147268116,"166":-0.033821927369750246,"167":-0.024767910940943532,"168":0.017727932623146963,"169":0.008853268979667494,"170":-0.0065491579753285244,"171":-0.00109927088277651,"172":-0.0028507051997413097,"173":-0.011251703540716562,"174":-0.0008369320674213495,"175":-0.0049687057943705966,"176":-0.016459338762779347,"177":-0.02289131653457083,"178":-0.01765356296890474,"179":-0.005679389667187669,"180":-0.0029246782027832294,"181":-0.003948788993948629,"182":-0.006328815344184241,"183":-0.0010696049508810224,"184":0.008326545205363465,"185":-0.004848551451412228,"186":-0.012835298204738927,"187":-0.009810003969425073,"188":-0.0026269530411819585,"189":-0.004591041435198906,"190":-0.004877750441001452,"191":-0.006581968327604377,"192":-0.012444644664674277,"193":0.0028060484361327365,"194":0.0026202748235895443,"195":-0.021819475925122934,"196":-0.009731092896960216,"197":0.003736205982704553,"198":-0.001276022571148315,"199":-0.010878671073205639,"200":-0.019766270401995696,"201":-0.0024280991980447104,"202":0.04243407418546674,"203":-0.009641562968596036,"204":-0.0034384272559856758,"205":0.004553980571116495,"206":0.005290763482701149,"207":-0.02910936951456863,"208":-0.0090925169983616,"209":-0.011811373700040312,"210":-0.0076917850340837675,"211":-0.0003334587454602404,"212":0.0015738623736101876,"213":-0.0054461947793138996,"214":0.00019987265257746472,"215":-0.002616242760531486,"216":-0.005010438879081507,"217":-0.011448214180914193,"218":-0.009582799163815292,"219":-0.00614929889435627,"220":0.00026106967396405254,"221":-0.00013008039635282917,"222":-0.0008970637741972139,"223":-0.0012988254850528477,"224":-0.0008305631561547756,"225":-0.0004128241475455265,"226":-0.0030141645834413497,"227":-0.0035446786230111313,"228":-0.0019026665701919107,"229":-0.0021942597857796805,"230":-0.0000214165552305595,"231":-0.002769485813083741,"232":-0.0017541279958610567,"233":-0.0006548307436416755,"234":-0.006884805241942769,"235":-0.0009758716912386414,"236":-0.002622492404594721,"237":-0.006690153640722744,"238":-0.000257248948842008,"239":0.00039577414280618744,"240":-0.0029779574513124083,"241":-0.005440772308559724,"242":-0.004097915625723307,"243":-0.003402544775468889,"244":-0.015689334717228567,"245":-0.000719717833704471,"246":-0.0062785799786676776,"247":-0.014163586689543609,"248":-0.0016104420062752107,"249":-0.003491328527095308}},{"sx":5,"sy":5,"depth":10,"w":{"0":0.0389741458600401,"1":0.014829592303887688,"2":0.0049438573142254714,"3":0.053917695454057404,"4":0.05181592761706938,"5":-0.013473902331594201,"6":-0.04579057828009819,"7":-0.00838949983777324,"8":-0.045943099792794956,"9":-0.0785763816573,"10":0.021874058152591212,"11":-0.0785863708085136,"12":0.007039000971248981,"13":0.0301207654855704,"14":-0.008240479007052293,"15":-0.12262861503593896,"16":-0.014896236717921115,"17":0.04144302391375902,"18":-0.013041261357604004,"19":-0.0758826701066372,"20":-0.008605774373272826,"21":-0.016422180895460055,"22":0.01627438527487803,"23":0.01706692643079256,"24":0.0341904842975324,"25":0.0016531562511515442,"26":0.03402422809849301,"27":-0.05743250183422263,"28":0.024597151948876225,"29":0.049007196284255095,"30":-0.008720786007823184,"31":-0.07371254313082597,"32":-0.10738518410376295,"33":0.14585343534228118,"34":-0.05228134867259341,"35":-0.01968427994170104,"36":0.10924422015237387,"37":0.003991375653811667,"38":-0.047834262064079855,"39":0.007373906333595053,"40":0.008807768361020448,"41":0.02824547639741922,"42":-0.04004107515169942,"43":-0.04431775013276511,"44":0.0002162952573784302,"45":-0.0018664760898303065,"46":0.006224905392267566,"47":0.016521936779088323,"48":-0.05532168317668743,"49":-0.0027719263922161997,"50":0.11662386939795237,"51":0.08907605683314888,"52":-0.03753144698102622,"53":0.10524491899485958,"54":0.016661469249033188,"55":-0.0229096341259938,"56":0.004323510064529963,"57":-0.03443212124991428,"58":0.014771214245720301,"59":-0.008809900999996336,"60":-0.004930017452671861,"61":-0.03178184132912002,"62":0.042368213479065386,"63":-0.06410999892680169,"64":-0.0033677981254460992,"65":0.05104151957174931,"66":0.02856108302485844,"67":-0.06188331626277632,"68":0.0057321435493121655,"69":-0.002018056114915822,"70":0.057706389175350134,"71":0.06789211595089549,"72":-0.009347901231500042,"73":0.08142590986716268,"74":0.06601623133736552,"75":-0.0883689884397225,"76":0.012035039198912604,"77":0.016290702650036442,"78":0.02917751009311445,"79":-0.05635057968350368,"80":0.03264024633313004,"81":-0.022286139579856694,"82":0.049063033963972866,"83":0.04465072671035533,"84":0.049164818583959484,"85":0.002193968666079509,"86":-0.09475362367400299,"87":-0.0061418551182239114,"88":-0.04983505416974705,"89":0.013946427644166454,"90":0.08533101869697587,"91":-0.05222875498169347,"92":-0.051127972394766956,"93":0.0037348748546819606,"94":-0.030325055117825118,"95":-0.11666768255014992,"96":0.003889638529236146,"97":0.01157393217217025,"98":0.05719432668837219,"99":-0.026133311931488074,"100":-0.002603268251685729,"101":-0.0459048258205122,"102":-0.05619703362424411,"103":0.0020138768944994077,"104":-0.07459382618375428,"105":0.043897716893544915,"106":0.06724777987094341,"107":0.0020845756766416433,"108":0.05190864266374399,"109":-0.060114673160647995,"110":0.06227074305773139,"111":-0.02862746947652347,"112":0.004764743029152005,"113":-0.03855987963146149,"114":-0.12812076347467197,"115":-0.04985444360244106,"116":0.06716298760309505,"117":-0.10988333138615915,"118":0.044906233007920265,"119":-0.02167145425056047,"120":-0.002028188128996686,"121":-0.007208469882820549,"122":-0.07026997475764356,"123":-0.003389302158306396,"124":0.05434221139304431,"125":-0.19699407354225637,"126":-0.03144175726739375,"127":-0.04862686280453452,"128":0.007255317327743972,"129":0.10444468175855588,"130":-0.04978944402120017,"131":0.018688082157450294,"132":-0.024474038281086633,"133":0.049693283505922434,"134":0.04780032315374719,"135":0.026965149487167016,"136":-0.10373398151002607,"137":-0.03414205357297152,"138":-0.03660937533456866,"139":0.003326661780134165,"140":0.04087857201282913,"141":0.09011362927213588,"142":0.10370450591242042,"143":-0.042983912164696235,"144":0.0160208900707245,"145":0.004826864241103991,"146":-0.051232832767771984,"147":-0.06010484659854538,"148":-0.03844710926588079,"149":0.03892177745713416,"150":0.09816613917447894,"151":0.004896103298376531,"152":0.03913721550355776,"153":0.022253487406899003,"154":-0.01011228354945548,"155":0.030728269471568013,"156":0.00483709270748046,"157":-0.11248404652011527,"158":0.02616895772398748,"159":0.006994052735413415,"160":0.015980017978521766,"161":0.07286864418138228,"162":-0.005201020684930994,"163":0.05840291040751522,"164":-0.11116403151675322,"165":-0.037468223653306626,"166":0.07434309480515358,"167":-0.021180594044040456,"168":-0.01965453592577425,"169":-0.026251934135690165,"170":-0.0012799943368214759,"171":0.1051057578280375,"172":0.03768041781789763,"173":0.005178769344221254,"174":0.030280141050768424,"175":0.07795523712261732,"176":-0.04725992864773414,"177":0.007301303549053068,"178":-0.05291236188675846,"179":0.10889729123301048,"180":0.03248024885099358,"181":0.026663531407871113,"182":-0.04593966070131082,"183":-0.07207244851682006,"184":-0.08061750800964942,"185":-0.007471861582568943,"186":0.1468177772008421,"187":0.03715638130633626,"188":0.04454245450688794,"189":-0.010731674310372806,"190":0.03241656117389442,"191":-0.023050237068014654,"192":0.05076239178946105,"193":0.011143881291771513,"194":0.08327386946123694,"195":0.04622577123230714,"196":0.0037638419555311962,"197":0.0347448004310753,"198":0.08105708769438011,"199":-0.017144617030687852,"200":0.07257179998579043,"201":0.028392798895400827,"202":0.0004628491949872456,"203":0.11014164505940471,"204":-0.009921538156976304,"205":-0.0513205980107295,"206":-0.08612083043737379,"207":-0.009647207551880276,"208":-0.02351024974093213,"209":0.06759296065556496,"210":0.0027061864884357968,"211":0.029529911878870007,"212":0.127263532472056,"213":-0.016086291892400954,"214":0.011813535620397051,"215":-0.0872845149043605,"216":0.03969723459656836,"217":0.0014455071139561186,"218":-0.0496433441001071,"219":-0.02002678639741457,"220":-0.02860037603961458,"221":0.06148521189199851,"222":-0.08307791122488987,"223":0.006305066570043079,"224":0.002825851731619636,"225":0.005226558884388984,"226":0.03602743160957631,"227":-0.01446472790299621,"228":-0.03844939232105881,"229":-0.07437113703893942,"230":0.08425046225989977,"231":-0.000874845152281116,"232":-0.024063455849550674,"233":0.008684849351470703,"234":-0.058169144108205104,"235":-0.04669670536960089,"236":0.028756331304968217,"237":-0.025096477267180995,"238":0.03833832556987444,"239":-0.10364866794208781,"240":0.06780359428436006,"241":0.038842149029003556,"242":-0.03636450015083424,"243":0.006930391367772742,"244":0.009549246091566805,"245":-0.05832170248313584,"246":-0.0819931660928415,"247":-0.0349972023350367,"248":0.03401626158451348,"249":-0.02823391125852669}},{"sx":5,"sy":5,"depth":10,"w":{"0":0.009231559244706956,"1":-0.01886920866077919,"2":0.013425099937373241,"3":-0.08073185629367263,"4":0.021216440523312383,"5":-0.020871589298670015,"6":-0.00293801558753113,"7":0.06599264126715622,"8":-0.004953477496508412,"9":0.013779322010555737,"10":0.06260172109010541,"11":0.02537057518335189,"12":0.005777448553554074,"13":-0.04083013393788506,"14":0.0213750068596726,"15":-0.03059417560244067,"16":-0.06550545667630857,"17":0.04809210913237589,"18":-0.04946823037146566,"19":-0.010830357484419802,"20":-0.03253972477741133,"21":-0.01296321269039496,"22":-0.054780871069619465,"23":-0.08602379276740768,"24":0.009312990787791546,"25":0.02971837816449058,"26":-0.056447094490299804,"27":-0.013273150553528576,"28":0.07188232821143159,"29":-0.029379492897026495,"30":0.010339566067623134,"31":-0.011687632986463138,"32":-0.05331015392356755,"33":-0.03545882760791403,"34":-0.02412477330853681,"35":-0.09515097906289775,"36":-0.019384216818589848,"37":0.03078231750594699,"38":-0.05760210839509324,"39":-0.035172232612709554,"40":-0.0034293375707735137,"41":-0.06296796898476438,"42":-0.0631165747214757,"43":-0.012464729079546363,"44":-0.005282683656152368,"45":0.01819798394047684,"46":-0.03489365478381058,"47":0.012525862959694815,"48":-0.013766592312528959,"49":-0.06816598223971895,"50":0.005107437175572088,"51":0.06637726143497483,"52":0.054021682853553465,"53":0.022899457997573976,"54":0.07640480649629229,"55":0.014596681209731583,"56":-0.07258014774370024,"57":0.040717806968183425,"58":0.04225976695597167,"59":0.019612642712630655,"60":-0.00427864298585736,"61":0.05305283206926076,"62":-0.023328325010281287,"63":0.030279306023433195,"64":-0.0047016149742092365,"65":0.05410417806680493,"66":-0.019755679240840415,"67":0.08567733013200027,"68":0.0061896187986547465,"69":0.019340978787896125,"70":0.04202768740579242,"71":-0.002696480227762556,"72":0.049666196175998205,"73":0.05477694373184229,"74":0.02255194156528155,"75":-0.12058437344076815,"76":0.025855499721923903,"77":-0.027742902996533515,"78":-0.010988392373073393,"79":-0.07117630078150806,"80":-0.0016018856295261254,"81":0.008533669470859779,"82":-0.062235190406164355,"83":-0.08083354897866989,"84":0.04145049751823002,"85":-0.09576555313655642,"86":0.04935090603251206,"87":-0.015067393095970057,"88":0.04387325766370102,"89":0.07385216071911828,"90":0.015866823938681794,"91":0.036030757660280605,"92":0.06584916847451518,"93":0.07906008671056565,"94":0.02777571804864531,"95":0.054714144663777574,"96":0.03739978522642966,"97":0.06120476033415881,"98":-0.012052597587735617,"99":0.04064300102286431,"100":0.0503750105336271,"101":0.10070802157288045,"102":0.042684197017083085,"103":-0.0817799419547038,"104":0.011584772290465527,"105":0.02115457089463123,"106":-0.07082149252314038,"107":0.008751808827427132,"108":-0.04827216250766903,"109":0.016749639536488073,"110":-0.007670536567984199,"111":-0.015029322592038947,"112":0.007273143387081314,"113":0.034579569650727726,"114":-0.056722022050356036,"115":-0.006434503518672286,"116":-0.027363009874948538,"117":0.011848126153115998,"118":0.07333099147108911,"119":-0.08898546842238912,"120":-0.013191158454485048,"121":0.03594489088196895,"122":-0.027348109173613615,"123":-0.05823255780607831,"124":-0.10578339939514413,"125":-0.05218089686145468,"126":-0.01898448320082567,"127":0.05397338598211841,"128":-0.01583744959062186,"129":0.017403085581619335,"130":0.004706909317448507,"131":0.07942003513282188,"132":-0.0939489201828517,"133":-0.051322867865158044,"134":0.002033288900363342,"135":-0.030935453218605403,"136":-0.012940215233627128,"137":0.004962653115553638,"138":-0.021274421719188374,"139":0.0006242640449034785,"140":0.023095682183308385,"141":0.04108333128461577,"142":0.01906091786866265,"143":0.01151243215424395,"144":0.012342430194704991,"145":0.09903995264325258,"146":0.03550331378125668,"147":0.03532048118701157,"148":-0.04965377140384925,"149":-0.037820836101062044,"150":-0.018345651219918168,"151":-0.014106317752875174,"152":0.008611715569767388,"153":-0.03319859577264741,"154":0.027962129774805708,"155":0.051546883195965176,"156":0.00702241930295903,"157":0.1483209887535832,"158":0.06047183735536191,"159":-0.06735156364519858,"160":-0.030298950589477795,"161":0.026414347550801354,"162":-0.038367579038423374,"163":-0.022896386080523915,"164":-0.054040938730482935,"165":0.043806002851587464,"166":0.0033648330630786857,"167":-0.05143429785024951,"168":0.07910792613088448,"169":-0.01540334610126145,"170":-0.002507351926254694,"171":-0.03498657500413142,"172":-0.10422232388870915,"173":0.02803396668056464,"174":-0.044404456288645366,"175":-0.04122239708943016,"176":-0.040202798417755696,"177":-0.10650925404151117,"178":-0.04064968849425825,"179":-0.08933359110226864,"180":-0.0007701795774014235,"181":-0.062183907635048406,"182":0.02363001733971988,"183":-0.021122365571837016,"184":0.02761007769368587,"185":-0.04808022597154856,"186":0.013144604853086907,"187":0.10970705460412727,"188":0.06073855473090951,"189":0.03876585486483257,"190":-0.010703184101164252,"191":-0.11264585339631912,"192":0.05506842070697689,"193":-0.038641175019916485,"194":-0.13831210691910567,"195":-0.1001621722864309,"196":-0.04833625061854558,"197":-0.02023989991050244,"198":-0.058903619779850855,"199":-0.01706037359410854,"200":0.01834124869492572,"201":-0.047450781853334185,"202":-0.12878791777106874,"203":0.062315342698617736,"204":-0.028230040571357598,"205":0.004501116100734618,"206":-0.0703731383101085,"207":-0.011478355355022956,"208":-0.005667264669085638,"209":0.007783407806451314,"210":-0.06301602366034494,"211":0.00734479375459631,"212":0.013579828406619447,"213":0.05120975484347557,"214":-0.0013214126623272374,"215":0.16975327877887628,"216":0.08526797592587222,"217":0.05513990796174787,"218":-0.04180134040407304,"219":-0.04178797306233484,"220":0.012582290331330452,"221":-0.024568599838153633,"222":-0.03126841469908814,"223":0.051251270311249666,"224":0.030566707851312228,"225":0.013569632258009136,"226":-0.036167268675419084,"227":-0.04453730394181835,"228":-0.04415430979590431,"229":0.0636224435576133,"230":-0.0389557835816374,"231":-0.004299921584921613,"232":-0.060983466791209924,"233":-0.02542244370830201,"234":-0.04623276584099547,"235":0.006599356877904651,"236":0.03978192375683516,"237":0.017605174416956745,"238":0.05229329640422302,"239":-0.09168115477130485,"240":-0.029141099258574436,"241":-0.018038578337556756,"242":0.03738181259781379,"243":0.011021513144723312,"244":-0.06154784515383826,"245":0.08336338658152766,"246":0.10704677677972768,"247":-0.01868000785697652,"248":0.08742104603271177,"249":0.002843146025344542}},{"sx":5,"sy":5,"depth":10,"w":{"0":0.011006772508813874,"1":-0.004923855653540941,"2":0.01444131674195544,"3":-0.05168075009496688,"4":-0.07651816071199341,"5":-0.01327263987611649,"6":0.06931961290377625,"7":-0.032981378488926766,"8":0.005490082756895174,"9":0.022474697091940058,"10":-0.004936253880194107,"11":0.04584252917030573,"12":0.011640524629389422,"13":0.1143608927035107,"14":-0.19260705433377745,"15":0.03705080866521992,"16":0.03772173800522991,"17":-0.08859420836323362,"18":0.020046684514868213,"19":0.005322243977963385,"20":-0.005383465933761614,"21":-0.07795338439938222,"22":0.06945415582225097,"23":0.07599935487927602,"24":0.032148418376234895,"25":-0.0056224725709807305,"26":0.16069441698547193,"27":0.01435605011773809,"28":0.04619008403205627,"29":0.022777535909065907,"30":-0.016550937972195548,"31":-0.04349238857320908,"32":0.03830117652155121,"33":-0.01722262326312683,"34":-0.03275387289212325,"35":-0.037491488348386316,"36":-0.057234856870269225,"37":-0.04709039687879422,"38":0.014579545251090575,"39":0.0914493893535542,"40":-0.015364099181440391,"41":-0.030951666233211158,"42":0.10702001690909164,"43":-0.021405049861764277,"44":0.0325888569591264,"45":-0.09402271309179226,"46":-0.03570722579366866,"47":-0.03998349692485306,"48":0.03367904467951948,"49":0.01296582217383433,"50":0.025779683981955598,"51":-0.07660497099268651,"52":-0.04485124512331294,"53":-0.06788195002486615,"54":0.03984536501338109,"55":-0.028322232987821543,"56":-0.07204105915083131,"57":0.0045321491804190695,"58":-0.021381300511438994,"59":0.02468620117397898,"60":0.05430815295077132,"61":-0.004201310168017546,"62":-0.07612327087730818,"63":0.05178957943710275,"64":-0.0018997157298977772,"65":-0.006957041532972435,"66":-0.06765815039607273,"67":0.014873580328159977,"68":-0.038875220868687804,"69":-0.03336593391388933,"70":0.013712232454258566,"71":-0.07239951027035953,"72":0.06619185022488444,"73":0.023595420632731956,"74":-0.013262971652701627,"75":0.07827367844157063,"76":-0.10183694779060153,"77":-0.08205438879975505,"78":-0.02966757553676089,"79":0.10093276360264125,"80":0.040123157606960135,"81":-0.07984823643816277,"82":-0.054162000686221526,"83":0.08552777212687065,"84":0.03720261618070085,"85":0.09927766441320678,"86":0.11152440393618733,"87":0.0013446864756794864,"88":0.0068734165527629025,"89":0.00976295258772708,"90":-0.09784585586279194,"91":0.011253927864144132,"92":-0.010915311743192296,"93":-0.00824783240192461,"94":-0.04394837685357811,"95":-0.06480668344889312,"96":0.09242672317764193,"97":0.006951836219155887,"98":0.04961577590608262,"99":-0.014916174383036954,"100":0.005038780898509361,"101":0.016392535663434092,"102":-0.01157651077920883,"103":-0.05021390698420192,"104":-0.008387225925787034,"105":-0.006130511431435821,"106":-0.04806870023286946,"107":-0.0494536524350855,"108":-0.007414307306122391,"109":-0.020773537092714355,"110":-0.008418864260623386,"111":0.0370390706413674,"112":0.004683795269286774,"113":-0.060380059582307,"114":0.08791881228492632,"115":-0.05500475910367089,"116":-0.028152864792448815,"117":0.017261830883284653,"118":-0.02644373210890642,"119":-0.015497955448745092,"120":0.08313244654977159,"121":-0.08733134921168778,"122":-0.02579994641090792,"123":-0.031818262782196995,"124":0.08230919178630637,"125":0.019521963427722028,"126":0.13784336347283233,"127":0.011459187138849717,"128":-0.0663429807326775,"129":0.02213021701410678,"130":0.10054131308214563,"131":-0.018566156466557057,"132":0.044569636278696846,"133":-0.03853214266697692,"134":0.0005451021187574327,"135":0.015965891986131846,"136":-0.1024183776852813,"137":-0.05982059609095039,"138":0.013845829672250794,"139":-0.04853831202307914,"140":-0.0022910595332855973,"141":-0.02412780706589051,"142":0.002431248799520257,"143":0.02966526819655289,"144":-0.02320528528583318,"145":0.01929279271617991,"146":-0.021322592774910595,"147":0.061808432769456,"148":0.08406104436564728,"149":-0.044722045074334416,"150":-0.00146748893797614,"151":0.016898152840506008,"152":-0.05287209670170435,"153":-0.0013715869440580645,"154":0.06045945081569527,"155":-0.04812751595668061,"156":-0.01103667016847733,"157":0.001509480575745266,"158":0.005036972529628848,"159":-0.022826386758559303,"160":0.018254983911080352,"161":-0.012406726026827486,"162":-0.07315617988276035,"163":-0.0465029374432891,"164":0.06871314455958717,"165":-0.044548035194675976,"166":-0.09637780913232895,"167":-0.006137491569038989,"168":0.0385574257979825,"169":-0.022849240430045277,"170":0.0713101808729466,"171":0.0026655411829222177,"172":0.004267644678324274,"173":0.02784883978080147,"174":-0.05218999152954969,"175":-0.11530457675540813,"176":0.01238508755273238,"177":-0.10297134727541019,"178":-0.016373809718755964,"179":-0.02533106529463021,"180":0.01584167302620122,"181":-0.03304233561298503,"182":-0.020257135764825587,"183":0.03333204450801398,"184":-0.0587869402592535,"185":-0.09704601902843098,"186":-0.03113412463017744,"187":-0.005199398254136358,"188":-0.005589802366470308,"189":0.007186260341005929,"190":0.03311602675648838,"191":-0.03993208525074142,"192":0.006499805878590161,"193":0.02584565356408221,"194":-0.011179330367775733,"195":-0.02028144033500405,"196":-0.10665069747647986,"197":0.07710443802964521,"198":-0.04675855609787298,"199":-0.0029183405338221624,"200":-0.009037439918171937,"201":-0.04892443368119441,"202":0.010097760394689815,"203":0.01938042628328077,"204":-0.009359940102788905,"205":0.12567276203876065,"206":-0.006616143021979943,"207":-0.057562869377833274,"208":-0.0364034972752671,"209":0.02076877858103127,"210":-0.01746082367873843,"211":0.010260147322043554,"212":0.05466399924679904,"213":-0.017138156511987176,"214":0.045293297261532695,"215":0.03419263476014253,"216":0.041482138440230555,"217":-0.05368571881740478,"218":0.033662727030653435,"219":-0.005615999458936769,"220":-0.1037174288427154,"221":-0.014287669109872482,"222":0.010196544521692831,"223":0.015351271540639061,"224":-0.03243344869905411,"225":-0.1104358374478806,"226":-0.028373069680702735,"227":-0.006273961969957601,"228":-0.07167463586011609,"229":0.026859539894813603,"230":-0.011068354862762577,"231":-0.0027583819711035013,"232":0.0030219619338783866,"233":0.02560558456239699,"234":-0.004239555750290641,"235":0.06266532874458479,"236":0.025182887261356014,"237":-0.0386859431988623,"238":0.06478258773422806,"239":-0.031619345253005596,"240":0.0026125381030652718,"241":0.006485629886732665,"242":-0.0396619163645639,"243":0.0235793084375101,"244":-0.03539563258622893,"245":-0.037454185078196485,"246":0.04282387246003767,"247":-0.023291852914126093,"248":0.025293991846891937,"249":-0.00582380441917368}},{"sx":5,"sy":5,"depth":10,"w":{"0":0.03310327494875436,"1":0.00952572810189319,"2":-0.02526226914323008,"3":-0.009665698045257489,"4":-0.10921259063730655,"5":-0.009694143932767739,"6":0.09981754155585981,"7":-0.11171224473952711,"8":-0.009401027408427371,"9":0.011775299185853343,"10":0.00414177970978021,"11":0.07173232574201788,"12":-0.005369235198429395,"13":-0.029966414774274554,"14":0.06393326367055557,"15":-0.09262091900545558,"16":-0.06200909797350772,"17":0.08131398608470537,"18":0.06266398266346221,"19":-0.05907475538788706,"20":0.02334537022061083,"21":0.07537052214715383,"22":0.12920694713953695,"23":0.02872905608348712,"24":-0.01414362787751174,"25":-0.06365978884454966,"26":-0.0009153346682073898,"27":0.05413133879355559,"28":0.08574407161930657,"29":0.001089249924690711,"30":0.012707453283500198,"31":-0.010827388234936194,"32":0.032692552248358216,"33":0.03278320512000628,"34":-0.04252418856367092,"35":0.0003727640221484914,"36":-0.0695328040079327,"37":-0.020426929938956236,"38":-0.004864811970019637,"39":0.009323766197446523,"40":-0.013764426434180311,"41":0.0007664336579815103,"42":-0.0583301987417941,"43":0.024893142382832332,"44":0.006845812209542045,"45":-0.05729583602685607,"46":-0.0916784780726909,"47":-0.04291363036799028,"48":-0.004604899496382501,"49":-0.028258198841377518,"50":0.05328201423609284,"51":0.06165245116114477,"52":0.0900871348169551,"53":0.03678793347790016,"54":-0.03704521490716848,"55":-0.03960439106884473,"56":-0.020846388505950313,"57":-0.047146236684153846,"58":0.06270820993122285,"59":-0.07652963978904025,"60":0.012780990284914398,"61":0.043164177071639824,"62":-0.046839299541308485,"63":0.02953195587302193,"64":0.07675329301547498,"65":-0.004549413435718756,"66":-0.08021068108737514,"67":0.085303730829491,"68":-0.03141103239379051,"69":0.03355214559204298,"70":0.011038602964491133,"71":0.03249822820589727,"72":0.07281773808231094,"73":-0.012844625261784738,"74":0.011489309119251811,"75":0.030297662289432672,"76":-0.039059249006391794,"77":0.03167902812635463,"78":0.002826226203807183,"79":0.08028276503637272,"80":-0.02331481198049719,"81":0.0019003953775715465,"82":0.10742255377785785,"83":-0.024188563875484105,"84":-0.02687088083922491,"85":0.039993380787484344,"86":-0.01932775530087587,"87":-0.05287723726789888,"88":0.0006671627670386607,"89":-0.11012417900642961,"90":-0.00724541322895203,"91":0.08864351772017827,"92":-0.12801645452215718,"93":-0.04511185147135184,"94":0.0502325007810199,"95":-0.06026042822270907,"96":0.011647421753454314,"97":0.0004590213223499642,"98":0.047116342805407746,"99":-0.01032034000670954,"100":-0.025014288246062392,"101":0.0413380000585674,"102":-0.03819684997175915,"103":0.08351475124188332,"104":-0.021534154807044886,"105":-0.10353471116603617,"106":-0.008774591948037813,"107":-0.036839701434609275,"108":0.0019022094646919052,"109":0.14512188925330868,"110":-0.008240254913761692,"111":0.022313360788083162,"112":0.11178180575800767,"113":0.022847643376484445,"114":-0.04580562072588306,"115":0.09293326202680254,"116":0.013435261135112089,"117":0.040958219725525255,"118":0.006767629902240071,"119":0.049773637484340064,"120":-0.04612190373498462,"121":0.019720076421934296,"122":0.0738251505101743,"123":-0.05450754985616256,"124":-0.051047033529187394,"125":-0.010481947090593495,"126":-0.009427657954103748,"127":0.03761505104443621,"128":-0.11110698114613478,"129":-0.06049793639506397,"130":-0.06806354316342293,"131":-0.0016425075028042443,"132":-0.009417986894001184,"133":-0.10861024697845655,"134":-0.007425093175281755,"135":0.06896721459889801,"136":-0.05853124989352897,"137":-0.02525076796161654,"138":-0.030517002903265523,"139":-0.055234670671724426,"140":-0.002933903780093541,"141":-0.06752027747807003,"142":0.024655867166985902,"143":0.08573855206978244,"144":-0.05470110448095742,"145":0.031248595593514294,"146":0.037010248163102374,"147":-0.05210176553687214,"148":0.0050850818893044035,"149":-0.054692278842060855,"150":0.021154353211265083,"151":-0.013261268173141733,"152":0.0759579233555031,"153":-0.0020343438574766943,"154":-0.03994756968524316,"155":0.12047289556805904,"156":-0.00045654938633916215,"157":-0.024941696590766838,"158":-0.03458200063200758,"159":0.12305307993090399,"160":0.02921984662322338,"161":0.013509641583932495,"162":-0.03388955636932997,"163":-0.10182626250877093,"164":0.04681025581780477,"165":0.14458565560659203,"166":-0.07442391407906819,"167":0.01146618533951716,"168":0.011927967525133228,"169":0.01511249068474384,"170":0.08396830742260467,"171":0.0034943925655190563,"172":0.025011031862198455,"173":-0.048187569911678906,"174":-0.05289594678566495,"175":0.027330875011528553,"176":0.02863515241056018,"177":0.007030671072413835,"178":0.005320680283443112,"179":0.012051325746830063,"180":0.021112749063497718,"181":0.02859318120200962,"182":-0.03270483549733777,"183":0.015141975485471287,"184":0.017903555500587233,"185":0.0658714523516116,"186":0.01980795391733563,"187":-0.043004159770740555,"188":0.05436706534382084,"189":-0.01393176808820082,"190":0.01610401169247216,"191":-0.024152239547799492,"192":-0.06529795128633421,"193":0.11438025391617034,"194":0.09863489596960182,"195":-0.03964188929241626,"196":-0.026713267017052025,"197":-0.16234019606497674,"198":-0.06797847369539123,"199":0.06720022164489504,"200":-0.030836328655922098,"201":0.0013832392670426734,"202":0.007859938232109065,"203":-0.04800602014320522,"204":-0.03708817302375188,"205":0.027686607641502128,"206":-0.06564346676594021,"207":0.06368528208997978,"208":0.02592361613016871,"209":-0.004198045123997294,"210":0.05664546443745232,"211":0.0384043758418294,"212":0.03408483399960425,"213":-0.0059855147661638354,"214":0.02705326039593217,"215":-0.14103703773496515,"216":-0.11739552788518905,"217":0.12542753500051532,"218":-0.031570988676037984,"219":-0.01124032313655003,"220":0.09755113181862911,"221":-0.009681366944171559,"222":-0.0005932657467505695,"223":-0.10214051842654276,"224":-0.009610811769983872,"225":-0.1113729027705154,"226":-0.09441665624478725,"227":-0.02239529297516678,"228":-0.01763135290862156,"229":-0.06126202249519332,"230":-0.01005745660760708,"231":-0.0010477637760973265,"232":-0.05950660946725543,"233":0.05430119183713586,"234":0.101282887861075,"235":-0.04277529362382891,"236":-0.10943337781127707,"237":-0.013794234403793564,"238":-0.08260650611380464,"239":0.04906071927248839,"240":0.012394718019203891,"241":-0.02577139926208041,"242":-0.03680156471810432,"243":0.002327801165538351,"244":-0.012576143792354222,"245":-0.031444674941993954,"246":0.056225177170011825,"247":-0.021864431531952045,"248":0.009100194611146282,"249":0.051960533878019376}},{"sx":5,"sy":5,"depth":10,"w":{"0":-0.0013490814288397075,"1":-0.007569828662662441,"2":-0.017745660765668175,"3":-0.021404870248686515,"4":0.09407156603451763,"5":0.00743767470660073,"6":-0.15022667770262976,"7":0.014861885518451813,"8":-0.02098842745593423,"9":-0.05765281893834529,"10":0.02403296918589517,"11":0.04999647380318899,"12":-0.10027424196398767,"13":-0.03273556472688994,"14":0.03292925077165396,"15":-0.0029015813761378564,"16":-0.0010522331946537465,"17":0.003735833028549656,"18":-0.08478501555216866,"19":-0.035722569390768434,"20":-0.01841711880275356,"21":-0.005338247049134029,"22":0.009433283807640002,"23":-0.025682578064564813,"24":0.040279471822356305,"25":-0.024597803322529536,"26":0.00455385031565215,"27":-0.0278446270475042,"28":0.034330897862091286,"29":0.0016746657757212196,"30":0.02927953217038775,"31":-0.015443770101908953,"32":0.008355726989247981,"33":0.08054765885627599,"34":-0.043562193090395905,"35":0.0004318974274542331,"36":0.10588786729235714,"37":-0.03028207496595811,"38":-0.04545175586289871,"39":0.13568779629002778,"40":-0.022475545221661637,"41":0.06472428885942448,"42":0.046551533863064314,"43":0.0035336579926288497,"44":0.023552392191379494,"45":-0.03987187891056498,"46":0.001304867962059726,"47":-0.03380711365765155,"48":-0.04504491286009196,"49":0.029824878545786696,"50":0.009060092279574536,"51":-0.019410407536735223,"52":0.0042511656965630645,"53":0.09666724847190722,"54":0.029111755067941492,"55":0.005150226284636349,"56":-0.031452945193456164,"57":0.00021294642460344162,"58":0.02939043838981058,"59":-0.027356428380559874,"60":0.0055701301988078785,"61":0.09938964940682046,"62":-0.06459756257004672,"63":0.07080599123719472,"64":0.018121665730894364,"65":0.08220476792443991,"66":0.07060878265928805,"67":-0.07289916676100529,"68":0.09054487445908313,"69":0.002468645992626069,"70":0.11796754372975098,"71":-0.07231596167566172,"72":0.05877706418535267,"73":-0.053607035914522636,"74":-0.03381885010199192,"75":-0.05408100619099391,"76":-0.016845273423885913,"77":-0.01966578586488233,"78":0.0820558386994907,"79":0.014466261235960346,"80":0.0025845371795123655,"81":0.03413662667568306,"82":-0.1356273553705227,"83":0.03370473655948929,"84":0.11590802356776977,"85":-0.01150648124039079,"86":-0.10025541704888759,"87":-0.042047703826772594,"88":-0.037770273535368354,"89":0.02655550357336576,"90":-0.04123751363627547,"91":0.018190224135501743,"92":-0.05049714868037318,"93":0.14324271910115854,"94":0.014079453473950449,"95":-0.0816088683770754,"96":0.08792510126102959,"97":-0.05581922386858707,"98":0.10088108435890102,"99":-0.016794977346592556,"100":-0.0004545720219412734,"101":-0.018302918696492344,"102":-0.03098936932551853,"103":0.05789134858050254,"104":0.01906759934823745,"105":0.055200501685459105,"106":-0.008688025100378168,"107":-0.08631893201726157,"108":-0.05113183456502955,"109":-0.0020918773024329136,"110":0.011029383165165664,"111":0.023194183457477657,"112":0.010103100001291495,"113":-0.0991264259304541,"114":0.016031027739368924,"115":0.08518819796336168,"116":-0.016235199438714387,"117":-0.049261986299418074,"118":-0.011468732846089649,"119":-0.06173133181147314,"120":0.07475031608727983,"121":0.01600361351885813,"122":-0.030606147509540226,"123":-0.02169328045157988,"124":0.021513394557503493,"125":-0.022216361223916174,"126":-0.043115149723172354,"127":0.012680769869271427,"128":0.03815281973367517,"129":-0.016046246973726055,"130":0.028580676003723424,"131":-0.013033800845157036,"132":0.10398530389215184,"133":-0.04752777283175474,"134":-0.002272628136459978,"135":0.01807620750383805,"136":-0.08309779174433476,"137":-0.0363338985020523,"138":-0.11937872782149314,"139":-0.06521207880533524,"140":-0.020533016300270452,"141":-0.09025154822150742,"142":0.016431750389588957,"143":-0.02415031296115441,"144":0.0015407424712224323,"145":0.0030887325496708,"146":-0.10213704274024088,"147":-0.01088238165828108,"148":-0.005821618870222742,"149":0.015492669918243733,"150":0.025495419385032605,"151":-0.007278899311959622,"152":0.03373754775497926,"153":0.03521959622657736,"154":0.02341357039578598,"155":-0.06823667939404933,"156":-0.11321280544835498,"157":-0.04135012696481977,"158":-0.03856496001270725,"159":-0.026581358972938705,"160":0.016866339590201014,"161":-0.048445130828328305,"162":-0.07770787464548994,"163":0.016285053244123382,"164":-0.002351795881024878,"165":0.04797194687419344,"166":-0.04180212707808725,"167":0.04018658750761738,"168":0.023133699417592263,"169":-0.040136705603074425,"170":-0.011021328669347432,"171":0.02437657708464489,"172":-0.07455883559596078,"173":-0.03856636531802995,"174":-0.030985515369643373,"175":-0.07631397340393939,"176":-0.07914683578777368,"177":0.04581975850643388,"178":0.08040400188690024,"179":-0.03552688584070567,"180":0.015252219170047774,"181":-0.06905393534934864,"182":0.1100225770654482,"183":0.03640971926817927,"184":0.0020052450108225236,"185":-0.02501218297098697,"186":0.015928837858553875,"187":0.002489803941204935,"188":-0.005849366484417562,"189":0.024221436711973736,"190":-0.012696237068294392,"191":-0.07171599150932935,"192":-0.009018974836162303,"193":0.10602781396925602,"194":0.005113934263400968,"195":0.046262131659041535,"196":-0.06322340937079354,"197":0.0459145641370481,"198":-0.014150216077434212,"199":0.006976003708045607,"200":0.007166435502525606,"201":0.0394883756208231,"202":-0.04311096983389204,"203":0.034742682954024474,"204":-0.0743219409222104,"205":-0.002520059881122972,"206":-0.02444221274040125,"207":-0.010479799731592394,"208":0.03616069311680457,"209":-0.02227342696684682,"210":-0.06591537279810053,"211":0.07806022852437457,"212":-0.0533813160392907,"213":0.04492427333809182,"214":0.052337805674603805,"215":0.06777478956353965,"216":0.044023883694168285,"217":-0.008624540276189583,"218":0.03372748057766794,"219":0.038470878821584564,"220":0.014531740450364861,"221":0.048906382439099526,"222":0.003353303724239296,"223":0.018977165979122888,"224":-0.0438593384238081,"225":-0.012099872489627106,"226":-0.050374152154512616,"227":0.012646089960025446,"228":0.0686371961602912,"229":-0.01996145805557788,"230":0.01545475343055219,"231":-0.035875126346381125,"232":0.02276304801745918,"233":0.0493261092157746,"234":-0.02724320310869914,"235":0.07588509427077045,"236":-0.0035706716165318604,"237":-0.0938835582521684,"238":0.06360838784669713,"239":-0.03580532525575746,"240":-0.02627423198665958,"241":-0.06988337945638651,"242":-0.07787965977683181,"243":-0.03406068671320545,"244":0.09817618964806944,"245":-0.11859171863623968,"246":0.004565452658043442,"247":0.1419291356937214,"248":-0.01985762865655783,"249":-0.07731142383361354}},{"sx":5,"sy":5,"depth":10,"w":{"0":-0.06306366754373609,"1":0.1573655435158842,"2":0.11101259780500206,"3":0.14470712208470926,"4":0.08509779251192073,"5":-0.019459808376011443,"6":-0.08917705965012347,"7":0.08146763244694587,"8":0.0316694373668438,"9":-0.004439027031007541,"10":-0.010150422458405702,"11":0.1635728010413815,"12":0.09389564679867149,"13":-0.08819402856013722,"14":0.03310624346535068,"15":0.0815321732724289,"16":-0.05105183505590339,"17":0.00850684054175259,"18":0.08186295114871545,"19":-0.025453611881748103,"20":0.056315200996379815,"21":-0.06798247112747521,"22":0.045346599763436454,"23":0.06238941178196842,"24":0.024774305764166966,"25":0.06475761313997284,"26":0.07747660222827915,"27":0.13681902416989333,"28":0.005222155846342345,"29":0.09793095425682129,"30":-0.04388907280875774,"31":-0.032895117084846125,"32":0.028139217857576514,"33":-0.13267909873908781,"34":-0.06007457352957988,"35":0.048063523937483574,"36":-0.03905325553864941,"37":-0.044687917019512115,"38":-0.1380884095430732,"39":-0.07453473015074469,"40":0.014396054068987701,"41":-0.010544249565903432,"42":-0.057146932562052506,"43":-0.07945600826567557,"44":-0.02281464315894167,"45":-0.025940326171433707,"46":-0.0190682794272716,"47":-0.059397254133340606,"48":-0.029318779772485423,"49":-0.07163492733114159,"50":0.04432277970587254,"51":0.0228728053970445,"52":0.005823477660838108,"53":0.05933100661781262,"54":0.08871433038007426,"55":-0.04979791903163533,"56":-0.029657421725030473,"57":0.04442410388283392,"58":-0.07217210793199828,"59":0.057816156924631885,"60":0.03880412050306456,"61":0.09666015081741103,"62":-0.028714361033817953,"63":0.05743379648400668,"64":-0.0003290571405730866,"65":-0.0011849281823745057,"66":0.0636775215595191,"67":-0.04066238966227971,"68":0.0364187375222469,"69":0.04670122299238441,"70":0.06789143055785331,"71":-0.04024334926167467,"72":0.0843996151576967,"73":0.0600571556127869,"74":-0.019154779516226406,"75":0.06748002282283184,"76":0.029158946673657444,"77":-0.10567802505490617,"78":0.07468381048627229,"79":-0.006298032225319401,"80":-0.00671504699101166,"81":-0.035606002898075584,"82":0.07889101308282338,"83":0.021966926192670367,"84":-0.06200866303133786,"85":-0.0016230751760819,"86":-0.10120254972012782,"87":-0.07087633799206591,"88":-0.005608607448057923,"89":-0.02965679200999681,"90":0.00022152878089905508,"91":0.0005105726105651324,"92":0.02354485345372793,"93":0.024657918270626224,"94":-0.10141397773080897,"95":-0.05755354096853159,"96":-0.10192475726970282,"97":-0.04157147055523025,"98":0.017957587035723064,"99":-0.006266898926932318,"100":-0.07027830653847092,"101":0.02995123915149564,"102":-0.015431999914134535,"103":0.04811261662820551,"104":-0.06059527392944076,"105":-0.037251627287271445,"106":-0.0788941281579291,"107":-0.07342693678891682,"108":-0.026771280939871148,"109":-0.01799216322902446,"110":0.01857017304374212,"111":0.09567568453353843,"112":-0.012908823820696318,"113":0.005914128949876332,"114":0.01438268712938545,"115":-0.0005088498882521076,"116":0.019479310010464726,"117":0.03622114320547221,"118":-0.04269393241876085,"119":0.031140423741621306,"120":0.02164019462555912,"121":-0.01568376842669742,"122":-0.07924904025125319,"123":0.05397140420562193,"124":-0.0535864742883418,"125":0.09681527626434454,"126":0.06278237559732626,"127":-0.019060162911982623,"128":-0.0030620640535333984,"129":0.017606338030054285,"130":-0.06791369125748854,"131":0.015320302390373602,"132":-0.06525961328705186,"133":0.11446669981586316,"134":-0.02408557529742988,"135":-0.05272363170857448,"136":0.09533617924833934,"137":-0.14914288010642068,"138":-0.05547362736990845,"139":0.030382377036275703,"140":-0.02505969341785014,"141":-0.01697572079593809,"142":0.003973432427947632,"143":0.02167615402137988,"144":0.054386150556871446,"145":0.030029809091191132,"146":0.019770770186055324,"147":-0.06050531588553289,"148":-0.1375809909210294,"149":0.03665368208087411,"150":-0.047071677531995586,"151":0.01073771789204743,"152":0.012056257083331893,"153":-0.07627471987704401,"154":0.027309659781173636,"155":-0.05159137447148372,"156":-0.10511939815747039,"157":0.02285449906411513,"158":-0.054233110403331154,"159":-0.05780019447902103,"160":0.016999176920909013,"161":0.0013697475078503117,"162":-0.04945753650803359,"163":-0.013506612681407305,"164":0.0451774992693333,"165":-0.03525965884587595,"166":-0.04899268776513451,"167":0.126745986577888,"168":-0.06673585428177714,"169":-0.002914632278232209,"170":0.07112024791258348,"171":0.023988586421323944,"172":0.02350971228080601,"173":-0.016200148761451053,"174":0.09240635304131117,"175":0.006534566200318857,"176":-0.04097983205721684,"177":0.06975605842886244,"178":0.05532797676881687,"179":0.02396374999355274,"180":0.009680180997679779,"181":-0.054511749850242784,"182":0.016803137787508974,"183":0.14294882497741032,"184":0.11398585749316802,"185":0.05432358953038342,"186":0.03919440841531092,"187":-0.0728061948888445,"188":-0.007645772578104534,"189":-0.05605197827838252,"190":-0.05651958231648886,"191":-0.028702500046210465,"192":-0.05920084374478756,"193":-0.008006620711658896,"194":0.011056566730530334,"195":-0.09916710825834979,"196":0.1288893528329794,"197":0.07885233054833944,"198":-0.007996703074229538,"199":-0.09831240879857948,"200":0.010847592859110126,"201":0.03056442891294196,"202":0.17892336267205972,"203":-0.08079029797159881,"204":0.05327606847564036,"205":-0.0450684860603023,"206":-0.07753481141841115,"207":-0.09748564579814227,"208":-0.05154253667431406,"209":-0.0769463716017884,"210":0.10325901148131415,"211":-0.027283842580765556,"212":-0.07586059779702709,"213":0.002996095209689506,"214":0.04657485102120055,"215":0.055766828399152826,"216":-0.0645988827781961,"217":0.009900306296461929,"218":0.0206871426902507,"219":-0.0008174159771399718,"220":0.021251346937726907,"221":0.06430779874603226,"222":-0.05055896898995278,"223":0.029055102355088958,"224":-0.00904171684727195,"225":-0.018969547203964904,"226":-0.041512361225861875,"227":-0.012405098546173922,"228":0.042519291132082575,"229":-0.020812171578037237,"230":0.033143611666610756,"231":-0.025925909323337833,"232":0.025387347107784636,"233":0.16308048270838404,"234":-0.017161257996831457,"235":-0.004578515845003199,"236":0.10231490976526603,"237":0.055327332876296126,"238":-0.09206328561018409,"239":-0.057656103542059016,"240":0.02488312268467056,"241":-0.057929308407739986,"242":-0.00683459862946387,"243":-0.05388003719201454,"244":-0.09775673138074059,"245":-0.018732033276003267,"246":0.08164383606823046,"247":-0.12011631090297036,"248":-0.022516843576533645,"249":0.002371413414889539}},{"sx":5,"sy":5,"depth":10,"w":{"0":-0.0024106162421719977,"1":0.026276163601926906,"2":-0.031454556131652794,"3":-0.1117729333154284,"4":0.1055284402581307,"5":-0.07872452347035544,"6":-0.01728714042608721,"7":-0.029107655163584854,"8":-0.0615273223240679,"9":-0.07742626082771696,"10":0.009612720794856026,"11":-0.032484100256398925,"12":-0.07664653195847618,"13":-0.026181701610603337,"14":-0.045633972118423745,"15":0.030071353219664695,"16":0.021014952832626034,"17":-0.024589132248141892,"18":0.00022194054943325105,"19":-0.009192518101368096,"20":0.03613757335488239,"21":-0.013786210399085286,"22":0.032765640137389494,"23":-0.051666089625194346,"24":-0.028275564516221374,"25":0.05574715081818531,"26":-0.007165126725797677,"27":0.039244635053372966,"28":0.026923528461159123,"29":-0.05547317979905811,"30":0.03242728076146191,"31":-0.008751177492804673,"32":-0.043174135222885594,"33":0.03174598208823239,"34":-0.025465219258358346,"35":0.004522649632872115,"36":-0.008371169282688986,"37":0.021736040996316947,"38":-0.011156113997210707,"39":0.0005714366586939312,"40":-0.039581529805195366,"41":0.06854681254020081,"42":-0.06127478190232121,"43":-0.028898044782305395,"44":-0.02972577717629412,"45":0.03787868294316243,"46":0.07918161657222296,"47":-0.017309550922853204,"48":0.09387715689335695,"49":0.03324270890710903,"50":-0.005845692414594924,"51":-0.0344765495566445,"52":-0.0321795456070136,"53":0.04113115762342551,"54":0.05462994656305397,"55":-0.07106651223204055,"56":-0.010691703274019632,"57":-0.0851137426893117,"58":-0.07627337916690712,"59":0.02290183160431166,"60":0.02300420777775192,"61":-0.0109990971809504,"62":-0.022018718939493344,"63":-0.03132519649026167,"64":0.01619790657690445,"65":-0.05795533280591761,"66":-0.021733008367884766,"67":-0.07058496301738333,"68":0.016459713297804206,"69":-0.007076271587505082,"70":0.05179000779804591,"71":-0.027082558681195863,"72":0.009275592353179986,"73":-0.007782570703921114,"74":-0.05030013478143581,"75":-0.023267195158639762,"76":-0.007327450171485881,"77":-0.02902618202224233,"78":0.035042067575793846,"79":-0.002405603438153757,"80":0.05491524541290633,"81":0.01092743068353352,"82":-0.056957506962504914,"83":0.025848592173909314,"84":-0.02669495835380978,"85":-0.0553738082751326,"86":-0.021219725655356216,"87":0.049130406802857345,"88":0.0063393821943785655,"89":-0.0021488312412911753,"90":0.04794758167815812,"91":-0.012259702012700173,"92":0.01397328294805749,"93":-0.10833403668053647,"94":0.05312978785426716,"95":-0.12035445162359638,"96":0.018489459615747245,"97":-0.019072611451234307,"98":0.005254096116805823,"99":0.01925480910513233,"100":0.007402561023474464,"101":-0.10505421992241482,"102":-0.11344461841189052,"103":0.03317907433720261,"104":-0.015218282244958388,"105":-0.08325656195092328,"106":0.15291751022433442,"107":0.07224375871580616,"108":0.0030607099011169224,"109":-0.04791745893185012,"110":0.011923520308187118,"111":-0.035972104054212056,"112":0.018288586954144245,"113":0.0843188971234123,"114":0.04672259972525405,"115":0.01866243815251002,"116":-0.006339839965630681,"117":0.012706980653678987,"118":0.062160831843177604,"119":-0.05487633238178131,"120":-0.0026489515838996652,"121":-0.04537817139299359,"122":0.06828359410281484,"123":0.013344614735445308,"124":0.0370683117520661,"125":-0.03923258512945777,"126":-0.01429081919342269,"127":-0.07405252220695115,"128":0.0061966085627368165,"129":-0.04139817600726621,"130":-0.0005262611794162693,"131":0.04026612899416189,"132":0.0025389262775873038,"133":0.028770720149400263,"134":0.016035519283627304,"135":-0.1467769664949816,"136":-0.018471610224846446,"137":0.01584423601356817,"138":-0.0031165532631268937,"139":0.017364485641609227,"140":0.03993112527651494,"141":0.11995592035457378,"142":0.009380615070076155,"143":-0.03699491563096302,"144":0.04062437142932418,"145":0.018683349573366682,"146":0.04092477234583908,"147":-0.024798647502145308,"148":-0.0033475548121521324,"149":0.07421120922000653,"150":0.010014208425023818,"151":0.006999448079903591,"152":-0.08330846363377119,"153":0.03886645695237678,"154":-0.0671293166656358,"155":0.029053422795731778,"156":0.08454213898843686,"157":-0.13280372105208577,"158":-0.0014371412005803237,"159":-0.006129372793604169,"160":0.04229618625795526,"161":0.044975226178783655,"162":-0.0973613875652714,"163":-0.02298672830093846,"164":-0.0291237327085744,"165":0.03351970282662024,"166":0.11720838289955736,"167":0.02107684591343973,"168":-0.003940658562952758,"169":-0.07141343675903855,"170":-0.007406584676202547,"171":0.020576034119245027,"172":-0.10849476494716821,"173":-0.017420581956132563,"174":0.030068797864496677,"175":0.054421022528647355,"176":0.01685023809371713,"177":0.015564192021470902,"178":0.0168182023855581,"179":0.010241539898056104,"180":0.0011484861871767906,"181":-0.01178242601634708,"182":0.05041348571502461,"183":-0.0012641024458954781,"184":0.03292477302161255,"185":0.006770736507224501,"186":0.018058987362178886,"187":-0.060072454453315605,"188":-0.13951538430715024,"189":0.04595986791258023,"190":0.014972264604862676,"191":0.14528123053723627,"192":-0.016884520685711907,"193":-0.033692108875266184,"194":0.007633038314249228,"195":0.014218222977925857,"196":-0.0600795614060098,"197":0.057009649118740874,"198":0.06527265485141853,"199":0.0034146224210456623,"200":0.14632546441362693,"201":0.01857951830868479,"202":-0.028992087672374725,"203":-0.039986630785077054,"204":0.0653764805666723,"205":0.003541675764958539,"206":0.015140825300332752,"207":-0.03258889457616233,"208":0.01872847043735003,"209":-0.013973457970964479,"210":0.05489626867262218,"211":0.06640874577911672,"212":-0.005066248930821419,"213":-0.047915514734214786,"214":-0.10408650531944881,"215":-0.005708355228870037,"216":-0.14037946874506602,"217":0.014059579817383554,"218":0.02942191769332265,"219":0.014314947909599517,"220":0.0354142792834639,"221":0.0427491733602689,"222":0.008450048290675955,"223":0.017453063840299182,"224":-0.0932513065734573,"225":0.020221986818743255,"226":0.050147320216476166,"227":0.00889043904114075,"228":0.04092431515651689,"229":-0.07703975552467135,"230":0.02065536928692356,"231":0.02707974281757784,"232":0.06397095735378794,"233":-0.007707076326901972,"234":-0.024480003737289667,"235":-0.018773601453676486,"236":-0.007504357836346162,"237":0.034509715227894,"238":0.038657778756589246,"239":0.047467004501140914,"240":0.06885649472934634,"241":-0.04501634517435388,"242":0.013332806259609614,"243":0.12971000334748722,"244":0.029478583724403443,"245":0.046188658885030646,"246":-0.02867708827085624,"247":0.004879094620229475,"248":0.03832071756106564,"249":0.04037274321016887}},{"sx":5,"sy":5,"depth":10,"w":{"0":0.0008827178403304356,"1":-0.056856633553601856,"2":-0.035518087973322135,"3":-0.06334527366122468,"4":-0.007026378098244633,"5":-0.06535192156584116,"6":0.016491966943908053,"7":0.0018884589988004043,"8":-0.0031908537454378334,"9":0.0048347572885647895,"10":-0.0329943094453236,"11":0.06815727317698242,"12":0.00499120486357446,"13":0.009638385739270002,"14":0.0057766091168354365,"15":0.03977658168011603,"16":-0.017473898787949166,"17":-0.052665483590481454,"18":-0.012528939897670134,"19":0.07101986247782274,"20":0.016479383738264946,"21":0.08700258436548616,"22":-0.026288505583602042,"23":-0.022740049964306994,"24":0.060498217988926795,"25":0.08128656558635813,"26":0.022108755880316164,"27":0.05724682289877949,"28":0.01639869170795191,"29":0.05686600750107994,"30":0.03655621853957091,"31":-0.0878231945224243,"32":-0.017730286726890122,"33":0.015274206148619515,"34":-0.05579516772942366,"35":-0.028237756713371708,"36":0.005469715715191737,"37":0.01256696941704605,"38":0.06798207631175106,"39":0.09304198041939717,"40":0.060466422102896836,"41":-0.08779978446188282,"42":-0.00061766420393783,"43":-0.016557484170938355,"44":-0.05145829478729032,"45":-0.06717923813172187,"46":-0.029087807126565297,"47":-0.1419309481991422,"48":0.06638083364001436,"49":0.046750183529743465,"50":-0.030952437052746737,"51":0.008089024871212935,"52":-0.05314246214478746,"53":-0.03164511979424311,"54":-0.06220561264129361,"55":-0.07142347637672646,"56":0.13404485134347335,"57":-0.012325097680632715,"58":0.09296415513434392,"59":0.05480453632191857,"60":0.015940084979326075,"61":-0.0004441471657211615,"62":0.060978964161906006,"63":-0.011425296038453214,"64":0.07341744968940035,"65":0.012617292446081958,"66":0.08117507656792229,"67":-0.058279006480982214,"68":-0.044383697537391686,"69":-0.02162247873253619,"70":0.03152870939474407,"71":0.03577921866064253,"72":0.006319799915478635,"73":-0.08224147795121953,"74":-0.0858875432322665,"75":-0.0068696418547828245,"76":0.043079881656613084,"77":0.016808790740247926,"78":0.014693720712375668,"79":0.03141196588573306,"80":-0.02253567092825134,"81":-0.08505373306924302,"82":0.040345467341685974,"83":0.0017288731634528384,"84":0.07450472084879312,"85":0.056004361268339735,"86":-0.045298690550247135,"87":-0.04237297655192535,"88":0.007967502127431197,"89":0.10755280531138364,"90":-0.05079477014567592,"91":-0.06907068656747263,"92":-0.08893355048090458,"93":0.09319211815041113,"94":-0.0761091398516276,"95":0.0031872810838141337,"96":0.09087938328683619,"97":-0.009289195526581782,"98":-0.04624182742229646,"99":-0.07975427599279256,"100":0.014906011331071898,"101":0.05124234459774459,"102":0.04911604384381578,"103":-0.0654259244491879,"104":-0.007669094595570882,"105":-0.0938427880512861,"106":-0.0721612004946937,"107":-0.04144074963849812,"108":0.05912642695955734,"109":0.04830427806272971,"110":0.06776847042309696,"111":0.024363373794303353,"112":0.09641969640594261,"113":-0.014043908000328153,"114":-0.01358637761705016,"115":-0.06916833021525969,"116":-0.03548824710460899,"117":-0.03943448863293146,"118":-0.015090229305037011,"119":0.03479493872221939,"120":-0.024790942162354387,"121":0.06562240944444445,"122":-0.06457803543480482,"123":-0.046620783825393586,"124":-0.01307847312052638,"125":-0.06270609717828171,"126":-0.011576660316567776,"127":0.04537129963926882,"128":-0.010318078830956713,"129":-0.034872424787361814,"130":-0.028364418517526583,"131":-0.0036625582138347353,"132":-0.039050198657990594,"133":-0.12324308990168717,"134":0.021237091283166483,"135":-0.0654936195212017,"136":-0.014376237053408826,"137":0.0181104190516764,"138":0.048413263878287725,"139":0.04418059377405014,"140":-0.003903932334807998,"141":0.008400637498830622,"142":-0.044641206356980975,"143":0.14602462579504477,"144":-0.000388604602838648,"145":0.04676756720042848,"146":0.07367573882903695,"147":-0.0022254048964728632,"148":-0.018528533904244592,"149":0.053331730917507245,"150":0.09740646303184114,"151":0.07895483443844892,"152":0.041835515212646064,"153":0.05467102396418111,"154":-0.01718751498603629,"155":-0.13262203434052927,"156":0.09374204576665789,"157":-0.005742476942804843,"158":0.03933706015022987,"159":-0.004032984831305238,"160":0.03398329258723362,"161":-0.019288441299670958,"162":-0.03644862716981139,"163":-0.012326272017002513,"164":-0.0034144274366624478,"165":0.07323624105881497,"166":-0.057429784145407635,"167":0.027278644386181272,"168":0.08578409144659778,"169":0.050893668263027304,"170":0.0014766911131701838,"171":0.013325777257323108,"172":-0.01770484519487685,"173":-0.05103938719380449,"174":0.005734020046991619,"175":-0.09616174993364388,"176":-0.06940693818656617,"177":0.054136149072631125,"178":-0.014827218395004147,"179":-0.03123653796572883,"180":0.05027442204452019,"181":-0.0022638764770196522,"182":-0.033441848975427214,"183":-0.03184991401714106,"184":0.03383638507196719,"185":-0.07466069901517763,"186":-0.052988477177642164,"187":0.034336566495829356,"188":0.003194112457528728,"189":0.006454735294658951,"190":0.030310501662587096,"191":-0.04258940488718347,"192":-0.010539621796939938,"193":-0.023633549745076986,"194":-0.037096264506453876,"195":0.04556940364404636,"196":0.01045660668465776,"197":0.0034936092913979587,"198":-0.0287686432869536,"199":0.046976438014752625,"200":0.04090253182188825,"201":0.04028044567575899,"202":-0.03387395338030907,"203":-0.025840462943838783,"204":-0.060366626637484856,"205":0.027537702794151478,"206":-0.04270806029574858,"207":0.03480920184314961,"208":-0.020525801611108084,"209":0.08306750794702812,"210":0.023531136419729756,"211":-0.03195217838172143,"212":0.10060405837550704,"213":0.08343088218416603,"214":0.0035426246955665326,"215":0.038764969702621624,"216":0.04000335199673857,"217":0.098624975682783,"218":0.06552082990306247,"219":-0.0100403019140487,"220":-0.00555186908103667,"221":-0.007782345727944493,"222":-0.023930425321525995,"223":0.06282078312941362,"224":0.00662820981869538,"225":0.012612466470529644,"226":0.01401347379041527,"227":-0.09331273895470531,"228":0.03442361689304503,"229":-0.013410124093007793,"230":0.012524394449217659,"231":-0.02233098043386412,"232":0.096182492186631,"233":-0.034365749835696326,"234":-0.012694799853102338,"235":-0.06410838931543618,"236":-0.04284292581714748,"237":-0.0519969111619029,"238":-0.0009757193825720974,"239":-0.018732494593945066,"240":-0.0033913454001525127,"241":-0.049920933778523344,"242":-0.018437364381267928,"243":0.025267857758374694,"244":-0.06028857127527596,"245":-0.0024062045251226774,"246":-0.043051613028865766,"247":-0.03105575813422812,"248":0.010644247059129685,"249":-0.01936070418365588}},{"sx":5,"sy":5,"depth":10,"w":{"0":-0.06401663852219629,"1":0.0002963920251107564,"2":0.05682010831505359,"3":0.07921330392017496,"4":-0.04323599649241803,"5":0.01652993703647944,"6":-0.027954188557006154,"7":0.134680897868641,"8":-0.021884695116338525,"9":-0.09440920770825502,"10":0.06329351856605521,"11":0.10670657815626232,"12":0.02395585665779667,"13":0.0703380361590876,"14":0.05917101407068831,"15":0.06529669878489354,"16":-0.026332027479603132,"17":-0.0013704295615167559,"18":0.02955746523896917,"19":-0.05767530579658474,"20":0.03992700533658004,"21":0.012114206423046135,"22":-0.007347347286781802,"23":0.015278818221624454,"24":-0.03908391386785413,"25":0.005741970154399107,"26":-0.012558746359222649,"27":0.03607769029313557,"28":-0.023902538493869436,"29":-0.01712933860940649,"30":0.0012166340757614848,"31":-0.031200736302711998,"32":0.01348472649155422,"33":-0.002369537267363845,"34":0.0018772518721488461,"35":0.01802982954617791,"36":-0.08858071897271429,"37":0.009754808044600499,"38":0.04732671608120299,"39":-0.03125541895845491,"40":-0.0031053303037859793,"41":-0.07945243730835136,"42":-0.000125128955274896,"43":0.0016707614306293403,"44":0.014967150093812267,"45":0.05855515147344408,"46":-0.053210931722157316,"47":-0.018497700198743708,"48":-0.07304637182257333,"49":0.0365719541414169,"50":-0.003958890184443269,"51":0.05817186688796796,"52":-0.039104613801700217,"53":0.012556197228789274,"54":-0.08478396051352126,"55":0.013332541923449593,"56":0.03784040748107869,"57":-0.03134804846040885,"58":0.07784193628121498,"59":0.08313246200161688,"60":0.07474385587735906,"61":0.03720763277197294,"62":-0.02205047087011811,"63":0.014049434574751498,"64":-0.008379177652989426,"65":-0.05836469224464014,"66":-0.03082732756870487,"67":0.12345874918586015,"68":0.020257064448250855,"69":-0.028916801129539992,"70":0.07798160891793356,"71":0.04636338947289644,"72":-0.010346752301582106,"73":0.05463683980989012,"74":-0.06899459459503234,"75":0.028493153511905938,"76":-0.015164366355439992,"77":0.07986591700382847,"78":0.026606811879814445,"79":-0.030072040474872823,"80":-0.00360570265965392,"81":-0.03836958786284727,"82":0.03037268383639577,"83":0.03928660866735367,"84":-0.02843840357843249,"85":-0.01801846963202506,"86":-0.07070906799331744,"87":-0.06746763222378166,"88":0.19452313527295617,"89":-0.08511049140642094,"90":-0.029714225758982072,"91":0.03126657856197941,"92":-0.006783582311074739,"93":-0.0045257755197298764,"94":-0.05519993735888862,"95":-0.1012824315931644,"96":-0.0182201713862638,"97":-0.0503329988936077,"98":0.031919463674857235,"99":0.042496141080193194,"100":0.02053354091958343,"101":-0.0740376908159449,"102":0.08351201165578101,"103":0.04513812127124897,"104":-0.041838411375111365,"105":-0.004355658375252553,"106":0.05959978850693144,"107":0.006259791188727755,"108":0.02748540998352009,"109":-0.04523385501492325,"110":0.03699215076036558,"111":-0.027568752247179668,"112":0.10674041006622471,"113":-0.040501556385494575,"114":-0.023738530332506783,"115":0.040934927282790134,"116":-0.03008629110526907,"117":-0.022062020735573475,"118":-0.05675254144215957,"119":0.04945211808656504,"120":0.0873305124338829,"121":-0.015078309803755335,"122":-0.0007259225194186376,"123":0.0061924638595780125,"124":-0.0625095323099863,"125":0.01990047861972186,"126":-0.02594663079319337,"127":-0.09943676566770723,"128":0.056492138283417884,"129":0.0596660714464484,"130":-0.03198993132512079,"131":0.08092137440873975,"132":-0.012835973315623007,"133":-0.014345859655080492,"134":0.05463740407963403,"135":-0.07919979833315086,"136":-0.14214419398514608,"137":0.0022803581514989116,"138":-0.04181871616498509,"139":0.04550976136690107,"140":-0.016643092032461552,"141":0.10369136675243774,"142":0.06841787937637778,"143":-0.009743961410432994,"144":-0.1193808664254285,"145":0.04296170271680225,"146":0.0013933986579277155,"147":0.06299695721146069,"148":-0.07542693079752114,"149":0.016422411002204585,"150":-0.03531528105619073,"151":0.04944207708162464,"152":-0.01098466666643404,"153":-0.0005319503502776393,"154":0.0384969670107726,"155":0.012975744105962372,"156":0.022884906843770942,"157":-0.05895485749726496,"158":-0.0013063256055511926,"159":-0.0381906741069723,"160":-0.008606624733962072,"161":-0.04686306650239089,"162":-0.023604060874317004,"163":-0.005207416901525285,"164":0.053745227448082605,"165":-0.05145611246940953,"166":-0.02903511094132156,"167":-0.0687843020091949,"168":-0.020682163369640107,"169":0.006679727477781148,"170":-0.03734282382714283,"171":0.030925955102907434,"172":-0.012729967113140355,"173":-0.012492332902252268,"174":0.1702273491100628,"175":0.020588826154772612,"176":-0.016089095965405028,"177":0.012521968735464854,"178":0.004459943095390748,"179":0.05542311618825797,"180":-0.012120269022414391,"181":0.051077465241092884,"182":0.13998998501227278,"183":0.006031496744757159,"184":0.009983626634239169,"185":-0.04022952260091973,"186":0.026484058440449237,"187":-0.02493970997277313,"188":0.007323590995196906,"189":-0.04376461953655064,"190":0.005165452110853212,"191":0.05467646434204001,"192":0.021200089608905574,"193":-0.07757799514327984,"194":0.03347416081986954,"195":-0.0019449587998702294,"196":0.01820262558229294,"197":0.023621443322238395,"198":0.010587803443444191,"199":0.019828898687192297,"200":-0.07171330561407738,"201":-0.022805260682430672,"202":-0.09195193580662063,"203":0.0034941763126323236,"204":-0.017564452410992706,"205":0.030607344179940255,"206":0.009555145258141006,"207":0.046404499268429024,"208":0.022349883848356972,"209":-0.048518769312924516,"210":-0.011864917974439445,"211":-0.027364340304905015,"212":-0.05435353798899434,"213":-0.04578763513202724,